digraph Tree {
node [shape=box] ;
0 [label="X[17] <= 0.5\ngini = 0.545\nsamples = 44453\nvalue = [16381, 1024, 2048, 25000]"] ;
1 [label="X[16] <= 0.5\ngini = 0.47\nsamples = 36261\nvalue = [8189, 1024, 2048, 25000]"] ;
0 -> 1 [labeldistance=2.5, labelangle=45, headlabel="True"] ;
2 [label="X[14] <= 0.5\ngini = 0.375\nsamples = 32165\nvalue = [4093, 1024, 2048, 25000]"] ;
1 -> 2 ;
3 [label="X[15] <= 0.5\ngini = 0.301\nsamples = 30117\nvalue = [2045, 1024, 2048, 25000]"] ;
2 -> 3 ;
4 [label="X[19] <= 0.5\ngini = 0.254\nsamples = 29093\nvalue = [1021, 1024, 2048, 25000]"] ;
3 -> 4 ;
5 [label="X[4] <= 0.5\ngini = 0.228\nsamples = 28583\nvalue = [511, 1024, 2048, 25000]"] ;
4 -> 5 ;
6 [label="X[5] <= 0.5\ngini = 0.33\nsamples = 14460\nvalue = [255, 512, 2048, 11645]"] ;
5 -> 6 ;
7 [label="X[13] <= 0.5\ngini = 0.457\nsamples = 7780\nvalue = [127, 256, 2048, 5349]"] ;
6 -> 7 ;
8 [label="X[12] <= 0.5\ngini = 0.503\nsamples = 5661\nvalue = [64, 128, 2048, 3421]"] ;
7 -> 8 ;
9 [label="X[8] <= 0.5\ngini = 0.523\nsamples = 4128\nvalue = [32, 64, 2048, 1984]"] ;
8 -> 9 ;
10 [label="X[9] <= 0.5\ngini = 0.543\nsamples = 2089\nvalue = [32, 64, 1024, 969]"] ;
9 -> 10 ;
11 [label="X[11] <= 0.5\ngini = 0.58\nsamples = 1077\nvalue = [32, 64, 512, 469]"] ;
10 -> 11 ;
12 [label="X[7] <= 0.5\ngini = 0.636\nsamples = 575\nvalue = [32, 64, 256, 223]"] ;
11 -> 12 ;
13 [label="X[10] <= 0.5\ngini = 0.7\nsamples = 328\nvalue = [32, 64, 128, 104]"] ;
12 -> 13 ;
14 [label="X[6] <= 0.5\ngini = 0.733\nsamples = 207\nvalue = [32, 64, 64, 47]"] ;
13 -> 14 ;
15 [label="X[1] <= 0.5\ngini = 0.743\nsamples = 117\nvalue = [32, 32, 32, 21]"] ;
14 -> 15 ;
16 [label="X[2] <= 0.5\ngini = 0.73\nsamples = 55\nvalue = [16, 16, 16, 7]"] ;
15 -> 16 ;
17 [label="X[3] <= 0.5\ngini = 0.691\nsamples = 25\nvalue = [8, 8, 8, 1]"] ;
16 -> 17 ;
18 [label="X[0] <= 0.5\ngini = 0.71\nsamples = 13\nvalue = [4, 4, 4, 1]"] ;
17 -> 18 ;
19 [label="X[18] <= 0.5\ngini = 0.735\nsamples = 7\nvalue = [2, 2, 2, 1]"] ;
18 -> 19 ;
20 [label="gini = 0.667\nsamples = 3\nvalue = [1, 1, 1, 0]"] ;
19 -> 20 ;
21 [label="gini = 0.75\nsamples = 4\nvalue = [1, 1, 1, 1]"] ;
19 -> 21 ;
22 [label="X[18] <= 0.5\ngini = 0.667\nsamples = 6\nvalue = [2, 2, 2, 0]"] ;
18 -> 22 ;
23 [label="gini = 0.667\nsamples = 3\nvalue = [1, 1, 1, 0]"] ;
22 -> 23 ;
24 [label="gini = 0.667\nsamples = 3\nvalue = [1, 1, 1, 0]"] ;
22 -> 24 ;
25 [label="X[18] <= 0.5\ngini = 0.667\nsamples = 12\nvalue = [4, 4, 4, 0]"] ;
17 -> 25 ;
26 [label="X[0] <= 0.5\ngini = 0.667\nsamples = 6\nvalue = [2, 2, 2, 0]"] ;
25 -> 26 ;
27 [label="gini = 0.667\nsamples = 3\nvalue = [1, 1, 1, 0]"] ;
26 -> 27 ;
28 [label="gini = 0.667\nsamples = 3\nvalue = [1, 1, 1, 0]"] ;
26 -> 28 ;
29 [label="X[0] <= 0.5\ngini = 0.667\nsamples = 6\nvalue = [2, 2, 2, 0]"] ;
25 -> 29 ;
30 [label="gini = 0.667\nsamples = 3\nvalue = [1, 1, 1, 0]"] ;
29 -> 30 ;
31 [label="gini = 0.667\nsamples = 3\nvalue = [1, 1, 1, 0]"] ;
29 -> 31 ;
32 [label="X[3] <= 0.5\ngini = 0.747\nsamples = 30\nvalue = [8, 8, 8, 6]"] ;
16 -> 32 ;
33 [label="X[0] <= 0.5\ngini = 0.735\nsamples = 14\nvalue = [4, 4, 4, 2]"] ;
32 -> 33 ;
34 [label="X[18] <= 0.5\ngini = 0.667\nsamples = 6\nvalue = [2, 2, 2, 0]"] ;
33 -> 34 ;
35 [label="gini = 0.667\nsamples = 3\nvalue = [1, 1, 1, 0]"] ;
34 -> 35 ;
36 [label="gini = 0.667\nsamples = 3\nvalue = [1, 1, 1, 0]"] ;
34 -> 36 ;
37 [label="X[18] <= 0.5\ngini = 0.75\nsamples = 8\nvalue = [2, 2, 2, 2]"] ;
33 -> 37 ;
38 [label="gini = 0.75\nsamples = 4\nvalue = [1, 1, 1, 1]"] ;
37 -> 38 ;
39 [label="gini = 0.75\nsamples = 4\nvalue = [1, 1, 1, 1]"] ;
37 -> 39 ;
40 [label="X[0] <= 0.5\ngini = 0.75\nsamples = 16\nvalue = [4, 4, 4, 4]"] ;
32 -> 40 ;
41 [label="X[18] <= 0.5\ngini = 0.75\nsamples = 8\nvalue = [2, 2, 2, 2]"] ;
40 -> 41 ;
42 [label="gini = 0.75\nsamples = 4\nvalue = [1, 1, 1, 1]"] ;
41 -> 42 ;
43 [label="gini = 0.75\nsamples = 4\nvalue = [1, 1, 1, 1]"] ;
41 -> 43 ;
44 [label="X[18] <= 0.5\ngini = 0.75\nsamples = 8\nvalue = [2, 2, 2, 2]"] ;
40 -> 44 ;
45 [label="gini = 0.75\nsamples = 4\nvalue = [1, 1, 1, 1]"] ;
44 -> 45 ;
46 [label="gini = 0.75\nsamples = 4\nvalue = [1, 1, 1, 1]"] ;
44 -> 46 ;
47 [label="X[3] <= 0.5\ngini = 0.749\nsamples = 62\nvalue = [16, 16, 16, 14]"] ;
15 -> 47 ;
48 [label="X[18] <= 0.5\ngini = 0.747\nsamples = 30\nvalue = [8, 8, 8, 6]"] ;
47 -> 48 ;
49 [label="X[0] <= 0.5\ngini = 0.735\nsamples = 14\nvalue = [4, 4, 4, 2]"] ;
48 -> 49 ;
50 [label="X[2] <= 0.5\ngini = 0.735\nsamples = 7\nvalue = [2, 2, 2, 1]"] ;
49 -> 50 ;
51 [label="gini = 0.667\nsamples = 3\nvalue = [1, 1, 1, 0]"] ;
50 -> 51 ;
52 [label="gini = 0.75\nsamples = 4\nvalue = [1, 1, 1, 1]"] ;
50 -> 52 ;
53 [label="X[2] <= 0.5\ngini = 0.735\nsamples = 7\nvalue = [2, 2, 2, 1]"] ;
49 -> 53 ;
54 [label="gini = 0.75\nsamples = 4\nvalue = [1, 1, 1, 1]"] ;
53 -> 54 ;
55 [label="gini = 0.667\nsamples = 3\nvalue = [1, 1, 1, 0]"] ;
53 -> 55 ;
56 [label="X[0] <= 0.5\ngini = 0.75\nsamples = 16\nvalue = [4, 4, 4, 4]"] ;
48 -> 56 ;
57 [label="X[2] <= 0.5\ngini = 0.75\nsamples = 8\nvalue = [2, 2, 2, 2]"] ;
56 -> 57 ;
58 [label="gini = 0.75\nsamples = 4\nvalue = [1, 1, 1, 1]"] ;
57 -> 58 ;
59 [label="gini = 0.75\nsamples = 4\nvalue = [1, 1, 1, 1]"] ;
57 -> 59 ;
60 [label="X[2] <= 0.5\ngini = 0.75\nsamples = 8\nvalue = [2, 2, 2, 2]"] ;
56 -> 60 ;
61 [label="gini = 0.75\nsamples = 4\nvalue = [1, 1, 1, 1]"] ;
60 -> 61 ;
62 [label="gini = 0.75\nsamples = 4\nvalue = [1, 1, 1, 1]"] ;
60 -> 62 ;
63 [label="X[0] <= 0.5\ngini = 0.75\nsamples = 32\nvalue = [8, 8, 8, 8]"] ;
47 -> 63 ;
64 [label="X[18] <= 0.5\ngini = 0.75\nsamples = 16\nvalue = [4, 4, 4, 4]"] ;
63 -> 64 ;
65 [label="X[2] <= 0.5\ngini = 0.75\nsamples = 8\nvalue = [2, 2, 2, 2]"] ;
64 -> 65 ;
66 [label="gini = 0.75\nsamples = 4\nvalue = [1, 1, 1, 1]"] ;
65 -> 66 ;
67 [label="gini = 0.75\nsamples = 4\nvalue = [1, 1, 1, 1]"] ;
65 -> 67 ;
68 [label="X[2] <= 0.5\ngini = 0.75\nsamples = 8\nvalue = [2, 2, 2, 2]"] ;
64 -> 68 ;
69 [label="gini = 0.75\nsamples = 4\nvalue = [1, 1, 1, 1]"] ;
68 -> 69 ;
70 [label="gini = 0.75\nsamples = 4\nvalue = [1, 1, 1, 1]"] ;
68 -> 70 ;
71 [label="X[2] <= 0.5\ngini = 0.75\nsamples = 16\nvalue = [4, 4, 4, 4]"] ;
63 -> 71 ;
72 [label="X[18] <= 0.5\ngini = 0.75\nsamples = 8\nvalue = [2, 2, 2, 2]"] ;
71 -> 72 ;
73 [label="gini = 0.75\nsamples = 4\nvalue = [1, 1, 1, 1]"] ;
72 -> 73 ;
74 [label="gini = 0.75\nsamples = 4\nvalue = [1, 1, 1, 1]"] ;
72 -> 74 ;
75 [label="X[18] <= 0.5\ngini = 0.75\nsamples = 8\nvalue = [2, 2, 2, 2]"] ;
71 -> 75 ;
76 [label="gini = 0.75\nsamples = 4\nvalue = [1, 1, 1, 1]"] ;
75 -> 76 ;
77 [label="gini = 0.75\nsamples = 4\nvalue = [1, 1, 1, 1]"] ;
75 -> 77 ;
78 [label="X[3] <= 0.5\ngini = 0.664\nsamples = 90\nvalue = [0, 32, 32, 26]"] ;
14 -> 78 ;
79 [label="X[18] <= 0.5\ngini = 0.658\nsamples = 43\nvalue = [0, 16, 16, 11]"] ;
78 -> 79 ;
80 [label="X[0] <= 0.5\ngini = 0.64\nsamples = 20\nvalue = [0, 8, 8, 4]"] ;
79 -> 80 ;
81 [label="X[2] <= 0.5\ngini = 0.593\nsamples = 9\nvalue = [0, 4, 4, 1]"] ;
80 -> 81 ;
82 [label="X[1] <= 0.5\ngini = 0.5\nsamples = 4\nvalue = [0, 2, 2, 0]"] ;
81 -> 82 ;
83 [label="gini = 0.5\nsamples = 2\nvalue = [0, 1, 1, 0]"] ;
82 -> 83 ;
84 [label="gini = 0.5\nsamples = 2\nvalue = [0, 1, 1, 0]"] ;
82 -> 84 ;
85 [label="X[1] <= 0.5\ngini = 0.64\nsamples = 5\nvalue = [0, 2, 2, 1]"] ;
81 -> 85 ;
86 [label="gini = 0.5\nsamples = 2\nvalue = [0, 1, 1, 0]"] ;
85 -> 86 ;
87 [label="gini = 0.667\nsamples = 3\nvalue = [0, 1, 1, 1]"] ;
85 -> 87 ;
88 [label="X[2] <= 0.5\ngini = 0.661\nsamples = 11\nvalue = [0, 4, 4, 3]"] ;
80 -> 88 ;
89 [label="X[1] <= 0.5\ngini = 0.64\nsamples = 5\nvalue = [0, 2, 2, 1]"] ;
88 -> 89 ;
90 [label="gini = 0.667\nsamples = 3\nvalue = [0, 1, 1, 1]"] ;
89 -> 90 ;
91 [label="gini = 0.5\nsamples = 2\nvalue = [0, 1, 1, 0]"] ;
89 -> 91 ;
92 [label="X[1] <= 0.5\ngini = 0.667\nsamples = 6\nvalue = [0, 2, 2, 2]"] ;
88 -> 92 ;
93 [label="gini = 0.667\nsamples = 3\nvalue = [0, 1, 1, 1]"] ;
92 -> 93 ;
94 [label="gini = 0.667\nsamples = 3\nvalue = [0, 1, 1, 1]"] ;
92 -> 94 ;
95 [label="X[2] <= 0.5\ngini = 0.665\nsamples = 23\nvalue = [0, 8, 8, 7]"] ;
79 -> 95 ;
96 [label="X[1] <= 0.5\ngini = 0.661\nsamples = 11\nvalue = [0, 4, 4, 3]"] ;
95 -> 96 ;
97 [label="X[0] <= 0.5\ngini = 0.64\nsamples = 5\nvalue = [0, 2, 2, 1]"] ;
96 -> 97 ;
98 [label="gini = 0.5\nsamples = 2\nvalue = [0, 1, 1, 0]"] ;
97 -> 98 ;
99 [label="gini = 0.667\nsamples = 3\nvalue = [0, 1, 1, 1]"] ;
97 -> 99 ;
100 [label="X[0] <= 0.5\ngini = 0.667\nsamples = 6\nvalue = [0, 2, 2, 2]"] ;
96 -> 100 ;
101 [label="gini = 0.667\nsamples = 3\nvalue = [0, 1, 1, 1]"] ;
100 -> 101 ;
102 [label="gini = 0.667\nsamples = 3\nvalue = [0, 1, 1, 1]"] ;
100 -> 102 ;
103 [label="X[0] <= 0.5\ngini = 0.667\nsamples = 12\nvalue = [0, 4, 4, 4]"] ;
95 -> 103 ;
104 [label="X[1] <= 0.5\ngini = 0.667\nsamples = 6\nvalue = [0, 2, 2, 2]"] ;
103 -> 104 ;
105 [label="gini = 0.667\nsamples = 3\nvalue = [0, 1, 1, 1]"] ;
104 -> 105 ;
106 [label="gini = 0.667\nsamples = 3\nvalue = [0, 1, 1, 1]"] ;
104 -> 106 ;
107 [label="X[1] <= 0.5\ngini = 0.667\nsamples = 6\nvalue = [0, 2, 2, 2]"] ;
103 -> 107 ;
108 [label="gini = 0.667\nsamples = 3\nvalue = [0, 1, 1, 1]"] ;
107 -> 108 ;
109 [label="gini = 0.667\nsamples = 3\nvalue = [0, 1, 1, 1]"] ;
107 -> 109 ;
110 [label="X[0] <= 0.5\ngini = 0.666\nsamples = 47\nvalue = [0, 16, 16, 15]"] ;
78 -> 110 ;
111 [label="X[1] <= 0.5\ngini = 0.667\nsamples = 24\nvalue = [0, 8, 8, 8]"] ;
110 -> 111 ;
112 [label="X[18] <= 0.5\ngini = 0.667\nsamples = 12\nvalue = [0, 4, 4, 4]"] ;
111 -> 112 ;
113 [label="X[2] <= 0.5\ngini = 0.667\nsamples = 6\nvalue = [0, 2, 2, 2]"] ;
112 -> 113 ;
114 [label="gini = 0.667\nsamples = 3\nvalue = [0, 1, 1, 1]"] ;
113 -> 114 ;
115 [label="gini = 0.667\nsamples = 3\nvalue = [0, 1, 1, 1]"] ;
113 -> 115 ;
116 [label="X[2] <= 0.5\ngini = 0.667\nsamples = 6\nvalue = [0, 2, 2, 2]"] ;
112 -> 116 ;
117 [label="gini = 0.667\nsamples = 3\nvalue = [0, 1, 1, 1]"] ;
116 -> 117 ;
118 [label="gini = 0.667\nsamples = 3\nvalue = [0, 1, 1, 1]"] ;
116 -> 118 ;
119 [label="X[18] <= 0.5\ngini = 0.667\nsamples = 12\nvalue = [0, 4, 4, 4]"] ;
111 -> 119 ;
120 [label="X[2] <= 0.5\ngini = 0.667\nsamples = 6\nvalue = [0, 2, 2, 2]"] ;
119 -> 120 ;
121 [label="gini = 0.667\nsamples = 3\nvalue = [0, 1, 1, 1]"] ;
120 -> 121 ;
122 [label="gini = 0.667\nsamples = 3\nvalue = [0, 1, 1, 1]"] ;
120 -> 122 ;
123 [label="X[2] <= 0.5\ngini = 0.667\nsamples = 6\nvalue = [0, 2, 2, 2]"] ;
119 -> 123 ;
124 [label="gini = 0.667\nsamples = 3\nvalue = [0, 1, 1, 1]"] ;
123 -> 124 ;
125 [label="gini = 0.667\nsamples = 3\nvalue = [0, 1, 1, 1]"] ;
123 -> 125 ;
126 [label="X[2] <= 0.5\ngini = 0.665\nsamples = 23\nvalue = [0, 8, 8, 7]"] ;
110 -> 126 ;
127 [label="X[18] <= 0.5\ngini = 0.667\nsamples = 12\nvalue = [0, 4, 4, 4]"] ;
126 -> 127 ;
128 [label="X[1] <= 0.5\ngini = 0.667\nsamples = 6\nvalue = [0, 2, 2, 2]"] ;
127 -> 128 ;
129 [label="gini = 0.667\nsamples = 3\nvalue = [0, 1, 1, 1]"] ;
128 -> 129 ;
130 [label="gini = 0.667\nsamples = 3\nvalue = [0, 1, 1, 1]"] ;
128 -> 130 ;
131 [label="X[1] <= 0.5\ngini = 0.667\nsamples = 6\nvalue = [0, 2, 2, 2]"] ;
127 -> 131 ;
132 [label="gini = 0.667\nsamples = 3\nvalue = [0, 1, 1, 1]"] ;
131 -> 132 ;
133 [label="gini = 0.667\nsamples = 3\nvalue = [0, 1, 1, 1]"] ;
131 -> 133 ;
134 [label="X[18] <= 0.5\ngini = 0.661\nsamples = 11\nvalue = [0, 4, 4, 3]"] ;
126 -> 134 ;
135 [label="X[1] <= 0.5\ngini = 0.64\nsamples = 5\nvalue = [0, 2, 2, 1]"] ;
134 -> 135 ;
136 [label="gini = 0.5\nsamples = 2\nvalue = [0, 1, 1, 0]"] ;
135 -> 136 ;
137 [label="gini = 0.667\nsamples = 3\nvalue = [0, 1, 1, 1]"] ;
135 -> 137 ;
138 [label="X[1] <= 0.5\ngini = 0.667\nsamples = 6\nvalue = [0, 2, 2, 2]"] ;
134 -> 138 ;
139 [label="gini = 0.667\nsamples = 3\nvalue = [0, 1, 1, 1]"] ;
138 -> 139 ;
140 [label="gini = 0.667\nsamples = 3\nvalue = [0, 1, 1, 1]"] ;
138 -> 140 ;
141 [label="X[1] <= 0.5\ngini = 0.498\nsamples = 121\nvalue = [0, 0, 64, 57]"] ;
13 -> 141 ;
142 [label="X[0] <= 0.5\ngini = 0.495\nsamples = 58\nvalue = [0, 0, 32, 26]"] ;
141 -> 142 ;
143 [label="X[2] <= 0.5\ngini = 0.473\nsamples = 26\nvalue = [0, 0, 16, 10]"] ;
142 -> 143 ;
144 [label="X[3] <= 0.5\ngini = 0.397\nsamples = 11\nvalue = [0, 0, 8, 3]"] ;
143 -> 144 ;
145 [label="gini = 0.0\nsamples = 4\nvalue = [0, 0, 4, 0]"] ;
144 -> 145 ;
146 [label="X[18] <= 0.5\ngini = 0.49\nsamples = 7\nvalue = [0, 0, 4, 3]"] ;
144 -> 146 ;
147 [label="X[6] <= 0.5\ngini = 0.444\nsamples = 3\nvalue = [0, 0, 2, 1]"] ;
146 -> 147 ;
148 [label="gini = 0.0\nsamples = 1\nvalue = [0, 0, 1, 0]"] ;
147 -> 148 ;
149 [label="gini = 0.5\nsamples = 2\nvalue = [0, 0, 1, 1]"] ;
147 -> 149 ;
150 [label="X[6] <= 0.5\ngini = 0.5\nsamples = 4\nvalue = [0, 0, 2, 2]"] ;
146 -> 150 ;
151 [label="gini = 0.5\nsamples = 2\nvalue = [0, 0, 1, 1]"] ;
150 -> 151 ;
152 [label="gini = 0.5\nsamples = 2\nvalue = [0, 0, 1, 1]"] ;
150 -> 152 ;
153 [label="X[18] <= 0.5\ngini = 0.498\nsamples = 15\nvalue = [0, 0, 8, 7]"] ;
143 -> 153 ;
154 [label="X[6] <= 0.5\ngini = 0.49\nsamples = 7\nvalue = [0, 0, 4, 3]"] ;
153 -> 154 ;
155 [label="X[3] <= 0.5\ngini = 0.444\nsamples = 3\nvalue = [0, 0, 2, 1]"] ;
154 -> 155 ;
156 [label="gini = 0.0\nsamples = 1\nvalue = [0, 0, 1, 0]"] ;
155 -> 156 ;
157 [label="gini = 0.5\nsamples = 2\nvalue = [0, 0, 1, 1]"] ;
155 -> 157 ;
158 [label="X[3] <= 0.5\ngini = 0.5\nsamples = 4\nvalue = [0, 0, 2, 2]"] ;
154 -> 158 ;
159 [label="gini = 0.5\nsamples = 2\nvalue = [0, 0, 1, 1]"] ;
158 -> 159 ;
160 [label="gini = 0.5\nsamples = 2\nvalue = [0, 0, 1, 1]"] ;
158 -> 160 ;
161 [label="X[6] <= 0.5\ngini = 0.5\nsamples = 8\nvalue = [0, 0, 4, 4]"] ;
153 -> 161 ;
162 [label="X[3] <= 0.5\ngini = 0.5\nsamples = 4\nvalue = [0, 0, 2, 2]"] ;
161 -> 162 ;
163 [label="gini = 0.5\nsamples = 2\nvalue = [0, 0, 1, 1]"] ;
162 -> 163 ;
164 [label="gini = 0.5\nsamples = 2\nvalue = [0, 0, 1, 1]"] ;
162 -> 164 ;
165 [label="X[3] <= 0.5\ngini = 0.5\nsamples = 4\nvalue = [0, 0, 2, 2]"] ;
161 -> 165 ;
166 [label="gini = 0.5\nsamples = 2\nvalue = [0, 0, 1, 1]"] ;
165 -> 166 ;
167 [label="gini = 0.5\nsamples = 2\nvalue = [0, 0, 1, 1]"] ;
165 -> 167 ;
168 [label="X[6] <= 0.5\ngini = 0.5\nsamples = 32\nvalue = [0, 0, 16, 16]"] ;
142 -> 168 ;
169 [label="X[18] <= 0.5\ngini = 0.5\nsamples = 16\nvalue = [0, 0, 8, 8]"] ;
168 -> 169 ;
170 [label="X[3] <= 0.5\ngini = 0.5\nsamples = 8\nvalue = [0, 0, 4, 4]"] ;
169 -> 170 ;
171 [label="X[2] <= 0.5\ngini = 0.5\nsamples = 4\nvalue = [0, 0, 2, 2]"] ;
170 -> 171 ;
172 [label="gini = 0.5\nsamples = 2\nvalue = [0, 0, 1, 1]"] ;
171 -> 172 ;
173 [label="gini = 0.5\nsamples = 2\nvalue = [0, 0, 1, 1]"] ;
171 -> 173 ;
174 [label="X[2] <= 0.5\ngini = 0.5\nsamples = 4\nvalue = [0, 0, 2, 2]"] ;
170 -> 174 ;
175 [label="gini = 0.5\nsamples = 2\nvalue = [0, 0, 1, 1]"] ;
174 -> 175 ;
176 [label="gini = 0.5\nsamples = 2\nvalue = [0, 0, 1, 1]"] ;
174 -> 176 ;
177 [label="X[2] <= 0.5\ngini = 0.5\nsamples = 8\nvalue = [0, 0, 4, 4]"] ;
169 -> 177 ;
178 [label="X[3] <= 0.5\ngini = 0.5\nsamples = 4\nvalue = [0, 0, 2, 2]"] ;
177 -> 178 ;
179 [label="gini = 0.5\nsamples = 2\nvalue = [0, 0, 1, 1]"] ;
178 -> 179 ;
180 [label="gini = 0.5\nsamples = 2\nvalue = [0, 0, 1, 1]"] ;
178 -> 180 ;
181 [label="X[3] <= 0.5\ngini = 0.5\nsamples = 4\nvalue = [0, 0, 2, 2]"] ;
177 -> 181 ;
182 [label="gini = 0.5\nsamples = 2\nvalue = [0, 0, 1, 1]"] ;
181 -> 182 ;
183 [label="gini = 0.5\nsamples = 2\nvalue = [0, 0, 1, 1]"] ;
181 -> 183 ;
184 [label="X[18] <= 0.5\ngini = 0.5\nsamples = 16\nvalue = [0, 0, 8, 8]"] ;
168 -> 184 ;
185 [label="X[3] <= 0.5\ngini = 0.5\nsamples = 8\nvalue = [0, 0, 4, 4]"] ;
184 -> 185 ;
186 [label="X[2] <= 0.5\ngini = 0.5\nsamples = 4\nvalue = [0, 0, 2, 2]"] ;
185 -> 186 ;
187 [label="gini = 0.5\nsamples = 2\nvalue = [0, 0, 1, 1]"] ;
186 -> 187 ;
188 [label="gini = 0.5\nsamples = 2\nvalue = [0, 0, 1, 1]"] ;
186 -> 188 ;
189 [label="X[2] <= 0.5\ngini = 0.5\nsamples = 4\nvalue = [0, 0, 2, 2]"] ;
185 -> 189 ;
190 [label="gini = 0.5\nsamples = 2\nvalue = [0, 0, 1, 1]"] ;
189 -> 190 ;
191 [label="gini = 0.5\nsamples = 2\nvalue = [0, 0, 1, 1]"] ;
189 -> 191 ;
192 [label="X[2] <= 0.5\ngini = 0.5\nsamples = 8\nvalue = [0, 0, 4, 4]"] ;
184 -> 192 ;
193 [label="X[3] <= 0.5\ngini = 0.5\nsamples = 4\nvalue = [0, 0, 2, 2]"] ;
192 -> 193 ;
194 [label="gini = 0.5\nsamples = 2\nvalue = [0, 0, 1, 1]"] ;
193 -> 194 ;
195 [label="gini = 0.5\nsamples = 2\nvalue = [0, 0, 1, 1]"] ;
193 -> 195 ;
196 [label="X[3] <= 0.5\ngini = 0.5\nsamples = 4\nvalue = [0, 0, 2, 2]"] ;
192 -> 196 ;
197 [label="gini = 0.5\nsamples = 2\nvalue = [0, 0, 1, 1]"] ;
196 -> 197 ;
198 [label="gini = 0.5\nsamples = 2\nvalue = [0, 0, 1, 1]"] ;
196 -> 198 ;
199 [label="X[6] <= 0.5\ngini = 0.5\nsamples = 63\nvalue = [0, 0, 32, 31]"] ;
141 -> 199 ;
200 [label="X[2] <= 0.5\ngini = 0.499\nsamples = 31\nvalue = [0, 0, 16, 15]"] ;
199 -> 200 ;
201 [label="X[0] <= 0.5\ngini = 0.498\nsamples = 15\nvalue = [0, 0, 8, 7]"] ;
200 -> 201 ;
202 [label="X[3] <= 0.5\ngini = 0.5\nsamples = 8\nvalue = [0, 0, 4, 4]"] ;
201 -> 202 ;
203 [label="X[18] <= 0.5\ngini = 0.5\nsamples = 4\nvalue = [0, 0, 2, 2]"] ;
202 -> 203 ;
204 [label="gini = 0.5\nsamples = 2\nvalue = [0, 0, 1, 1]"] ;
203 -> 204 ;
205 [label="gini = 0.5\nsamples = 2\nvalue = [0, 0, 1, 1]"] ;
203 -> 205 ;
206 [label="X[18] <= 0.5\ngini = 0.5\nsamples = 4\nvalue = [0, 0, 2, 2]"] ;
202 -> 206 ;
207 [label="gini = 0.5\nsamples = 2\nvalue = [0, 0, 1, 1]"] ;
206 -> 207 ;
208 [label="gini = 0.5\nsamples = 2\nvalue = [0, 0, 1, 1]"] ;
206 -> 208 ;
209 [label="X[18] <= 0.5\ngini = 0.49\nsamples = 7\nvalue = [0, 0, 4, 3]"] ;
201 -> 209 ;
210 [label="X[3] <= 0.5\ngini = 0.444\nsamples = 3\nvalue = [0, 0, 2, 1]"] ;
209 -> 210 ;
211 [label="gini = 0.0\nsamples = 1\nvalue = [0, 0, 1, 0]"] ;
210 -> 211 ;
212 [label="gini = 0.5\nsamples = 2\nvalue = [0, 0, 1, 1]"] ;
210 -> 212 ;
213 [label="X[3] <= 0.5\ngini = 0.5\nsamples = 4\nvalue = [0, 0, 2, 2]"] ;
209 -> 213 ;
214 [label="gini = 0.5\nsamples = 2\nvalue = [0, 0, 1, 1]"] ;
213 -> 214 ;
215 [label="gini = 0.5\nsamples = 2\nvalue = [0, 0, 1, 1]"] ;
213 -> 215 ;
216 [label="X[18] <= 0.5\ngini = 0.5\nsamples = 16\nvalue = [0, 0, 8, 8]"] ;
200 -> 216 ;
217 [label="X[3] <= 0.5\ngini = 0.5\nsamples = 8\nvalue = [0, 0, 4, 4]"] ;
216 -> 217 ;
218 [label="X[0] <= 0.5\ngini = 0.5\nsamples = 4\nvalue = [0, 0, 2, 2]"] ;
217 -> 218 ;
219 [label="gini = 0.5\nsamples = 2\nvalue = [0, 0, 1, 1]"] ;
218 -> 219 ;
220 [label="gini = 0.5\nsamples = 2\nvalue = [0, 0, 1, 1]"] ;
218 -> 220 ;
221 [label="X[0] <= 0.5\ngini = 0.5\nsamples = 4\nvalue = [0, 0, 2, 2]"] ;
217 -> 221 ;
222 [label="gini = 0.5\nsamples = 2\nvalue = [0, 0, 1, 1]"] ;
221 -> 222 ;
223 [label="gini = 0.5\nsamples = 2\nvalue = [0, 0, 1, 1]"] ;
221 -> 223 ;
224 [label="X[3] <= 0.5\ngini = 0.5\nsamples = 8\nvalue = [0, 0, 4, 4]"] ;
216 -> 224 ;
225 [label="X[0] <= 0.5\ngini = 0.5\nsamples = 4\nvalue = [0, 0, 2, 2]"] ;
224 -> 225 ;
226 [label="gini = 0.5\nsamples = 2\nvalue = [0, 0, 1, 1]"] ;
225 -> 226 ;
227 [label="gini = 0.5\nsamples = 2\nvalue = [0, 0, 1, 1]"] ;
225 -> 227 ;
228 [label="X[0] <= 0.5\ngini = 0.5\nsamples = 4\nvalue = [0, 0, 2, 2]"] ;
224 -> 228 ;
229 [label="gini = 0.5\nsamples = 2\nvalue = [0, 0, 1, 1]"] ;
228 -> 229 ;
230 [label="gini = 0.5\nsamples = 2\nvalue = [0, 0, 1, 1]"] ;
228 -> 230 ;
231 [label="X[2] <= 0.5\ngini = 0.5\nsamples = 32\nvalue = [0, 0, 16, 16]"] ;
199 -> 231 ;
232 [label="X[18] <= 0.5\ngini = 0.5\nsamples = 16\nvalue = [0, 0, 8, 8]"] ;
231 -> 232 ;
233 [label="X[3] <= 0.5\ngini = 0.5\nsamples = 8\nvalue = [0, 0, 4, 4]"] ;
232 -> 233 ;
234 [label="X[0] <= 0.5\ngini = 0.5\nsamples = 4\nvalue = [0, 0, 2, 2]"] ;
233 -> 234 ;
235 [label="gini = 0.5\nsamples = 2\nvalue = [0, 0, 1, 1]"] ;
234 -> 235 ;
236 [label="gini = 0.5\nsamples = 2\nvalue = [0, 0, 1, 1]"] ;
234 -> 236 ;
237 [label="X[0] <= 0.5\ngini = 0.5\nsamples = 4\nvalue = [0, 0, 2, 2]"] ;
233 -> 237 ;
238 [label="gini = 0.5\nsamples = 2\nvalue = [0, 0, 1, 1]"] ;
237 -> 238 ;
239 [label="gini = 0.5\nsamples = 2\nvalue = [0, 0, 1, 1]"] ;
237 -> 239 ;
240 [label="X[0] <= 0.5\ngini = 0.5\nsamples = 8\nvalue = [0, 0, 4, 4]"] ;
232 -> 240 ;
241 [label="X[3] <= 0.5\ngini = 0.5\nsamples = 4\nvalue = [0, 0, 2, 2]"] ;
240 -> 241 ;
242 [label="gini = 0.5\nsamples = 2\nvalue = [0, 0, 1, 1]"] ;
241 -> 242 ;
243 [label="gini = 0.5\nsamples = 2\nvalue = [0, 0, 1, 1]"] ;
241 -> 243 ;
244 [label="X[3] <= 0.5\ngini = 0.5\nsamples = 4\nvalue = [0, 0, 2, 2]"] ;
240 -> 244 ;
245 [label="gini = 0.5\nsamples = 2\nvalue = [0, 0, 1, 1]"] ;
244 -> 245 ;
246 [label="gini = 0.5\nsamples = 2\nvalue = [0, 0, 1, 1]"] ;
244 -> 246 ;
247 [label="X[3] <= 0.5\ngini = 0.5\nsamples = 16\nvalue = [0, 0, 8, 8]"] ;
231 -> 247 ;
248 [label="X[18] <= 0.5\ngini = 0.5\nsamples = 8\nvalue = [0, 0, 4, 4]"] ;
247 -> 248 ;
249 [label="X[0] <= 0.5\ngini = 0.5\nsamples = 4\nvalue = [0, 0, 2, 2]"] ;
248 -> 249 ;
250 [label="gini = 0.5\nsamples = 2\nvalue = [0, 0, 1, 1]"] ;
249 -> 250 ;
251 [label="gini = 0.5\nsamples = 2\nvalue = [0, 0, 1, 1]"] ;
249 -> 251 ;
252 [label="X[0] <= 0.5\ngini = 0.5\nsamples = 4\nvalue = [0, 0, 2, 2]"] ;
248 -> 252 ;
253 [label="gini = 0.5\nsamples = 2\nvalue = [0, 0, 1, 1]"] ;
252 -> 253 ;
254 [label="gini = 0.5\nsamples = 2\nvalue = [0, 0, 1, 1]"] ;
252 -> 254 ;
255 [label="X[18] <= 0.5\ngini = 0.5\nsamples = 8\nvalue = [0, 0, 4, 4]"] ;
247 -> 255 ;
256 [label="X[0] <= 0.5\ngini = 0.5\nsamples = 4\nvalue = [0, 0, 2, 2]"] ;
255 -> 256 ;
257 [label="gini = 0.5\nsamples = 2\nvalue = [0, 0, 1, 1]"] ;
256 -> 257 ;
258 [label="gini = 0.5\nsamples = 2\nvalue = [0, 0, 1, 1]"] ;
256 -> 258 ;
259 [label="X[0] <= 0.5\ngini = 0.5\nsamples = 4\nvalue = [0, 0, 2, 2]"] ;
255 -> 259 ;
260 [label="gini = 0.5\nsamples = 2\nvalue = [0, 0, 1, 1]"] ;
259 -> 260 ;
261 [label="gini = 0.5\nsamples = 2\nvalue = [0, 0, 1, 1]"] ;
259 -> 261 ;
262 [label="X[18] <= 0.5\ngini = 0.499\nsamples = 247\nvalue = [0, 0, 128, 119]"] ;
12 -> 262 ;
263 [label="X[6] <= 0.5\ngini = 0.497\nsamples = 119\nvalue = [0, 0, 64, 55]"] ;
262 -> 263 ;
264 [label="X[0] <= 0.5\ngini = 0.492\nsamples = 57\nvalue = [0, 0, 32, 25]"] ;
263 -> 264 ;
265 [label="X[3] <= 0.5\ngini = 0.483\nsamples = 27\nvalue = [0, 0, 16, 11]"] ;
264 -> 265 ;
266 [label="X[10] <= 0.5\ngini = 0.473\nsamples = 13\nvalue = [0, 0, 8, 5]"] ;
265 -> 266 ;
267 [label="X[1] <= 0.5\ngini = 0.49\nsamples = 7\nvalue = [0, 0, 4, 3]"] ;
266 -> 267 ;
268 [label="X[2] <= 0.5\ngini = 0.5\nsamples = 4\nvalue = [0, 0, 2, 2]"] ;
267 -> 268 ;
269 [label="gini = 0.5\nsamples = 2\nvalue = [0, 0, 1, 1]"] ;
268 -> 269 ;
270 [label="gini = 0.5\nsamples = 2\nvalue = [0, 0, 1, 1]"] ;
268 -> 270 ;
271 [label="X[2] <= 0.5\ngini = 0.444\nsamples = 3\nvalue = [0, 0, 2, 1]"] ;
267 -> 271 ;
272 [label="gini = 0.5\nsamples = 2\nvalue = [0, 0, 1, 1]"] ;
271 -> 272 ;
273 [label="gini = 0.0\nsamples = 1\nvalue = [0, 0, 1, 0]"] ;
271 -> 273 ;
274 [label="X[2] <= 0.5\ngini = 0.444\nsamples = 6\nvalue = [0, 0, 4, 2]"] ;
266 -> 274 ;
275 [label="gini = 0.0\nsamples = 2\nvalue = [0, 0, 2, 0]"] ;
274 -> 275 ;
276 [label="X[1] <= 0.5\ngini = 0.5\nsamples = 4\nvalue = [0, 0, 2, 2]"] ;
274 -> 276 ;
277 [label="gini = 0.5\nsamples = 2\nvalue = [0, 0, 1, 1]"] ;
276 -> 277 ;
278 [label="gini = 0.5\nsamples = 2\nvalue = [0, 0, 1, 1]"] ;
276 -> 278 ;
279 [label="X[10] <= 0.5\ngini = 0.49\nsamples = 14\nvalue = [0, 0, 8, 6]"] ;
265 -> 279 ;
280 [label="X[1] <= 0.5\ngini = 0.444\nsamples = 6\nvalue = [0, 0, 4, 2]"] ;
279 -> 280 ;
281 [label="gini = 0.0\nsamples = 2\nvalue = [0, 0, 2, 0]"] ;
280 -> 281 ;
282 [label="X[2] <= 0.5\ngini = 0.5\nsamples = 4\nvalue = [0, 0, 2, 2]"] ;
280 -> 282 ;
283 [label="gini = 0.5\nsamples = 2\nvalue = [0, 0, 1, 1]"] ;
282 -> 283 ;
284 [label="gini = 0.5\nsamples = 2\nvalue = [0, 0, 1, 1]"] ;
282 -> 284 ;
285 [label="X[2] <= 0.5\ngini = 0.5\nsamples = 8\nvalue = [0, 0, 4, 4]"] ;
279 -> 285 ;
286 [label="X[1] <= 0.5\ngini = 0.5\nsamples = 4\nvalue = [0, 0, 2, 2]"] ;
285 -> 286 ;
287 [label="gini = 0.5\nsamples = 2\nvalue = [0, 0, 1, 1]"] ;
286 -> 287 ;
288 [label="gini = 0.5\nsamples = 2\nvalue = [0, 0, 1, 1]"] ;
286 -> 288 ;
289 [label="X[1] <= 0.5\ngini = 0.5\nsamples = 4\nvalue = [0, 0, 2, 2]"] ;
285 -> 289 ;
290 [label="gini = 0.5\nsamples = 2\nvalue = [0, 0, 1, 1]"] ;
289 -> 290 ;
291 [label="gini = 0.5\nsamples = 2\nvalue = [0, 0, 1, 1]"] ;
289 -> 291 ;
292 [label="X[10] <= 0.5\ngini = 0.498\nsamples = 30\nvalue = [0, 0, 16, 14]"] ;
264 -> 292 ;
293 [label="X[1] <= 0.5\ngini = 0.49\nsamples = 14\nvalue = [0, 0, 8, 6]"] ;
292 -> 293 ;
294 [label="X[3] <= 0.5\ngini = 0.444\nsamples = 6\nvalue = [0, 0, 4, 2]"] ;
293 -> 294 ;
295 [label="X[2] <= 0.5\ngini = 0.444\nsamples = 3\nvalue = [0, 0, 2, 1]"] ;
294 -> 295 ;
296 [label="gini = 0.5\nsamples = 2\nvalue = [0, 0, 1, 1]"] ;
295 -> 296 ;
297 [label="gini = 0.0\nsamples = 1\nvalue = [0, 0, 1, 0]"] ;
295 -> 297 ;
298 [label="X[2] <= 0.5\ngini = 0.444\nsamples = 3\nvalue = [0, 0, 2, 1]"] ;
294 -> 298 ;
299 [label="gini = 0.0\nsamples = 1\nvalue = [0, 0, 1, 0]"] ;
298 -> 299 ;
300 [label="gini = 0.5\nsamples = 2\nvalue = [0, 0, 1, 1]"] ;
298 -> 300 ;
301 [label="X[2] <= 0.5\ngini = 0.5\nsamples = 8\nvalue = [0, 0, 4, 4]"] ;
293 -> 301 ;
302 [label="X[3] <= 0.5\ngini = 0.5\nsamples = 4\nvalue = [0, 0, 2, 2]"] ;
301 -> 302 ;
303 [label="gini = 0.5\nsamples = 2\nvalue = [0, 0, 1, 1]"] ;
302 -> 303 ;
304 [label="gini = 0.5\nsamples = 2\nvalue = [0, 0, 1, 1]"] ;
302 -> 304 ;
305 [label="X[3] <= 0.5\ngini = 0.5\nsamples = 4\nvalue = [0, 0, 2, 2]"] ;
301 -> 305 ;
306 [label="gini = 0.5\nsamples = 2\nvalue = [0, 0, 1, 1]"] ;
305 -> 306 ;
307 [label="gini = 0.5\nsamples = 2\nvalue = [0, 0, 1, 1]"] ;
305 -> 307 ;
308 [label="X[3] <= 0.5\ngini = 0.5\nsamples = 16\nvalue = [0, 0, 8, 8]"] ;
292 -> 308 ;
309 [label="X[1] <= 0.5\ngini = 0.5\nsamples = 8\nvalue = [0, 0, 4, 4]"] ;
308 -> 309 ;
310 [label="X[2] <= 0.5\ngini = 0.5\nsamples = 4\nvalue = [0, 0, 2, 2]"] ;
309 -> 310 ;
311 [label="gini = 0.5\nsamples = 2\nvalue = [0, 0, 1, 1]"] ;
310 -> 311 ;
312 [label="gini = 0.5\nsamples = 2\nvalue = [0, 0, 1, 1]"] ;
310 -> 312 ;
313 [label="X[2] <= 0.5\ngini = 0.5\nsamples = 4\nvalue = [0, 0, 2, 2]"] ;
309 -> 313 ;
314 [label="gini = 0.5\nsamples = 2\nvalue = [0, 0, 1, 1]"] ;
313 -> 314 ;
315 [label="gini = 0.5\nsamples = 2\nvalue = [0, 0, 1, 1]"] ;
313 -> 315 ;
316 [label="X[1] <= 0.5\ngini = 0.5\nsamples = 8\nvalue = [0, 0, 4, 4]"] ;
308 -> 316 ;
317 [label="X[2] <= 0.5\ngini = 0.5\nsamples = 4\nvalue = [0, 0, 2, 2]"] ;
316 -> 317 ;
318 [label="gini = 0.5\nsamples = 2\nvalue = [0, 0, 1, 1]"] ;
317 -> 318 ;
319 [label="gini = 0.5\nsamples = 2\nvalue = [0, 0, 1, 1]"] ;
317 -> 319 ;
320 [label="X[2] <= 0.5\ngini = 0.5\nsamples = 4\nvalue = [0, 0, 2, 2]"] ;
316 -> 320 ;
321 [label="gini = 0.5\nsamples = 2\nvalue = [0, 0, 1, 1]"] ;
320 -> 321 ;
322 [label="gini = 0.5\nsamples = 2\nvalue = [0, 0, 1, 1]"] ;
320 -> 322 ;
323 [label="X[2] <= 0.5\ngini = 0.499\nsamples = 62\nvalue = [0, 0, 32, 30]"] ;
263 -> 323 ;
324 [label="X[0] <= 0.5\ngini = 0.498\nsamples = 30\nvalue = [0, 0, 16, 14]"] ;
323 -> 324 ;
325 [label="X[1] <= 0.5\ngini = 0.49\nsamples = 14\nvalue = [0, 0, 8, 6]"] ;
324 -> 325 ;
326 [label="X[3] <= 0.5\ngini = 0.444\nsamples = 6\nvalue = [0, 0, 4, 2]"] ;
325 -> 326 ;
327 [label="X[10] <= 0.5\ngini = 0.444\nsamples = 3\nvalue = [0, 0, 2, 1]"] ;
326 -> 327 ;
328 [label="gini = 0.0\nsamples = 1\nvalue = [0, 0, 1, 0]"] ;
327 -> 328 ;
329 [label="gini = 0.5\nsamples = 2\nvalue = [0, 0, 1, 1]"] ;
327 -> 329 ;
330 [label="X[10] <= 0.5\ngini = 0.444\nsamples = 3\nvalue = [0, 0, 2, 1]"] ;
326 -> 330 ;
331 [label="gini = 0.5\nsamples = 2\nvalue = [0, 0, 1, 1]"] ;
330 -> 331 ;
332 [label="gini = 0.0\nsamples = 1\nvalue = [0, 0, 1, 0]"] ;
330 -> 332 ;
333 [label="X[10] <= 0.5\ngini = 0.5\nsamples = 8\nvalue = [0, 0, 4, 4]"] ;
325 -> 333 ;
334 [label="X[3] <= 0.5\ngini = 0.5\nsamples = 4\nvalue = [0, 0, 2, 2]"] ;
333 -> 334 ;
335 [label="gini = 0.5\nsamples = 2\nvalue = [0, 0, 1, 1]"] ;
334 -> 335 ;
336 [label="gini = 0.5\nsamples = 2\nvalue = [0, 0, 1, 1]"] ;
334 -> 336 ;
337 [label="X[3] <= 0.5\ngini = 0.5\nsamples = 4\nvalue = [0, 0, 2, 2]"] ;
333 -> 337 ;
338 [label="gini = 0.5\nsamples = 2\nvalue = [0, 0, 1, 1]"] ;
337 -> 338 ;
339 [label="gini = 0.5\nsamples = 2\nvalue = [0, 0, 1, 1]"] ;
337 -> 339 ;
340 [label="X[10] <= 0.5\ngini = 0.5\nsamples = 16\nvalue = [0, 0, 8, 8]"] ;
324 -> 340 ;
341 [label="X[3] <= 0.5\ngini = 0.5\nsamples = 8\nvalue = [0, 0, 4, 4]"] ;
340 -> 341 ;
342 [label="X[1] <= 0.5\ngini = 0.5\nsamples = 4\nvalue = [0, 0, 2, 2]"] ;
341 -> 342 ;
343 [label="gini = 0.5\nsamples = 2\nvalue = [0, 0, 1, 1]"] ;
342 -> 343 ;
344 [label="gini = 0.5\nsamples = 2\nvalue = [0, 0, 1, 1]"] ;
342 -> 344 ;
345 [label="X[1] <= 0.5\ngini = 0.5\nsamples = 4\nvalue = [0, 0, 2, 2]"] ;
341 -> 345 ;
346 [label="gini = 0.5\nsamples = 2\nvalue = [0, 0, 1, 1]"] ;
345 -> 346 ;
347 [label="gini = 0.5\nsamples = 2\nvalue = [0, 0, 1, 1]"] ;
345 -> 347 ;
348 [label="X[1] <= 0.5\ngini = 0.5\nsamples = 8\nvalue = [0, 0, 4, 4]"] ;
340 -> 348 ;
349 [label="X[3] <= 0.5\ngini = 0.5\nsamples = 4\nvalue = [0, 0, 2, 2]"] ;
348 -> 349 ;
350 [label="gini = 0.5\nsamples = 2\nvalue = [0, 0, 1, 1]"] ;
349 -> 350 ;
351 [label="gini = 0.5\nsamples = 2\nvalue = [0, 0, 1, 1]"] ;
349 -> 351 ;
352 [label="X[3] <= 0.5\ngini = 0.5\nsamples = 4\nvalue = [0, 0, 2, 2]"] ;
348 -> 352 ;
353 [label="gini = 0.5\nsamples = 2\nvalue = [0, 0, 1, 1]"] ;
352 -> 353 ;
354 [label="gini = 0.5\nsamples = 2\nvalue = [0, 0, 1, 1]"] ;
352 -> 354 ;
355 [label="X[0] <= 0.5\ngini = 0.5\nsamples = 32\nvalue = [0, 0, 16, 16]"] ;
323 -> 355 ;
356 [label="X[1] <= 0.5\ngini = 0.5\nsamples = 16\nvalue = [0, 0, 8, 8]"] ;
355 -> 356 ;
357 [label="X[10] <= 0.5\ngini = 0.5\nsamples = 8\nvalue = [0, 0, 4, 4]"] ;
356 -> 357 ;
358 [label="X[3] <= 0.5\ngini = 0.5\nsamples = 4\nvalue = [0, 0, 2, 2]"] ;
357 -> 358 ;
359 [label="gini = 0.5\nsamples = 2\nvalue = [0, 0, 1, 1]"] ;
358 -> 359 ;
360 [label="gini = 0.5\nsamples = 2\nvalue = [0, 0, 1, 1]"] ;
358 -> 360 ;
361 [label="X[3] <= 0.5\ngini = 0.5\nsamples = 4\nvalue = [0, 0, 2, 2]"] ;
357 -> 361 ;
362 [label="gini = 0.5\nsamples = 2\nvalue = [0, 0, 1, 1]"] ;
361 -> 362 ;
363 [label="gini = 0.5\nsamples = 2\nvalue = [0, 0, 1, 1]"] ;
361 -> 363 ;
364 [label="X[3] <= 0.5\ngini = 0.5\nsamples = 8\nvalue = [0, 0, 4, 4]"] ;
356 -> 364 ;
365 [label="X[10] <= 0.5\ngini = 0.5\nsamples = 4\nvalue = [0, 0, 2, 2]"] ;
364 -> 365 ;
366 [label="gini = 0.5\nsamples = 2\nvalue = [0, 0, 1, 1]"] ;
365 -> 366 ;
367 [label="gini = 0.5\nsamples = 2\nvalue = [0, 0, 1, 1]"] ;
365 -> 367 ;
368 [label="X[10] <= 0.5\ngini = 0.5\nsamples = 4\nvalue = [0, 0, 2, 2]"] ;
364 -> 368 ;
369 [label="gini = 0.5\nsamples = 2\nvalue = [0, 0, 1, 1]"] ;
368 -> 369 ;
370 [label="gini = 0.5\nsamples = 2\nvalue = [0, 0, 1, 1]"] ;
368 -> 370 ;
371 [label="X[1] <= 0.5\ngini = 0.5\nsamples = 16\nvalue = [0, 0, 8, 8]"] ;
355 -> 371 ;
372 [label="X[3] <= 0.5\ngini = 0.5\nsamples = 8\nvalue = [0, 0, 4, 4]"] ;
371 -> 372 ;
373 [label="X[10] <= 0.5\ngini = 0.5\nsamples = 4\nvalue = [0, 0, 2, 2]"] ;
372 -> 373 ;
374 [label="gini = 0.5\nsamples = 2\nvalue = [0, 0, 1, 1]"] ;
373 -> 374 ;
375 [label="gini = 0.5\nsamples = 2\nvalue = [0, 0, 1, 1]"] ;
373 -> 375 ;
376 [label="X[10] <= 0.5\ngini = 0.5\nsamples = 4\nvalue = [0, 0, 2, 2]"] ;
372 -> 376 ;
377 [label="gini = 0.5\nsamples = 2\nvalue = [0, 0, 1, 1]"] ;
376 -> 377 ;
378 [label="gini = 0.5\nsamples = 2\nvalue = [0, 0, 1, 1]"] ;
376 -> 378 ;
379 [label="X[3] <= 0.5\ngini = 0.5\nsamples = 8\nvalue = [0, 0, 4, 4]"] ;
371 -> 379 ;
380 [label="X[10] <= 0.5\ngini = 0.5\nsamples = 4\nvalue = [0, 0, 2, 2]"] ;
379 -> 380 ;
381 [label="gini = 0.5\nsamples = 2\nvalue = [0, 0, 1, 1]"] ;
380 -> 381 ;
382 [label="gini = 0.5\nsamples = 2\nvalue = [0, 0, 1, 1]"] ;
380 -> 382 ;
383 [label="X[10] <= 0.5\ngini = 0.5\nsamples = 4\nvalue = [0, 0, 2, 2]"] ;
379 -> 383 ;
384 [label="gini = 0.5\nsamples = 2\nvalue = [0, 0, 1, 1]"] ;
383 -> 384 ;
385 [label="gini = 0.5\nsamples = 2\nvalue = [0, 0, 1, 1]"] ;
383 -> 385 ;
386 [label="X[1] <= 0.5\ngini = 0.5\nsamples = 128\nvalue = [0, 0, 64, 64]"] ;
262 -> 386 ;
387 [label="X[3] <= 0.5\ngini = 0.5\nsamples = 64\nvalue = [0, 0, 32, 32]"] ;
386 -> 387 ;
388 [label="X[6] <= 0.5\ngini = 0.5\nsamples = 32\nvalue = [0, 0, 16, 16]"] ;
387 -> 388 ;
389 [label="X[2] <= 0.5\ngini = 0.5\nsamples = 16\nvalue = [0, 0, 8, 8]"] ;
388 -> 389 ;
390 [label="X[10] <= 0.5\ngini = 0.5\nsamples = 8\nvalue = [0, 0, 4, 4]"] ;
389 -> 390 ;
391 [label="X[0] <= 0.5\ngini = 0.5\nsamples = 4\nvalue = [0, 0, 2, 2]"] ;
390 -> 391 ;
392 [label="gini = 0.5\nsamples = 2\nvalue = [0, 0, 1, 1]"] ;
391 -> 392 ;
393 [label="gini = 0.5\nsamples = 2\nvalue = [0, 0, 1, 1]"] ;
391 -> 393 ;
394 [label="X[0] <= 0.5\ngini = 0.5\nsamples = 4\nvalue = [0, 0, 2, 2]"] ;
390 -> 394 ;
395 [label="gini = 0.5\nsamples = 2\nvalue = [0, 0, 1, 1]"] ;
394 -> 395 ;
396 [label="gini = 0.5\nsamples = 2\nvalue = [0, 0, 1, 1]"] ;
394 -> 396 ;
397 [label="X[10] <= 0.5\ngini = 0.5\nsamples = 8\nvalue = [0, 0, 4, 4]"] ;
389 -> 397 ;
398 [label="X[0] <= 0.5\ngini = 0.5\nsamples = 4\nvalue = [0, 0, 2, 2]"] ;
397 -> 398 ;
399 [label="gini = 0.5\nsamples = 2\nvalue = [0, 0, 1, 1]"] ;
398 -> 399 ;
400 [label="gini = 0.5\nsamples = 2\nvalue = [0, 0, 1, 1]"] ;
398 -> 400 ;
401 [label="X[0] <= 0.5\ngini = 0.5\nsamples = 4\nvalue = [0, 0, 2, 2]"] ;
397 -> 401 ;
402 [label="gini = 0.5\nsamples = 2\nvalue = [0, 0, 1, 1]"] ;
401 -> 402 ;
403 [label="gini = 0.5\nsamples = 2\nvalue = [0, 0, 1, 1]"] ;
401 -> 403 ;
404 [label="X[2] <= 0.5\ngini = 0.5\nsamples = 16\nvalue = [0, 0, 8, 8]"] ;
388 -> 404 ;
405 [label="X[10] <= 0.5\ngini = 0.5\nsamples = 8\nvalue = [0, 0, 4, 4]"] ;
404 -> 405 ;
406 [label="X[0] <= 0.5\ngini = 0.5\nsamples = 4\nvalue = [0, 0, 2, 2]"] ;
405 -> 406 ;
407 [label="gini = 0.5\nsamples = 2\nvalue = [0, 0, 1, 1]"] ;
406 -> 407 ;
408 [label="gini = 0.5\nsamples = 2\nvalue = [0, 0, 1, 1]"] ;
406 -> 408 ;
409 [label="X[0] <= 0.5\ngini = 0.5\nsamples = 4\nvalue = [0, 0, 2, 2]"] ;
405 -> 409 ;
410 [label="gini = 0.5\nsamples = 2\nvalue = [0, 0, 1, 1]"] ;
409 -> 410 ;
411 [label="gini = 0.5\nsamples = 2\nvalue = [0, 0, 1, 1]"] ;
409 -> 411 ;
412 [label="X[0] <= 0.5\ngini = 0.5\nsamples = 8\nvalue = [0, 0, 4, 4]"] ;
404 -> 412 ;
413 [label="X[10] <= 0.5\ngini = 0.5\nsamples = 4\nvalue = [0, 0, 2, 2]"] ;
412 -> 413 ;
414 [label="gini = 0.5\nsamples = 2\nvalue = [0, 0, 1, 1]"] ;
413 -> 414 ;
415 [label="gini = 0.5\nsamples = 2\nvalue = [0, 0, 1, 1]"] ;
413 -> 415 ;
416 [label="X[10] <= 0.5\ngini = 0.5\nsamples = 4\nvalue = [0, 0, 2, 2]"] ;
412 -> 416 ;
417 [label="gini = 0.5\nsamples = 2\nvalue = [0, 0, 1, 1]"] ;
416 -> 417 ;
418 [label="gini = 0.5\nsamples = 2\nvalue = [0, 0, 1, 1]"] ;
416 -> 418 ;
419 [label="X[6] <= 0.5\ngini = 0.5\nsamples = 32\nvalue = [0, 0, 16, 16]"] ;
387 -> 419 ;
420 [label="X[2] <= 0.5\ngini = 0.5\nsamples = 16\nvalue = [0, 0, 8, 8]"] ;
419 -> 420 ;
421 [label="X[0] <= 0.5\ngini = 0.5\nsamples = 8\nvalue = [0, 0, 4, 4]"] ;
420 -> 421 ;
422 [label="X[10] <= 0.5\ngini = 0.5\nsamples = 4\nvalue = [0, 0, 2, 2]"] ;
421 -> 422 ;
423 [label="gini = 0.5\nsamples = 2\nvalue = [0, 0, 1, 1]"] ;
422 -> 423 ;
424 [label="gini = 0.5\nsamples = 2\nvalue = [0, 0, 1, 1]"] ;
422 -> 424 ;
425 [label="X[10] <= 0.5\ngini = 0.5\nsamples = 4\nvalue = [0, 0, 2, 2]"] ;
421 -> 425 ;
426 [label="gini = 0.5\nsamples = 2\nvalue = [0, 0, 1, 1]"] ;
425 -> 426 ;
427 [label="gini = 0.5\nsamples = 2\nvalue = [0, 0, 1, 1]"] ;
425 -> 427 ;
428 [label="X[0] <= 0.5\ngini = 0.5\nsamples = 8\nvalue = [0, 0, 4, 4]"] ;
420 -> 428 ;
429 [label="X[10] <= 0.5\ngini = 0.5\nsamples = 4\nvalue = [0, 0, 2, 2]"] ;
428 -> 429 ;
430 [label="gini = 0.5\nsamples = 2\nvalue = [0, 0, 1, 1]"] ;
429 -> 430 ;
431 [label="gini = 0.5\nsamples = 2\nvalue = [0, 0, 1, 1]"] ;
429 -> 431 ;
432 [label="X[10] <= 0.5\ngini = 0.5\nsamples = 4\nvalue = [0, 0, 2, 2]"] ;
428 -> 432 ;
433 [label="gini = 0.5\nsamples = 2\nvalue = [0, 0, 1, 1]"] ;
432 -> 433 ;
434 [label="gini = 0.5\nsamples = 2\nvalue = [0, 0, 1, 1]"] ;
432 -> 434 ;
435 [label="X[2] <= 0.5\ngini = 0.5\nsamples = 16\nvalue = [0, 0, 8, 8]"] ;
419 -> 435 ;
436 [label="X[0] <= 0.5\ngini = 0.5\nsamples = 8\nvalue = [0, 0, 4, 4]"] ;
435 -> 436 ;
437 [label="X[10] <= 0.5\ngini = 0.5\nsamples = 4\nvalue = [0, 0, 2, 2]"] ;
436 -> 437 ;
438 [label="gini = 0.5\nsamples = 2\nvalue = [0, 0, 1, 1]"] ;
437 -> 438 ;
439 [label="gini = 0.5\nsamples = 2\nvalue = [0, 0, 1, 1]"] ;
437 -> 439 ;
440 [label="X[10] <= 0.5\ngini = 0.5\nsamples = 4\nvalue = [0, 0, 2, 2]"] ;
436 -> 440 ;
441 [label="gini = 0.5\nsamples = 2\nvalue = [0, 0, 1, 1]"] ;
440 -> 441 ;
442 [label="gini = 0.5\nsamples = 2\nvalue = [0, 0, 1, 1]"] ;
440 -> 442 ;
443 [label="X[0] <= 0.5\ngini = 0.5\nsamples = 8\nvalue = [0, 0, 4, 4]"] ;
435 -> 443 ;
444 [label="X[10] <= 0.5\ngini = 0.5\nsamples = 4\nvalue = [0, 0, 2, 2]"] ;
443 -> 444 ;
445 [label="gini = 0.5\nsamples = 2\nvalue = [0, 0, 1, 1]"] ;
444 -> 445 ;
446 [label="gini = 0.5\nsamples = 2\nvalue = [0, 0, 1, 1]"] ;
444 -> 446 ;
447 [label="X[10] <= 0.5\ngini = 0.5\nsamples = 4\nvalue = [0, 0, 2, 2]"] ;
443 -> 447 ;
448 [label="gini = 0.5\nsamples = 2\nvalue = [0, 0, 1, 1]"] ;
447 -> 448 ;
449 [label="gini = 0.5\nsamples = 2\nvalue = [0, 0, 1, 1]"] ;
447 -> 449 ;
450 [label="X[6] <= 0.5\ngini = 0.5\nsamples = 64\nvalue = [0, 0, 32, 32]"] ;
386 -> 450 ;
451 [label="X[0] <= 0.5\ngini = 0.5\nsamples = 32\nvalue = [0, 0, 16, 16]"] ;
450 -> 451 ;
452 [label="X[2] <= 0.5\ngini = 0.5\nsamples = 16\nvalue = [0, 0, 8, 8]"] ;
451 -> 452 ;
453 [label="X[3] <= 0.5\ngini = 0.5\nsamples = 8\nvalue = [0, 0, 4, 4]"] ;
452 -> 453 ;
454 [label="X[10] <= 0.5\ngini = 0.5\nsamples = 4\nvalue = [0, 0, 2, 2]"] ;
453 -> 454 ;
455 [label="gini = 0.5\nsamples = 2\nvalue = [0, 0, 1, 1]"] ;
454 -> 455 ;
456 [label="gini = 0.5\nsamples = 2\nvalue = [0, 0, 1, 1]"] ;
454 -> 456 ;
457 [label="X[10] <= 0.5\ngini = 0.5\nsamples = 4\nvalue = [0, 0, 2, 2]"] ;
453 -> 457 ;
458 [label="gini = 0.5\nsamples = 2\nvalue = [0, 0, 1, 1]"] ;
457 -> 458 ;
459 [label="gini = 0.5\nsamples = 2\nvalue = [0, 0, 1, 1]"] ;
457 -> 459 ;
460 [label="X[3] <= 0.5\ngini = 0.5\nsamples = 8\nvalue = [0, 0, 4, 4]"] ;
452 -> 460 ;
461 [label="X[10] <= 0.5\ngini = 0.5\nsamples = 4\nvalue = [0, 0, 2, 2]"] ;
460 -> 461 ;
462 [label="gini = 0.5\nsamples = 2\nvalue = [0, 0, 1, 1]"] ;
461 -> 462 ;
463 [label="gini = 0.5\nsamples = 2\nvalue = [0, 0, 1, 1]"] ;
461 -> 463 ;
464 [label="X[10] <= 0.5\ngini = 0.5\nsamples = 4\nvalue = [0, 0, 2, 2]"] ;
460 -> 464 ;
465 [label="gini = 0.5\nsamples = 2\nvalue = [0, 0, 1, 1]"] ;
464 -> 465 ;
466 [label="gini = 0.5\nsamples = 2\nvalue = [0, 0, 1, 1]"] ;
464 -> 466 ;
467 [label="X[2] <= 0.5\ngini = 0.5\nsamples = 16\nvalue = [0, 0, 8, 8]"] ;
451 -> 467 ;
468 [label="X[3] <= 0.5\ngini = 0.5\nsamples = 8\nvalue = [0, 0, 4, 4]"] ;
467 -> 468 ;
469 [label="X[10] <= 0.5\ngini = 0.5\nsamples = 4\nvalue = [0, 0, 2, 2]"] ;
468 -> 469 ;
470 [label="gini = 0.5\nsamples = 2\nvalue = [0, 0, 1, 1]"] ;
469 -> 470 ;
471 [label="gini = 0.5\nsamples = 2\nvalue = [0, 0, 1, 1]"] ;
469 -> 471 ;
472 [label="X[10] <= 0.5\ngini = 0.5\nsamples = 4\nvalue = [0, 0, 2, 2]"] ;
468 -> 472 ;
473 [label="gini = 0.5\nsamples = 2\nvalue = [0, 0, 1, 1]"] ;
472 -> 473 ;
474 [label="gini = 0.5\nsamples = 2\nvalue = [0, 0, 1, 1]"] ;
472 -> 474 ;
475 [label="X[10] <= 0.5\ngini = 0.5\nsamples = 8\nvalue = [0, 0, 4, 4]"] ;
467 -> 475 ;
476 [label="X[3] <= 0.5\ngini = 0.5\nsamples = 4\nvalue = [0, 0, 2, 2]"] ;
475 -> 476 ;
477 [label="gini = 0.5\nsamples = 2\nvalue = [0, 0, 1, 1]"] ;
476 -> 477 ;
478 [label="gini = 0.5\nsamples = 2\nvalue = [0, 0, 1, 1]"] ;
476 -> 478 ;
479 [label="X[3] <= 0.5\ngini = 0.5\nsamples = 4\nvalue = [0, 0, 2, 2]"] ;
475 -> 479 ;
480 [label="gini = 0.5\nsamples = 2\nvalue = [0, 0, 1, 1]"] ;
479 -> 480 ;
481 [label="gini = 0.5\nsamples = 2\nvalue = [0, 0, 1, 1]"] ;
479 -> 481 ;
482 [label="X[3] <= 0.5\ngini = 0.5\nsamples = 32\nvalue = [0, 0, 16, 16]"] ;
450 -> 482 ;
483 [label="X[2] <= 0.5\ngini = 0.5\nsamples = 16\nvalue = [0, 0, 8, 8]"] ;
482 -> 483 ;
484 [label="X[10] <= 0.5\ngini = 0.5\nsamples = 8\nvalue = [0, 0, 4, 4]"] ;
483 -> 484 ;
485 [label="X[0] <= 0.5\ngini = 0.5\nsamples = 4\nvalue = [0, 0, 2, 2]"] ;
484 -> 485 ;
486 [label="gini = 0.5\nsamples = 2\nvalue = [0, 0, 1, 1]"] ;
485 -> 486 ;
487 [label="gini = 0.5\nsamples = 2\nvalue = [0, 0, 1, 1]"] ;
485 -> 487 ;
488 [label="X[0] <= 0.5\ngini = 0.5\nsamples = 4\nvalue = [0, 0, 2, 2]"] ;
484 -> 488 ;
489 [label="gini = 0.5\nsamples = 2\nvalue = [0, 0, 1, 1]"] ;
488 -> 489 ;
490 [label="gini = 0.5\nsamples = 2\nvalue = [0, 0, 1, 1]"] ;
488 -> 490 ;
491 [label="X[10] <= 0.5\ngini = 0.5\nsamples = 8\nvalue = [0, 0, 4, 4]"] ;
483 -> 491 ;
492 [label="X[0] <= 0.5\ngini = 0.5\nsamples = 4\nvalue = [0, 0, 2, 2]"] ;
491 -> 492 ;
493 [label="gini = 0.5\nsamples = 2\nvalue = [0, 0, 1, 1]"] ;
492 -> 493 ;
494 [label="gini = 0.5\nsamples = 2\nvalue = [0, 0, 1, 1]"] ;
492 -> 494 ;
495 [label="X[0] <= 0.5\ngini = 0.5\nsamples = 4\nvalue = [0, 0, 2, 2]"] ;
491 -> 495 ;
496 [label="gini = 0.5\nsamples = 2\nvalue = [0, 0, 1, 1]"] ;
495 -> 496 ;
497 [label="gini = 0.5\nsamples = 2\nvalue = [0, 0, 1, 1]"] ;
495 -> 497 ;
498 [label="X[2] <= 0.5\ngini = 0.5\nsamples = 16\nvalue = [0, 0, 8, 8]"] ;
482 -> 498 ;
499 [label="X[0] <= 0.5\ngini = 0.5\nsamples = 8\nvalue = [0, 0, 4, 4]"] ;
498 -> 499 ;
500 [label="X[10] <= 0.5\ngini = 0.5\nsamples = 4\nvalue = [0, 0, 2, 2]"] ;
499 -> 500 ;
501 [label="gini = 0.5\nsamples = 2\nvalue = [0, 0, 1, 1]"] ;
500 -> 501 ;
502 [label="gini = 0.5\nsamples = 2\nvalue = [0, 0, 1, 1]"] ;
500 -> 502 ;
503 [label="X[10] <= 0.5\ngini = 0.5\nsamples = 4\nvalue = [0, 0, 2, 2]"] ;
499 -> 503 ;
504 [label="gini = 0.5\nsamples = 2\nvalue = [0, 0, 1, 1]"] ;
503 -> 504 ;
505 [label="gini = 0.5\nsamples = 2\nvalue = [0, 0, 1, 1]"] ;
503 -> 505 ;
506 [label="X[10] <= 0.5\ngini = 0.5\nsamples = 8\nvalue = [0, 0, 4, 4]"] ;
498 -> 506 ;
507 [label="X[0] <= 0.5\ngini = 0.5\nsamples = 4\nvalue = [0, 0, 2, 2]"] ;
506 -> 507 ;
508 [label="gini = 0.5\nsamples = 2\nvalue = [0, 0, 1, 1]"] ;
507 -> 508 ;
509 [label="gini = 0.5\nsamples = 2\nvalue = [0, 0, 1, 1]"] ;
507 -> 509 ;
510 [label="X[0] <= 0.5\ngini = 0.5\nsamples = 4\nvalue = [0, 0, 2, 2]"] ;
506 -> 510 ;
511 [label="gini = 0.5\nsamples = 2\nvalue = [0, 0, 1, 1]"] ;
510 -> 511 ;
512 [label="gini = 0.5\nsamples = 2\nvalue = [0, 0, 1, 1]"] ;
510 -> 512 ;
513 [label="X[2] <= 0.5\ngini = 0.5\nsamples = 502\nvalue = [0, 0, 256, 246]"] ;
11 -> 513 ;
514 [label="X[1] <= 0.5\ngini = 0.499\nsamples = 247\nvalue = [0, 0, 128, 119]"] ;
513 -> 514 ;
515 [label="X[6] <= 0.5\ngini = 0.498\nsamples = 120\nvalue = [0, 0, 64, 56]"] ;
514 -> 515 ;
516 [label="X[18] <= 0.5\ngini = 0.492\nsamples = 57\nvalue = [0, 0, 32, 25]"] ;
515 -> 516 ;
517 [label="X[0] <= 0.5\ngini = 0.473\nsamples = 26\nvalue = [0, 0, 16, 10]"] ;
516 -> 517 ;
518 [label="X[7] <= 0.5\ngini = 0.397\nsamples = 11\nvalue = [0, 0, 8, 3]"] ;
517 -> 518 ;
519 [label="X[3] <= 0.5\ngini = 0.32\nsamples = 5\nvalue = [0, 0, 4, 1]"] ;
518 -> 519 ;
520 [label="gini = 0.0\nsamples = 2\nvalue = [0, 0, 2, 0]"] ;
519 -> 520 ;
521 [label="X[10] <= 0.5\ngini = 0.444\nsamples = 3\nvalue = [0, 0, 2, 1]"] ;
519 -> 521 ;
522 [label="gini = 0.5\nsamples = 2\nvalue = [0, 0, 1, 1]"] ;
521 -> 522 ;
523 [label="gini = 0.0\nsamples = 1\nvalue = [0, 0, 1, 0]"] ;
521 -> 523 ;
524 [label="X[10] <= 0.5\ngini = 0.444\nsamples = 6\nvalue = [0, 0, 4, 2]"] ;
518 -> 524 ;
525 [label="gini = 0.0\nsamples = 2\nvalue = [0, 0, 2, 0]"] ;
524 -> 525 ;
526 [label="X[3] <= 0.5\ngini = 0.5\nsamples = 4\nvalue = [0, 0, 2, 2]"] ;
524 -> 526 ;
527 [label="gini = 0.5\nsamples = 2\nvalue = [0, 0, 1, 1]"] ;
526 -> 527 ;
528 [label="gini = 0.5\nsamples = 2\nvalue = [0, 0, 1, 1]"] ;
526 -> 528 ;
529 [label="X[10] <= 0.5\ngini = 0.498\nsamples = 15\nvalue = [0, 0, 8, 7]"] ;
517 -> 529 ;
530 [label="X[7] <= 0.5\ngini = 0.49\nsamples = 7\nvalue = [0, 0, 4, 3]"] ;
529 -> 530 ;
531 [label="X[3] <= 0.5\ngini = 0.5\nsamples = 4\nvalue = [0, 0, 2, 2]"] ;
530 -> 531 ;
532 [label="gini = 0.5\nsamples = 2\nvalue = [0, 0, 1, 1]"] ;
531 -> 532 ;
533 [label="gini = 0.5\nsamples = 2\nvalue = [0, 0, 1, 1]"] ;
531 -> 533 ;
534 [label="X[3] <= 0.5\ngini = 0.444\nsamples = 3\nvalue = [0, 0, 2, 1]"] ;
530 -> 534 ;
535 [label="gini = 0.0\nsamples = 1\nvalue = [0, 0, 1, 0]"] ;
534 -> 535 ;
536 [label="gini = 0.5\nsamples = 2\nvalue = [0, 0, 1, 1]"] ;
534 -> 536 ;
537 [label="X[7] <= 0.5\ngini = 0.5\nsamples = 8\nvalue = [0, 0, 4, 4]"] ;
529 -> 537 ;
538 [label="X[3] <= 0.5\ngini = 0.5\nsamples = 4\nvalue = [0, 0, 2, 2]"] ;
537 -> 538 ;
539 [label="gini = 0.5\nsamples = 2\nvalue = [0, 0, 1, 1]"] ;
538 -> 539 ;
540 [label="gini = 0.5\nsamples = 2\nvalue = [0, 0, 1, 1]"] ;
538 -> 540 ;
541 [label="X[3] <= 0.5\ngini = 0.5\nsamples = 4\nvalue = [0, 0, 2, 2]"] ;
537 -> 541 ;
542 [label="gini = 0.5\nsamples = 2\nvalue = [0, 0, 1, 1]"] ;
541 -> 542 ;
543 [label="gini = 0.5\nsamples = 2\nvalue = [0, 0, 1, 1]"] ;
541 -> 543 ;
544 [label="X[7] <= 0.5\ngini = 0.499\nsamples = 31\nvalue = [0, 0, 16, 15]"] ;
516 -> 544 ;
545 [label="X[10] <= 0.5\ngini = 0.498\nsamples = 15\nvalue = [0, 0, 8, 7]"] ;
544 -> 545 ;
546 [label="X[3] <= 0.5\ngini = 0.49\nsamples = 7\nvalue = [0, 0, 4, 3]"] ;
545 -> 546 ;
547 [label="X[0] <= 0.5\ngini = 0.444\nsamples = 3\nvalue = [0, 0, 2, 1]"] ;
546 -> 547 ;
548 [label="gini = 0.5\nsamples = 2\nvalue = [0, 0, 1, 1]"] ;
547 -> 548 ;
549 [label="gini = 0.0\nsamples = 1\nvalue = [0, 0, 1, 0]"] ;
547 -> 549 ;
550 [label="X[0] <= 0.5\ngini = 0.5\nsamples = 4\nvalue = [0, 0, 2, 2]"] ;
546 -> 550 ;
551 [label="gini = 0.5\nsamples = 2\nvalue = [0, 0, 1, 1]"] ;
550 -> 551 ;
552 [label="gini = 0.5\nsamples = 2\nvalue = [0, 0, 1, 1]"] ;
550 -> 552 ;
553 [label="X[0] <= 0.5\ngini = 0.5\nsamples = 8\nvalue = [0, 0, 4, 4]"] ;
545 -> 553 ;
554 [label="X[3] <= 0.5\ngini = 0.5\nsamples = 4\nvalue = [0, 0, 2, 2]"] ;
553 -> 554 ;
555 [label="gini = 0.5\nsamples = 2\nvalue = [0, 0, 1, 1]"] ;
554 -> 555 ;
556 [label="gini = 0.5\nsamples = 2\nvalue = [0, 0, 1, 1]"] ;
554 -> 556 ;
557 [label="X[3] <= 0.5\ngini = 0.5\nsamples = 4\nvalue = [0, 0, 2, 2]"] ;
553 -> 557 ;
558 [label="gini = 0.5\nsamples = 2\nvalue = [0, 0, 1, 1]"] ;
557 -> 558 ;
559 [label="gini = 0.5\nsamples = 2\nvalue = [0, 0, 1, 1]"] ;
557 -> 559 ;
560 [label="X[0] <= 0.5\ngini = 0.5\nsamples = 16\nvalue = [0, 0, 8, 8]"] ;
544 -> 560 ;
561 [label="X[10] <= 0.5\ngini = 0.5\nsamples = 8\nvalue = [0, 0, 4, 4]"] ;
560 -> 561 ;
562 [label="X[3] <= 0.5\ngini = 0.5\nsamples = 4\nvalue = [0, 0, 2, 2]"] ;
561 -> 562 ;
563 [label="gini = 0.5\nsamples = 2\nvalue = [0, 0, 1, 1]"] ;
562 -> 563 ;
564 [label="gini = 0.5\nsamples = 2\nvalue = [0, 0, 1, 1]"] ;
562 -> 564 ;
565 [label="X[3] <= 0.5\ngini = 0.5\nsamples = 4\nvalue = [0, 0, 2, 2]"] ;
561 -> 565 ;
566 [label="gini = 0.5\nsamples = 2\nvalue = [0, 0, 1, 1]"] ;
565 -> 566 ;
567 [label="gini = 0.5\nsamples = 2\nvalue = [0, 0, 1, 1]"] ;
565 -> 567 ;
568 [label="X[3] <= 0.5\ngini = 0.5\nsamples = 8\nvalue = [0, 0, 4, 4]"] ;
560 -> 568 ;
569 [label="X[10] <= 0.5\ngini = 0.5\nsamples = 4\nvalue = [0, 0, 2, 2]"] ;
568 -> 569 ;
570 [label="gini = 0.5\nsamples = 2\nvalue = [0, 0, 1, 1]"] ;
569 -> 570 ;
571 [label="gini = 0.5\nsamples = 2\nvalue = [0, 0, 1, 1]"] ;
569 -> 571 ;
572 [label="X[10] <= 0.5\ngini = 0.5\nsamples = 4\nvalue = [0, 0, 2, 2]"] ;
568 -> 572 ;
573 [label="gini = 0.5\nsamples = 2\nvalue = [0, 0, 1, 1]"] ;
572 -> 573 ;
574 [label="gini = 0.5\nsamples = 2\nvalue = [0, 0, 1, 1]"] ;
572 -> 574 ;
575 [label="X[10] <= 0.5\ngini = 0.5\nsamples = 63\nvalue = [0, 0, 32, 31]"] ;
515 -> 575 ;
576 [label="X[3] <= 0.5\ngini = 0.499\nsamples = 31\nvalue = [0, 0, 16, 15]"] ;
575 -> 576 ;
577 [label="X[7] <= 0.5\ngini = 0.498\nsamples = 15\nvalue = [0, 0, 8, 7]"] ;
576 -> 577 ;
578 [label="X[0] <= 0.5\ngini = 0.49\nsamples = 7\nvalue = [0, 0, 4, 3]"] ;
577 -> 578 ;
579 [label="X[18] <= 0.5\ngini = 0.444\nsamples = 3\nvalue = [0, 0, 2, 1]"] ;
578 -> 579 ;
580 [label="gini = 0.5\nsamples = 2\nvalue = [0, 0, 1, 1]"] ;
579 -> 580 ;
581 [label="gini = 0.0\nsamples = 1\nvalue = [0, 0, 1, 0]"] ;
579 -> 581 ;
582 [label="X[18] <= 0.5\ngini = 0.5\nsamples = 4\nvalue = [0, 0, 2, 2]"] ;
578 -> 582 ;
583 [label="gini = 0.5\nsamples = 2\nvalue = [0, 0, 1, 1]"] ;
582 -> 583 ;
584 [label="gini = 0.5\nsamples = 2\nvalue = [0, 0, 1, 1]"] ;
582 -> 584 ;
585 [label="X[0] <= 0.5\ngini = 0.5\nsamples = 8\nvalue = [0, 0, 4, 4]"] ;
577 -> 585 ;
586 [label="X[18] <= 0.5\ngini = 0.5\nsamples = 4\nvalue = [0, 0, 2, 2]"] ;
585 -> 586 ;
587 [label="gini = 0.5\nsamples = 2\nvalue = [0, 0, 1, 1]"] ;
586 -> 587 ;
588 [label="gini = 0.5\nsamples = 2\nvalue = [0, 0, 1, 1]"] ;
586 -> 588 ;
589 [label="X[18] <= 0.5\ngini = 0.5\nsamples = 4\nvalue = [0, 0, 2, 2]"] ;
585 -> 589 ;
590 [label="gini = 0.5\nsamples = 2\nvalue = [0, 0, 1, 1]"] ;
589 -> 590 ;
591 [label="gini = 0.5\nsamples = 2\nvalue = [0, 0, 1, 1]"] ;
589 -> 591 ;
592 [label="X[18] <= 0.5\ngini = 0.5\nsamples = 16\nvalue = [0, 0, 8, 8]"] ;
576 -> 592 ;
593 [label="X[0] <= 0.5\ngini = 0.5\nsamples = 8\nvalue = [0, 0, 4, 4]"] ;
592 -> 593 ;
594 [label="X[7] <= 0.5\ngini = 0.5\nsamples = 4\nvalue = [0, 0, 2, 2]"] ;
593 -> 594 ;
595 [label="gini = 0.5\nsamples = 2\nvalue = [0, 0, 1, 1]"] ;
594 -> 595 ;
596 [label="gini = 0.5\nsamples = 2\nvalue = [0, 0, 1, 1]"] ;
594 -> 596 ;
597 [label="X[7] <= 0.5\ngini = 0.5\nsamples = 4\nvalue = [0, 0, 2, 2]"] ;
593 -> 597 ;
598 [label="gini = 0.5\nsamples = 2\nvalue = [0, 0, 1, 1]"] ;
597 -> 598 ;
599 [label="gini = 0.5\nsamples = 2\nvalue = [0, 0, 1, 1]"] ;
597 -> 599 ;
600 [label="X[7] <= 0.5\ngini = 0.5\nsamples = 8\nvalue = [0, 0, 4, 4]"] ;
592 -> 600 ;
601 [label="X[0] <= 0.5\ngini = 0.5\nsamples = 4\nvalue = [0, 0, 2, 2]"] ;
600 -> 601 ;
602 [label="gini = 0.5\nsamples = 2\nvalue = [0, 0, 1, 1]"] ;
601 -> 602 ;
603 [label="gini = 0.5\nsamples = 2\nvalue = [0, 0, 1, 1]"] ;
601 -> 603 ;
604 [label="X[0] <= 0.5\ngini = 0.5\nsamples = 4\nvalue = [0, 0, 2, 2]"] ;
600 -> 604 ;
605 [label="gini = 0.5\nsamples = 2\nvalue = [0, 0, 1, 1]"] ;
604 -> 605 ;
606 [label="gini = 0.5\nsamples = 2\nvalue = [0, 0, 1, 1]"] ;
604 -> 606 ;
607 [label="X[0] <= 0.5\ngini = 0.5\nsamples = 32\nvalue = [0, 0, 16, 16]"] ;
575 -> 607 ;
608 [label="X[18] <= 0.5\ngini = 0.5\nsamples = 16\nvalue = [0, 0, 8, 8]"] ;
607 -> 608 ;
609 [label="X[3] <= 0.5\ngini = 0.5\nsamples = 8\nvalue = [0, 0, 4, 4]"] ;
608 -> 609 ;
610 [label="X[7] <= 0.5\ngini = 0.5\nsamples = 4\nvalue = [0, 0, 2, 2]"] ;
609 -> 610 ;
611 [label="gini = 0.5\nsamples = 2\nvalue = [0, 0, 1, 1]"] ;
610 -> 611 ;
612 [label="gini = 0.5\nsamples = 2\nvalue = [0, 0, 1, 1]"] ;
610 -> 612 ;
613 [label="X[7] <= 0.5\ngini = 0.5\nsamples = 4\nvalue = [0, 0, 2, 2]"] ;
609 -> 613 ;
614 [label="gini = 0.5\nsamples = 2\nvalue = [0, 0, 1, 1]"] ;
613 -> 614 ;
615 [label="gini = 0.5\nsamples = 2\nvalue = [0, 0, 1, 1]"] ;
613 -> 615 ;
616 [label="X[7] <= 0.5\ngini = 0.5\nsamples = 8\nvalue = [0, 0, 4, 4]"] ;
608 -> 616 ;
617 [label="X[3] <= 0.5\ngini = 0.5\nsamples = 4\nvalue = [0, 0, 2, 2]"] ;
616 -> 617 ;
618 [label="gini = 0.5\nsamples = 2\nvalue = [0, 0, 1, 1]"] ;
617 -> 618 ;
619 [label="gini = 0.5\nsamples = 2\nvalue = [0, 0, 1, 1]"] ;
617 -> 619 ;
620 [label="X[3] <= 0.5\ngini = 0.5\nsamples = 4\nvalue = [0, 0, 2, 2]"] ;
616 -> 620 ;
621 [label="gini = 0.5\nsamples = 2\nvalue = [0, 0, 1, 1]"] ;
620 -> 621 ;
622 [label="gini = 0.5\nsamples = 2\nvalue = [0, 0, 1, 1]"] ;
620 -> 622 ;
623 [label="X[18] <= 0.5\ngini = 0.5\nsamples = 16\nvalue = [0, 0, 8, 8]"] ;
607 -> 623 ;
624 [label="X[3] <= 0.5\ngini = 0.5\nsamples = 8\nvalue = [0, 0, 4, 4]"] ;
623 -> 624 ;
625 [label="X[7] <= 0.5\ngini = 0.5\nsamples = 4\nvalue = [0, 0, 2, 2]"] ;
624 -> 625 ;
626 [label="gini = 0.5\nsamples = 2\nvalue = [0, 0, 1, 1]"] ;
625 -> 626 ;
627 [label="gini = 0.5\nsamples = 2\nvalue = [0, 0, 1, 1]"] ;
625 -> 627 ;
628 [label="X[7] <= 0.5\ngini = 0.5\nsamples = 4\nvalue = [0, 0, 2, 2]"] ;
624 -> 628 ;
629 [label="gini = 0.5\nsamples = 2\nvalue = [0, 0, 1, 1]"] ;
628 -> 629 ;
630 [label="gini = 0.5\nsamples = 2\nvalue = [0, 0, 1, 1]"] ;
628 -> 630 ;
631 [label="X[7] <= 0.5\ngini = 0.5\nsamples = 8\nvalue = [0, 0, 4, 4]"] ;
623 -> 631 ;
632 [label="X[3] <= 0.5\ngini = 0.5\nsamples = 4\nvalue = [0, 0, 2, 2]"] ;
631 -> 632 ;
633 [label="gini = 0.5\nsamples = 2\nvalue = [0, 0, 1, 1]"] ;
632 -> 633 ;
634 [label="gini = 0.5\nsamples = 2\nvalue = [0, 0, 1, 1]"] ;
632 -> 634 ;
635 [label="X[3] <= 0.5\ngini = 0.5\nsamples = 4\nvalue = [0, 0, 2, 2]"] ;
631 -> 635 ;
636 [label="gini = 0.5\nsamples = 2\nvalue = [0, 0, 1, 1]"] ;
635 -> 636 ;
637 [label="gini = 0.5\nsamples = 2\nvalue = [0, 0, 1, 1]"] ;
635 -> 637 ;
638 [label="X[3] <= 0.5\ngini = 0.5\nsamples = 127\nvalue = [0, 0, 64, 63]"] ;
514 -> 638 ;
639 [label="X[0] <= 0.5\ngini = 0.5\nsamples = 63\nvalue = [0, 0, 32, 31]"] ;
638 -> 639 ;
640 [label="X[6] <= 0.5\ngini = 0.5\nsamples = 32\nvalue = [0, 0, 16, 16]"] ;
639 -> 640 ;
641 [label="X[7] <= 0.5\ngini = 0.5\nsamples = 16\nvalue = [0, 0, 8, 8]"] ;
640 -> 641 ;
642 [label="X[10] <= 0.5\ngini = 0.5\nsamples = 8\nvalue = [0, 0, 4, 4]"] ;
641 -> 642 ;
643 [label="X[18] <= 0.5\ngini = 0.5\nsamples = 4\nvalue = [0, 0, 2, 2]"] ;
642 -> 643 ;
644 [label="gini = 0.5\nsamples = 2\nvalue = [0, 0, 1, 1]"] ;
643 -> 644 ;
645 [label="gini = 0.5\nsamples = 2\nvalue = [0, 0, 1, 1]"] ;
643 -> 645 ;
646 [label="X[18] <= 0.5\ngini = 0.5\nsamples = 4\nvalue = [0, 0, 2, 2]"] ;
642 -> 646 ;
647 [label="gini = 0.5\nsamples = 2\nvalue = [0, 0, 1, 1]"] ;
646 -> 647 ;
648 [label="gini = 0.5\nsamples = 2\nvalue = [0, 0, 1, 1]"] ;
646 -> 648 ;
649 [label="X[18] <= 0.5\ngini = 0.5\nsamples = 8\nvalue = [0, 0, 4, 4]"] ;
641 -> 649 ;
650 [label="X[10] <= 0.5\ngini = 0.5\nsamples = 4\nvalue = [0, 0, 2, 2]"] ;
649 -> 650 ;
651 [label="gini = 0.5\nsamples = 2\nvalue = [0, 0, 1, 1]"] ;
650 -> 651 ;
652 [label="gini = 0.5\nsamples = 2\nvalue = [0, 0, 1, 1]"] ;
650 -> 652 ;
653 [label="X[10] <= 0.5\ngini = 0.5\nsamples = 4\nvalue = [0, 0, 2, 2]"] ;
649 -> 653 ;
654 [label="gini = 0.5\nsamples = 2\nvalue = [0, 0, 1, 1]"] ;
653 -> 654 ;
655 [label="gini = 0.5\nsamples = 2\nvalue = [0, 0, 1, 1]"] ;
653 -> 655 ;
656 [label="X[10] <= 0.5\ngini = 0.5\nsamples = 16\nvalue = [0, 0, 8, 8]"] ;
640 -> 656 ;
657 [label="X[7] <= 0.5\ngini = 0.5\nsamples = 8\nvalue = [0, 0, 4, 4]"] ;
656 -> 657 ;
658 [label="X[18] <= 0.5\ngini = 0.5\nsamples = 4\nvalue = [0, 0, 2, 2]"] ;
657 -> 658 ;
659 [label="gini = 0.5\nsamples = 2\nvalue = [0, 0, 1, 1]"] ;
658 -> 659 ;
660 [label="gini = 0.5\nsamples = 2\nvalue = [0, 0, 1, 1]"] ;
658 -> 660 ;
661 [label="X[18] <= 0.5\ngini = 0.5\nsamples = 4\nvalue = [0, 0, 2, 2]"] ;
657 -> 661 ;
662 [label="gini = 0.5\nsamples = 2\nvalue = [0, 0, 1, 1]"] ;
661 -> 662 ;
663 [label="gini = 0.5\nsamples = 2\nvalue = [0, 0, 1, 1]"] ;
661 -> 663 ;
664 [label="X[18] <= 0.5\ngini = 0.5\nsamples = 8\nvalue = [0, 0, 4, 4]"] ;
656 -> 664 ;
665 [label="X[7] <= 0.5\ngini = 0.5\nsamples = 4\nvalue = [0, 0, 2, 2]"] ;
664 -> 665 ;
666 [label="gini = 0.5\nsamples = 2\nvalue = [0, 0, 1, 1]"] ;
665 -> 666 ;
667 [label="gini = 0.5\nsamples = 2\nvalue = [0, 0, 1, 1]"] ;
665 -> 667 ;
668 [label="X[7] <= 0.5\ngini = 0.5\nsamples = 4\nvalue = [0, 0, 2, 2]"] ;
664 -> 668 ;
669 [label="gini = 0.5\nsamples = 2\nvalue = [0, 0, 1, 1]"] ;
668 -> 669 ;
670 [label="gini = 0.5\nsamples = 2\nvalue = [0, 0, 1, 1]"] ;
668 -> 670 ;
671 [label="X[7] <= 0.5\ngini = 0.499\nsamples = 31\nvalue = [0, 0, 16, 15]"] ;
639 -> 671 ;
672 [label="X[18] <= 0.5\ngini = 0.498\nsamples = 15\nvalue = [0, 0, 8, 7]"] ;
671 -> 672 ;
673 [label="X[10] <= 0.5\ngini = 0.49\nsamples = 7\nvalue = [0, 0, 4, 3]"] ;
672 -> 673 ;
674 [label="X[6] <= 0.5\ngini = 0.444\nsamples = 3\nvalue = [0, 0, 2, 1]"] ;
673 -> 674 ;
675 [label="gini = 0.0\nsamples = 1\nvalue = [0, 0, 1, 0]"] ;
674 -> 675 ;
676 [label="gini = 0.5\nsamples = 2\nvalue = [0, 0, 1, 1]"] ;
674 -> 676 ;
677 [label="X[6] <= 0.5\ngini = 0.5\nsamples = 4\nvalue = [0, 0, 2, 2]"] ;
673 -> 677 ;
678 [label="gini = 0.5\nsamples = 2\nvalue = [0, 0, 1, 1]"] ;
677 -> 678 ;
679 [label="gini = 0.5\nsamples = 2\nvalue = [0, 0, 1, 1]"] ;
677 -> 679 ;
680 [label="X[10] <= 0.5\ngini = 0.5\nsamples = 8\nvalue = [0, 0, 4, 4]"] ;
672 -> 680 ;
681 [label="X[6] <= 0.5\ngini = 0.5\nsamples = 4\nvalue = [0, 0, 2, 2]"] ;
680 -> 681 ;
682 [label="gini = 0.5\nsamples = 2\nvalue = [0, 0, 1, 1]"] ;
681 -> 682 ;
683 [label="gini = 0.5\nsamples = 2\nvalue = [0, 0, 1, 1]"] ;
681 -> 683 ;
684 [label="X[6] <= 0.5\ngini = 0.5\nsamples = 4\nvalue = [0, 0, 2, 2]"] ;
680 -> 684 ;
685 [label="gini = 0.5\nsamples = 2\nvalue = [0, 0, 1, 1]"] ;
684 -> 685 ;
686 [label="gini = 0.5\nsamples = 2\nvalue = [0, 0, 1, 1]"] ;
684 -> 686 ;
687 [label="X[18] <= 0.5\ngini = 0.5\nsamples = 16\nvalue = [0, 0, 8, 8]"] ;
671 -> 687 ;
688 [label="X[6] <= 0.5\ngini = 0.5\nsamples = 8\nvalue = [0, 0, 4, 4]"] ;
687 -> 688 ;
689 [label="X[10] <= 0.5\ngini = 0.5\nsamples = 4\nvalue = [0, 0, 2, 2]"] ;
688 -> 689 ;
690 [label="gini = 0.5\nsamples = 2\nvalue = [0, 0, 1, 1]"] ;
689 -> 690 ;
691 [label="gini = 0.5\nsamples = 2\nvalue = [0, 0, 1, 1]"] ;
689 -> 691 ;
692 [label="X[10] <= 0.5\ngini = 0.5\nsamples = 4\nvalue = [0, 0, 2, 2]"] ;
688 -> 692 ;
693 [label="gini = 0.5\nsamples = 2\nvalue = [0, 0, 1, 1]"] ;
692 -> 693 ;
694 [label="gini = 0.5\nsamples = 2\nvalue = [0, 0, 1, 1]"] ;
692 -> 694 ;
695 [label="X[10] <= 0.5\ngini = 0.5\nsamples = 8\nvalue = [0, 0, 4, 4]"] ;
687 -> 695 ;
696 [label="X[6] <= 0.5\ngini = 0.5\nsamples = 4\nvalue = [0, 0, 2, 2]"] ;
695 -> 696 ;
697 [label="gini = 0.5\nsamples = 2\nvalue = [0, 0, 1, 1]"] ;
696 -> 697 ;
698 [label="gini = 0.5\nsamples = 2\nvalue = [0, 0, 1, 1]"] ;
696 -> 698 ;
699 [label="X[6] <= 0.5\ngini = 0.5\nsamples = 4\nvalue = [0, 0, 2, 2]"] ;
695 -> 699 ;
700 [label="gini = 0.5\nsamples = 2\nvalue = [0, 0, 1, 1]"] ;
699 -> 700 ;
701 [label="gini = 0.5\nsamples = 2\nvalue = [0, 0, 1, 1]"] ;
699 -> 701 ;
702 [label="X[6] <= 0.5\ngini = 0.5\nsamples = 64\nvalue = [0, 0, 32, 32]"] ;
638 -> 702 ;
703 [label="X[10] <= 0.5\ngini = 0.5\nsamples = 32\nvalue = [0, 0, 16, 16]"] ;
702 -> 703 ;
704 [label="X[7] <= 0.5\ngini = 0.5\nsamples = 16\nvalue = [0, 0, 8, 8]"] ;
703 -> 704 ;
705 [label="X[0] <= 0.5\ngini = 0.5\nsamples = 8\nvalue = [0, 0, 4, 4]"] ;
704 -> 705 ;
706 [label="X[18] <= 0.5\ngini = 0.5\nsamples = 4\nvalue = [0, 0, 2, 2]"] ;
705 -> 706 ;
707 [label="gini = 0.5\nsamples = 2\nvalue = [0, 0, 1, 1]"] ;
706 -> 707 ;
708 [label="gini = 0.5\nsamples = 2\nvalue = [0, 0, 1, 1]"] ;
706 -> 708 ;
709 [label="X[18] <= 0.5\ngini = 0.5\nsamples = 4\nvalue = [0, 0, 2, 2]"] ;
705 -> 709 ;
710 [label="gini = 0.5\nsamples = 2\nvalue = [0, 0, 1, 1]"] ;
709 -> 710 ;
711 [label="gini = 0.5\nsamples = 2\nvalue = [0, 0, 1, 1]"] ;
709 -> 711 ;
712 [label="X[0] <= 0.5\ngini = 0.5\nsamples = 8\nvalue = [0, 0, 4, 4]"] ;
704 -> 712 ;
713 [label="X[18] <= 0.5\ngini = 0.5\nsamples = 4\nvalue = [0, 0, 2, 2]"] ;
712 -> 713 ;
714 [label="gini = 0.5\nsamples = 2\nvalue = [0, 0, 1, 1]"] ;
713 -> 714 ;
715 [label="gini = 0.5\nsamples = 2\nvalue = [0, 0, 1, 1]"] ;
713 -> 715 ;
716 [label="X[18] <= 0.5\ngini = 0.5\nsamples = 4\nvalue = [0, 0, 2, 2]"] ;
712 -> 716 ;
717 [label="gini = 0.5\nsamples = 2\nvalue = [0, 0, 1, 1]"] ;
716 -> 717 ;
718 [label="gini = 0.5\nsamples = 2\nvalue = [0, 0, 1, 1]"] ;
716 -> 718 ;
719 [label="X[18] <= 0.5\ngini = 0.5\nsamples = 16\nvalue = [0, 0, 8, 8]"] ;
703 -> 719 ;
720 [label="X[7] <= 0.5\ngini = 0.5\nsamples = 8\nvalue = [0, 0, 4, 4]"] ;
719 -> 720 ;
721 [label="X[0] <= 0.5\ngini = 0.5\nsamples = 4\nvalue = [0, 0, 2, 2]"] ;
720 -> 721 ;
722 [label="gini = 0.5\nsamples = 2\nvalue = [0, 0, 1, 1]"] ;
721 -> 722 ;
723 [label="gini = 0.5\nsamples = 2\nvalue = [0, 0, 1, 1]"] ;
721 -> 723 ;
724 [label="X[0] <= 0.5\ngini = 0.5\nsamples = 4\nvalue = [0, 0, 2, 2]"] ;
720 -> 724 ;
725 [label="gini = 0.5\nsamples = 2\nvalue = [0, 0, 1, 1]"] ;
724 -> 725 ;
726 [label="gini = 0.5\nsamples = 2\nvalue = [0, 0, 1, 1]"] ;
724 -> 726 ;
727 [label="X[7] <= 0.5\ngini = 0.5\nsamples = 8\nvalue = [0, 0, 4, 4]"] ;
719 -> 727 ;
728 [label="X[0] <= 0.5\ngini = 0.5\nsamples = 4\nvalue = [0, 0, 2, 2]"] ;
727 -> 728 ;
729 [label="gini = 0.5\nsamples = 2\nvalue = [0, 0, 1, 1]"] ;
728 -> 729 ;
730 [label="gini = 0.5\nsamples = 2\nvalue = [0, 0, 1, 1]"] ;
728 -> 730 ;
731 [label="X[0] <= 0.5\ngini = 0.5\nsamples = 4\nvalue = [0, 0, 2, 2]"] ;
727 -> 731 ;
732 [label="gini = 0.5\nsamples = 2\nvalue = [0, 0, 1, 1]"] ;
731 -> 732 ;
733 [label="gini = 0.5\nsamples = 2\nvalue = [0, 0, 1, 1]"] ;
731 -> 733 ;
734 [label="X[7] <= 0.5\ngini = 0.5\nsamples = 32\nvalue = [0, 0, 16, 16]"] ;
702 -> 734 ;
735 [label="X[10] <= 0.5\ngini = 0.5\nsamples = 16\nvalue = [0, 0, 8, 8]"] ;
734 -> 735 ;
736 [label="X[18] <= 0.5\ngini = 0.5\nsamples = 8\nvalue = [0, 0, 4, 4]"] ;
735 -> 736 ;
737 [label="X[0] <= 0.5\ngini = 0.5\nsamples = 4\nvalue = [0, 0, 2, 2]"] ;
736 -> 737 ;
738 [label="gini = 0.5\nsamples = 2\nvalue = [0, 0, 1, 1]"] ;
737 -> 738 ;
739 [label="gini = 0.5\nsamples = 2\nvalue = [0, 0, 1, 1]"] ;
737 -> 739 ;
740 [label="X[0] <= 0.5\ngini = 0.5\nsamples = 4\nvalue = [0, 0, 2, 2]"] ;
736 -> 740 ;
741 [label="gini = 0.5\nsamples = 2\nvalue = [0, 0, 1, 1]"] ;
740 -> 741 ;
742 [label="gini = 0.5\nsamples = 2\nvalue = [0, 0, 1, 1]"] ;
740 -> 742 ;
743 [label="X[18] <= 0.5\ngini = 0.5\nsamples = 8\nvalue = [0, 0, 4, 4]"] ;
735 -> 743 ;
744 [label="X[0] <= 0.5\ngini = 0.5\nsamples = 4\nvalue = [0, 0, 2, 2]"] ;
743 -> 744 ;
745 [label="gini = 0.5\nsamples = 2\nvalue = [0, 0, 1, 1]"] ;
744 -> 745 ;
746 [label="gini = 0.5\nsamples = 2\nvalue = [0, 0, 1, 1]"] ;
744 -> 746 ;
747 [label="X[0] <= 0.5\ngini = 0.5\nsamples = 4\nvalue = [0, 0, 2, 2]"] ;
743 -> 747 ;
748 [label="gini = 0.5\nsamples = 2\nvalue = [0, 0, 1, 1]"] ;
747 -> 748 ;
749 [label="gini = 0.5\nsamples = 2\nvalue = [0, 0, 1, 1]"] ;
747 -> 749 ;
750 [label="X[18] <= 0.5\ngini = 0.5\nsamples = 16\nvalue = [0, 0, 8, 8]"] ;
734 -> 750 ;
751 [label="X[10] <= 0.5\ngini = 0.5\nsamples = 8\nvalue = [0, 0, 4, 4]"] ;
750 -> 751 ;
752 [label="X[0] <= 0.5\ngini = 0.5\nsamples = 4\nvalue = [0, 0, 2, 2]"] ;
751 -> 752 ;
753 [label="gini = 0.5\nsamples = 2\nvalue = [0, 0, 1, 1]"] ;
752 -> 753 ;
754 [label="gini = 0.5\nsamples = 2\nvalue = [0, 0, 1, 1]"] ;
752 -> 754 ;
755 [label="X[0] <= 0.5\ngini = 0.5\nsamples = 4\nvalue = [0, 0, 2, 2]"] ;
751 -> 755 ;
756 [label="gini = 0.5\nsamples = 2\nvalue = [0, 0, 1, 1]"] ;
755 -> 756 ;
757 [label="gini = 0.5\nsamples = 2\nvalue = [0, 0, 1, 1]"] ;
755 -> 757 ;
758 [label="X[0] <= 0.5\ngini = 0.5\nsamples = 8\nvalue = [0, 0, 4, 4]"] ;
750 -> 758 ;
759 [label="X[10] <= 0.5\ngini = 0.5\nsamples = 4\nvalue = [0, 0, 2, 2]"] ;
758 -> 759 ;
760 [label="gini = 0.5\nsamples = 2\nvalue = [0, 0, 1, 1]"] ;
759 -> 760 ;
761 [label="gini = 0.5\nsamples = 2\nvalue = [0, 0, 1, 1]"] ;
759 -> 761 ;
762 [label="X[10] <= 0.5\ngini = 0.5\nsamples = 4\nvalue = [0, 0, 2, 2]"] ;
758 -> 762 ;
763 [label="gini = 0.5\nsamples = 2\nvalue = [0, 0, 1, 1]"] ;
762 -> 763 ;
764 [label="gini = 0.5\nsamples = 2\nvalue = [0, 0, 1, 1]"] ;
762 -> 764 ;
765 [label="X[1] <= 0.5\ngini = 0.5\nsamples = 255\nvalue = [0, 0, 128, 127]"] ;
513 -> 765 ;
766 [label="X[3] <= 0.5\ngini = 0.5\nsamples = 127\nvalue = [0, 0, 64, 63]"] ;
765 -> 766 ;
767 [label="X[6] <= 0.5\ngini = 0.5\nsamples = 63\nvalue = [0, 0, 32, 31]"] ;
766 -> 767 ;
768 [label="X[10] <= 0.5\ngini = 0.499\nsamples = 31\nvalue = [0, 0, 16, 15]"] ;
767 -> 768 ;
769 [label="X[0] <= 0.5\ngini = 0.5\nsamples = 16\nvalue = [0, 0, 8, 8]"] ;
768 -> 769 ;
770 [label="X[18] <= 0.5\ngini = 0.5\nsamples = 8\nvalue = [0, 0, 4, 4]"] ;
769 -> 770 ;
771 [label="X[7] <= 0.5\ngini = 0.5\nsamples = 4\nvalue = [0, 0, 2, 2]"] ;
770 -> 771 ;
772 [label="gini = 0.5\nsamples = 2\nvalue = [0, 0, 1, 1]"] ;
771 -> 772 ;
773 [label="gini = 0.5\nsamples = 2\nvalue = [0, 0, 1, 1]"] ;
771 -> 773 ;
774 [label="X[7] <= 0.5\ngini = 0.5\nsamples = 4\nvalue = [0, 0, 2, 2]"] ;
770 -> 774 ;
775 [label="gini = 0.5\nsamples = 2\nvalue = [0, 0, 1, 1]"] ;
774 -> 775 ;
776 [label="gini = 0.5\nsamples = 2\nvalue = [0, 0, 1, 1]"] ;
774 -> 776 ;
777 [label="X[7] <= 0.5\ngini = 0.5\nsamples = 8\nvalue = [0, 0, 4, 4]"] ;
769 -> 777 ;
778 [label="X[18] <= 0.5\ngini = 0.5\nsamples = 4\nvalue = [0, 0, 2, 2]"] ;
777 -> 778 ;
779 [label="gini = 0.5\nsamples = 2\nvalue = [0, 0, 1, 1]"] ;
778 -> 779 ;
780 [label="gini = 0.5\nsamples = 2\nvalue = [0, 0, 1, 1]"] ;
778 -> 780 ;
781 [label="X[18] <= 0.5\ngini = 0.5\nsamples = 4\nvalue = [0, 0, 2, 2]"] ;
777 -> 781 ;
782 [label="gini = 0.5\nsamples = 2\nvalue = [0, 0, 1, 1]"] ;
781 -> 782 ;
783 [label="gini = 0.5\nsamples = 2\nvalue = [0, 0, 1, 1]"] ;
781 -> 783 ;
784 [label="X[7] <= 0.5\ngini = 0.498\nsamples = 15\nvalue = [0, 0, 8, 7]"] ;
768 -> 784 ;
785 [label="X[18] <= 0.5\ngini = 0.5\nsamples = 8\nvalue = [0, 0, 4, 4]"] ;
784 -> 785 ;
786 [label="X[0] <= 0.5\ngini = 0.5\nsamples = 4\nvalue = [0, 0, 2, 2]"] ;
785 -> 786 ;
787 [label="gini = 0.5\nsamples = 2\nvalue = [0, 0, 1, 1]"] ;
786 -> 787 ;
788 [label="gini = 0.5\nsamples = 2\nvalue = [0, 0, 1, 1]"] ;
786 -> 788 ;
789 [label="X[0] <= 0.5\ngini = 0.5\nsamples = 4\nvalue = [0, 0, 2, 2]"] ;
785 -> 789 ;
790 [label="gini = 0.5\nsamples = 2\nvalue = [0, 0, 1, 1]"] ;
789 -> 790 ;
791 [label="gini = 0.5\nsamples = 2\nvalue = [0, 0, 1, 1]"] ;
789 -> 791 ;
792 [label="X[0] <= 0.5\ngini = 0.49\nsamples = 7\nvalue = [0, 0, 4, 3]"] ;
784 -> 792 ;
793 [label="X[18] <= 0.5\ngini = 0.444\nsamples = 3\nvalue = [0, 0, 2, 1]"] ;
792 -> 793 ;
794 [label="gini = 0.0\nsamples = 1\nvalue = [0, 0, 1, 0]"] ;
793 -> 794 ;
795 [label="gini = 0.5\nsamples = 2\nvalue = [0, 0, 1, 1]"] ;
793 -> 795 ;
796 [label="X[18] <= 0.5\ngini = 0.5\nsamples = 4\nvalue = [0, 0, 2, 2]"] ;
792 -> 796 ;
797 [label="gini = 0.5\nsamples = 2\nvalue = [0, 0, 1, 1]"] ;
796 -> 797 ;
798 [label="gini = 0.5\nsamples = 2\nvalue = [0, 0, 1, 1]"] ;
796 -> 798 ;
799 [label="X[7] <= 0.5\ngini = 0.5\nsamples = 32\nvalue = [0, 0, 16, 16]"] ;
767 -> 799 ;
800 [label="X[0] <= 0.5\ngini = 0.5\nsamples = 16\nvalue = [0, 0, 8, 8]"] ;
799 -> 800 ;
801 [label="X[10] <= 0.5\ngini = 0.5\nsamples = 8\nvalue = [0, 0, 4, 4]"] ;
800 -> 801 ;
802 [label="X[18] <= 0.5\ngini = 0.5\nsamples = 4\nvalue = [0, 0, 2, 2]"] ;
801 -> 802 ;
803 [label="gini = 0.5\nsamples = 2\nvalue = [0, 0, 1, 1]"] ;
802 -> 803 ;
804 [label="gini = 0.5\nsamples = 2\nvalue = [0, 0, 1, 1]"] ;
802 -> 804 ;
805 [label="X[18] <= 0.5\ngini = 0.5\nsamples = 4\nvalue = [0, 0, 2, 2]"] ;
801 -> 805 ;
806 [label="gini = 0.5\nsamples = 2\nvalue = [0, 0, 1, 1]"] ;
805 -> 806 ;
807 [label="gini = 0.5\nsamples = 2\nvalue = [0, 0, 1, 1]"] ;
805 -> 807 ;
808 [label="X[18] <= 0.5\ngini = 0.5\nsamples = 8\nvalue = [0, 0, 4, 4]"] ;
800 -> 808 ;
809 [label="X[10] <= 0.5\ngini = 0.5\nsamples = 4\nvalue = [0, 0, 2, 2]"] ;
808 -> 809 ;
810 [label="gini = 0.5\nsamples = 2\nvalue = [0, 0, 1, 1]"] ;
809 -> 810 ;
811 [label="gini = 0.5\nsamples = 2\nvalue = [0, 0, 1, 1]"] ;
809 -> 811 ;
812 [label="X[10] <= 0.5\ngini = 0.5\nsamples = 4\nvalue = [0, 0, 2, 2]"] ;
808 -> 812 ;
813 [label="gini = 0.5\nsamples = 2\nvalue = [0, 0, 1, 1]"] ;
812 -> 813 ;
814 [label="gini = 0.5\nsamples = 2\nvalue = [0, 0, 1, 1]"] ;
812 -> 814 ;
815 [label="X[10] <= 0.5\ngini = 0.5\nsamples = 16\nvalue = [0, 0, 8, 8]"] ;
799 -> 815 ;
816 [label="X[0] <= 0.5\ngini = 0.5\nsamples = 8\nvalue = [0, 0, 4, 4]"] ;
815 -> 816 ;
817 [label="X[18] <= 0.5\ngini = 0.5\nsamples = 4\nvalue = [0, 0, 2, 2]"] ;
816 -> 817 ;
818 [label="gini = 0.5\nsamples = 2\nvalue = [0, 0, 1, 1]"] ;
817 -> 818 ;
819 [label="gini = 0.5\nsamples = 2\nvalue = [0, 0, 1, 1]"] ;
817 -> 819 ;
820 [label="X[18] <= 0.5\ngini = 0.5\nsamples = 4\nvalue = [0, 0, 2, 2]"] ;
816 -> 820 ;
821 [label="gini = 0.5\nsamples = 2\nvalue = [0, 0, 1, 1]"] ;
820 -> 821 ;
822 [label="gini = 0.5\nsamples = 2\nvalue = [0, 0, 1, 1]"] ;
820 -> 822 ;
823 [label="X[0] <= 0.5\ngini = 0.5\nsamples = 8\nvalue = [0, 0, 4, 4]"] ;
815 -> 823 ;
824 [label="X[18] <= 0.5\ngini = 0.5\nsamples = 4\nvalue = [0, 0, 2, 2]"] ;
823 -> 824 ;
825 [label="gini = 0.5\nsamples = 2\nvalue = [0, 0, 1, 1]"] ;
824 -> 825 ;
826 [label="gini = 0.5\nsamples = 2\nvalue = [0, 0, 1, 1]"] ;
824 -> 826 ;
827 [label="X[18] <= 0.5\ngini = 0.5\nsamples = 4\nvalue = [0, 0, 2, 2]"] ;
823 -> 827 ;
828 [label="gini = 0.5\nsamples = 2\nvalue = [0, 0, 1, 1]"] ;
827 -> 828 ;
829 [label="gini = 0.5\nsamples = 2\nvalue = [0, 0, 1, 1]"] ;
827 -> 829 ;
830 [label="X[10] <= 0.5\ngini = 0.5\nsamples = 64\nvalue = [0, 0, 32, 32]"] ;
766 -> 830 ;
831 [label="X[7] <= 0.5\ngini = 0.5\nsamples = 32\nvalue = [0, 0, 16, 16]"] ;
830 -> 831 ;
832 [label="X[6] <= 0.5\ngini = 0.5\nsamples = 16\nvalue = [0, 0, 8, 8]"] ;
831 -> 832 ;
833 [label="X[0] <= 0.5\ngini = 0.5\nsamples = 8\nvalue = [0, 0, 4, 4]"] ;
832 -> 833 ;
834 [label="X[18] <= 0.5\ngini = 0.5\nsamples = 4\nvalue = [0, 0, 2, 2]"] ;
833 -> 834 ;
835 [label="gini = 0.5\nsamples = 2\nvalue = [0, 0, 1, 1]"] ;
834 -> 835 ;
836 [label="gini = 0.5\nsamples = 2\nvalue = [0, 0, 1, 1]"] ;
834 -> 836 ;
837 [label="X[18] <= 0.5\ngini = 0.5\nsamples = 4\nvalue = [0, 0, 2, 2]"] ;
833 -> 837 ;
838 [label="gini = 0.5\nsamples = 2\nvalue = [0, 0, 1, 1]"] ;
837 -> 838 ;
839 [label="gini = 0.5\nsamples = 2\nvalue = [0, 0, 1, 1]"] ;
837 -> 839 ;
840 [label="X[0] <= 0.5\ngini = 0.5\nsamples = 8\nvalue = [0, 0, 4, 4]"] ;
832 -> 840 ;
841 [label="X[18] <= 0.5\ngini = 0.5\nsamples = 4\nvalue = [0, 0, 2, 2]"] ;
840 -> 841 ;
842 [label="gini = 0.5\nsamples = 2\nvalue = [0, 0, 1, 1]"] ;
841 -> 842 ;
843 [label="gini = 0.5\nsamples = 2\nvalue = [0, 0, 1, 1]"] ;
841 -> 843 ;
844 [label="X[18] <= 0.5\ngini = 0.5\nsamples = 4\nvalue = [0, 0, 2, 2]"] ;
840 -> 844 ;
845 [label="gini = 0.5\nsamples = 2\nvalue = [0, 0, 1, 1]"] ;
844 -> 845 ;
846 [label="gini = 0.5\nsamples = 2\nvalue = [0, 0, 1, 1]"] ;
844 -> 846 ;
847 [label="X[0] <= 0.5\ngini = 0.5\nsamples = 16\nvalue = [0, 0, 8, 8]"] ;
831 -> 847 ;
848 [label="X[18] <= 0.5\ngini = 0.5\nsamples = 8\nvalue = [0, 0, 4, 4]"] ;
847 -> 848 ;
849 [label="X[6] <= 0.5\ngini = 0.5\nsamples = 4\nvalue = [0, 0, 2, 2]"] ;
848 -> 849 ;
850 [label="gini = 0.5\nsamples = 2\nvalue = [0, 0, 1, 1]"] ;
849 -> 850 ;
851 [label="gini = 0.5\nsamples = 2\nvalue = [0, 0, 1, 1]"] ;
849 -> 851 ;
852 [label="X[6] <= 0.5\ngini = 0.5\nsamples = 4\nvalue = [0, 0, 2, 2]"] ;
848 -> 852 ;
853 [label="gini = 0.5\nsamples = 2\nvalue = [0, 0, 1, 1]"] ;
852 -> 853 ;
854 [label="gini = 0.5\nsamples = 2\nvalue = [0, 0, 1, 1]"] ;
852 -> 854 ;
855 [label="X[6] <= 0.5\ngini = 0.5\nsamples = 8\nvalue = [0, 0, 4, 4]"] ;
847 -> 855 ;
856 [label="X[18] <= 0.5\ngini = 0.5\nsamples = 4\nvalue = [0, 0, 2, 2]"] ;
855 -> 856 ;
857 [label="gini = 0.5\nsamples = 2\nvalue = [0, 0, 1, 1]"] ;
856 -> 857 ;
858 [label="gini = 0.5\nsamples = 2\nvalue = [0, 0, 1, 1]"] ;
856 -> 858 ;
859 [label="X[18] <= 0.5\ngini = 0.5\nsamples = 4\nvalue = [0, 0, 2, 2]"] ;
855 -> 859 ;
860 [label="gini = 0.5\nsamples = 2\nvalue = [0, 0, 1, 1]"] ;
859 -> 860 ;
861 [label="gini = 0.5\nsamples = 2\nvalue = [0, 0, 1, 1]"] ;
859 -> 861 ;
862 [label="X[7] <= 0.5\ngini = 0.5\nsamples = 32\nvalue = [0, 0, 16, 16]"] ;
830 -> 862 ;
863 [label="X[0] <= 0.5\ngini = 0.5\nsamples = 16\nvalue = [0, 0, 8, 8]"] ;
862 -> 863 ;
864 [label="X[6] <= 0.5\ngini = 0.5\nsamples = 8\nvalue = [0, 0, 4, 4]"] ;
863 -> 864 ;
865 [label="X[18] <= 0.5\ngini = 0.5\nsamples = 4\nvalue = [0, 0, 2, 2]"] ;
864 -> 865 ;
866 [label="gini = 0.5\nsamples = 2\nvalue = [0, 0, 1, 1]"] ;
865 -> 866 ;
867 [label="gini = 0.5\nsamples = 2\nvalue = [0, 0, 1, 1]"] ;
865 -> 867 ;
868 [label="X[18] <= 0.5\ngini = 0.5\nsamples = 4\nvalue = [0, 0, 2, 2]"] ;
864 -> 868 ;
869 [label="gini = 0.5\nsamples = 2\nvalue = [0, 0, 1, 1]"] ;
868 -> 869 ;
870 [label="gini = 0.5\nsamples = 2\nvalue = [0, 0, 1, 1]"] ;
868 -> 870 ;
871 [label="X[6] <= 0.5\ngini = 0.5\nsamples = 8\nvalue = [0, 0, 4, 4]"] ;
863 -> 871 ;
872 [label="X[18] <= 0.5\ngini = 0.5\nsamples = 4\nvalue = [0, 0, 2, 2]"] ;
871 -> 872 ;
873 [label="gini = 0.5\nsamples = 2\nvalue = [0, 0, 1, 1]"] ;
872 -> 873 ;
874 [label="gini = 0.5\nsamples = 2\nvalue = [0, 0, 1, 1]"] ;
872 -> 874 ;
875 [label="X[18] <= 0.5\ngini = 0.5\nsamples = 4\nvalue = [0, 0, 2, 2]"] ;
871 -> 875 ;
876 [label="gini = 0.5\nsamples = 2\nvalue = [0, 0, 1, 1]"] ;
875 -> 876 ;
877 [label="gini = 0.5\nsamples = 2\nvalue = [0, 0, 1, 1]"] ;
875 -> 877 ;
878 [label="X[6] <= 0.5\ngini = 0.5\nsamples = 16\nvalue = [0, 0, 8, 8]"] ;
862 -> 878 ;
879 [label="X[18] <= 0.5\ngini = 0.5\nsamples = 8\nvalue = [0, 0, 4, 4]"] ;
878 -> 879 ;
880 [label="X[0] <= 0.5\ngini = 0.5\nsamples = 4\nvalue = [0, 0, 2, 2]"] ;
879 -> 880 ;
881 [label="gini = 0.5\nsamples = 2\nvalue = [0, 0, 1, 1]"] ;
880 -> 881 ;
882 [label="gini = 0.5\nsamples = 2\nvalue = [0, 0, 1, 1]"] ;
880 -> 882 ;
883 [label="X[0] <= 0.5\ngini = 0.5\nsamples = 4\nvalue = [0, 0, 2, 2]"] ;
879 -> 883 ;
884 [label="gini = 0.5\nsamples = 2\nvalue = [0, 0, 1, 1]"] ;
883 -> 884 ;
885 [label="gini = 0.5\nsamples = 2\nvalue = [0, 0, 1, 1]"] ;
883 -> 885 ;
886 [label="X[0] <= 0.5\ngini = 0.5\nsamples = 8\nvalue = [0, 0, 4, 4]"] ;
878 -> 886 ;
887 [label="X[18] <= 0.5\ngini = 0.5\nsamples = 4\nvalue = [0, 0, 2, 2]"] ;
886 -> 887 ;
888 [label="gini = 0.5\nsamples = 2\nvalue = [0, 0, 1, 1]"] ;
887 -> 888 ;
889 [label="gini = 0.5\nsamples = 2\nvalue = [0, 0, 1, 1]"] ;
887 -> 889 ;
890 [label="X[18] <= 0.5\ngini = 0.5\nsamples = 4\nvalue = [0, 0, 2, 2]"] ;
886 -> 890 ;
891 [label="gini = 0.5\nsamples = 2\nvalue = [0, 0, 1, 1]"] ;
890 -> 891 ;
892 [label="gini = 0.5\nsamples = 2\nvalue = [0, 0, 1, 1]"] ;
890 -> 892 ;
893 [label="X[3] <= 0.5\ngini = 0.5\nsamples = 128\nvalue = [0, 0, 64, 64]"] ;
765 -> 893 ;
894 [label="X[7] <= 0.5\ngini = 0.5\nsamples = 64\nvalue = [0, 0, 32, 32]"] ;
893 -> 894 ;
895 [label="X[6] <= 0.5\ngini = 0.5\nsamples = 32\nvalue = [0, 0, 16, 16]"] ;
894 -> 895 ;
896 [label="X[10] <= 0.5\ngini = 0.5\nsamples = 16\nvalue = [0, 0, 8, 8]"] ;
895 -> 896 ;
897 [label="X[0] <= 0.5\ngini = 0.5\nsamples = 8\nvalue = [0, 0, 4, 4]"] ;
896 -> 897 ;
898 [label="X[18] <= 0.5\ngini = 0.5\nsamples = 4\nvalue = [0, 0, 2, 2]"] ;
897 -> 898 ;
899 [label="gini = 0.5\nsamples = 2\nvalue = [0, 0, 1, 1]"] ;
898 -> 899 ;
900 [label="gini = 0.5\nsamples = 2\nvalue = [0, 0, 1, 1]"] ;
898 -> 900 ;
901 [label="X[18] <= 0.5\ngini = 0.5\nsamples = 4\nvalue = [0, 0, 2, 2]"] ;
897 -> 901 ;
902 [label="gini = 0.5\nsamples = 2\nvalue = [0, 0, 1, 1]"] ;
901 -> 902 ;
903 [label="gini = 0.5\nsamples = 2\nvalue = [0, 0, 1, 1]"] ;
901 -> 903 ;
904 [label="X[0] <= 0.5\ngini = 0.5\nsamples = 8\nvalue = [0, 0, 4, 4]"] ;
896 -> 904 ;
905 [label="X[18] <= 0.5\ngini = 0.5\nsamples = 4\nvalue = [0, 0, 2, 2]"] ;
904 -> 905 ;
906 [label="gini = 0.5\nsamples = 2\nvalue = [0, 0, 1, 1]"] ;
905 -> 906 ;
907 [label="gini = 0.5\nsamples = 2\nvalue = [0, 0, 1, 1]"] ;
905 -> 907 ;
908 [label="X[18] <= 0.5\ngini = 0.5\nsamples = 4\nvalue = [0, 0, 2, 2]"] ;
904 -> 908 ;
909 [label="gini = 0.5\nsamples = 2\nvalue = [0, 0, 1, 1]"] ;
908 -> 909 ;
910 [label="gini = 0.5\nsamples = 2\nvalue = [0, 0, 1, 1]"] ;
908 -> 910 ;
911 [label="X[18] <= 0.5\ngini = 0.5\nsamples = 16\nvalue = [0, 0, 8, 8]"] ;
895 -> 911 ;
912 [label="X[0] <= 0.5\ngini = 0.5\nsamples = 8\nvalue = [0, 0, 4, 4]"] ;
911 -> 912 ;
913 [label="X[10] <= 0.5\ngini = 0.5\nsamples = 4\nvalue = [0, 0, 2, 2]"] ;
912 -> 913 ;
914 [label="gini = 0.5\nsamples = 2\nvalue = [0, 0, 1, 1]"] ;
913 -> 914 ;
915 [label="gini = 0.5\nsamples = 2\nvalue = [0, 0, 1, 1]"] ;
913 -> 915 ;
916 [label="X[10] <= 0.5\ngini = 0.5\nsamples = 4\nvalue = [0, 0, 2, 2]"] ;
912 -> 916 ;
917 [label="gini = 0.5\nsamples = 2\nvalue = [0, 0, 1, 1]"] ;
916 -> 917 ;
918 [label="gini = 0.5\nsamples = 2\nvalue = [0, 0, 1, 1]"] ;
916 -> 918 ;
919 [label="X[10] <= 0.5\ngini = 0.5\nsamples = 8\nvalue = [0, 0, 4, 4]"] ;
911 -> 919 ;
920 [label="X[0] <= 0.5\ngini = 0.5\nsamples = 4\nvalue = [0, 0, 2, 2]"] ;
919 -> 920 ;
921 [label="gini = 0.5\nsamples = 2\nvalue = [0, 0, 1, 1]"] ;
920 -> 921 ;
922 [label="gini = 0.5\nsamples = 2\nvalue = [0, 0, 1, 1]"] ;
920 -> 922 ;
923 [label="X[0] <= 0.5\ngini = 0.5\nsamples = 4\nvalue = [0, 0, 2, 2]"] ;
919 -> 923 ;
924 [label="gini = 0.5\nsamples = 2\nvalue = [0, 0, 1, 1]"] ;
923 -> 924 ;
925 [label="gini = 0.5\nsamples = 2\nvalue = [0, 0, 1, 1]"] ;
923 -> 925 ;
926 [label="X[18] <= 0.5\ngini = 0.5\nsamples = 32\nvalue = [0, 0, 16, 16]"] ;
894 -> 926 ;
927 [label="X[0] <= 0.5\ngini = 0.5\nsamples = 16\nvalue = [0, 0, 8, 8]"] ;
926 -> 927 ;
928 [label="X[6] <= 0.5\ngini = 0.5\nsamples = 8\nvalue = [0, 0, 4, 4]"] ;
927 -> 928 ;
929 [label="X[10] <= 0.5\ngini = 0.5\nsamples = 4\nvalue = [0, 0, 2, 2]"] ;
928 -> 929 ;
930 [label="gini = 0.5\nsamples = 2\nvalue = [0, 0, 1, 1]"] ;
929 -> 930 ;
931 [label="gini = 0.5\nsamples = 2\nvalue = [0, 0, 1, 1]"] ;
929 -> 931 ;
932 [label="X[10] <= 0.5\ngini = 0.5\nsamples = 4\nvalue = [0, 0, 2, 2]"] ;
928 -> 932 ;
933 [label="gini = 0.5\nsamples = 2\nvalue = [0, 0, 1, 1]"] ;
932 -> 933 ;
934 [label="gini = 0.5\nsamples = 2\nvalue = [0, 0, 1, 1]"] ;
932 -> 934 ;
935 [label="X[6] <= 0.5\ngini = 0.5\nsamples = 8\nvalue = [0, 0, 4, 4]"] ;
927 -> 935 ;
936 [label="X[10] <= 0.5\ngini = 0.5\nsamples = 4\nvalue = [0, 0, 2, 2]"] ;
935 -> 936 ;
937 [label="gini = 0.5\nsamples = 2\nvalue = [0, 0, 1, 1]"] ;
936 -> 937 ;
938 [label="gini = 0.5\nsamples = 2\nvalue = [0, 0, 1, 1]"] ;
936 -> 938 ;
939 [label="X[10] <= 0.5\ngini = 0.5\nsamples = 4\nvalue = [0, 0, 2, 2]"] ;
935 -> 939 ;
940 [label="gini = 0.5\nsamples = 2\nvalue = [0, 0, 1, 1]"] ;
939 -> 940 ;
941 [label="gini = 0.5\nsamples = 2\nvalue = [0, 0, 1, 1]"] ;
939 -> 941 ;
942 [label="X[0] <= 0.5\ngini = 0.5\nsamples = 16\nvalue = [0, 0, 8, 8]"] ;
926 -> 942 ;
943 [label="X[6] <= 0.5\ngini = 0.5\nsamples = 8\nvalue = [0, 0, 4, 4]"] ;
942 -> 943 ;
944 [label="X[10] <= 0.5\ngini = 0.5\nsamples = 4\nvalue = [0, 0, 2, 2]"] ;
943 -> 944 ;
945 [label="gini = 0.5\nsamples = 2\nvalue = [0, 0, 1, 1]"] ;
944 -> 945 ;
946 [label="gini = 0.5\nsamples = 2\nvalue = [0, 0, 1, 1]"] ;
944 -> 946 ;
947 [label="X[10] <= 0.5\ngini = 0.5\nsamples = 4\nvalue = [0, 0, 2, 2]"] ;
943 -> 947 ;
948 [label="gini = 0.5\nsamples = 2\nvalue = [0, 0, 1, 1]"] ;
947 -> 948 ;
949 [label="gini = 0.5\nsamples = 2\nvalue = [0, 0, 1, 1]"] ;
947 -> 949 ;
950 [label="X[6] <= 0.5\ngini = 0.5\nsamples = 8\nvalue = [0, 0, 4, 4]"] ;
942 -> 950 ;
951 [label="X[10] <= 0.5\ngini = 0.5\nsamples = 4\nvalue = [0, 0, 2, 2]"] ;
950 -> 951 ;
952 [label="gini = 0.5\nsamples = 2\nvalue = [0, 0, 1, 1]"] ;
951 -> 952 ;
953 [label="gini = 0.5\nsamples = 2\nvalue = [0, 0, 1, 1]"] ;
951 -> 953 ;
954 [label="X[10] <= 0.5\ngini = 0.5\nsamples = 4\nvalue = [0, 0, 2, 2]"] ;
950 -> 954 ;
955 [label="gini = 0.5\nsamples = 2\nvalue = [0, 0, 1, 1]"] ;
954 -> 955 ;
956 [label="gini = 0.5\nsamples = 2\nvalue = [0, 0, 1, 1]"] ;
954 -> 956 ;
957 [label="X[7] <= 0.5\ngini = 0.5\nsamples = 64\nvalue = [0, 0, 32, 32]"] ;
893 -> 957 ;
958 [label="X[0] <= 0.5\ngini = 0.5\nsamples = 32\nvalue = [0, 0, 16, 16]"] ;
957 -> 958 ;
959 [label="X[6] <= 0.5\ngini = 0.5\nsamples = 16\nvalue = [0, 0, 8, 8]"] ;
958 -> 959 ;
960 [label="X[10] <= 0.5\ngini = 0.5\nsamples = 8\nvalue = [0, 0, 4, 4]"] ;
959 -> 960 ;
961 [label="X[18] <= 0.5\ngini = 0.5\nsamples = 4\nvalue = [0, 0, 2, 2]"] ;
960 -> 961 ;
962 [label="gini = 0.5\nsamples = 2\nvalue = [0, 0, 1, 1]"] ;
961 -> 962 ;
963 [label="gini = 0.5\nsamples = 2\nvalue = [0, 0, 1, 1]"] ;
961 -> 963 ;
964 [label="X[18] <= 0.5\ngini = 0.5\nsamples = 4\nvalue = [0, 0, 2, 2]"] ;
960 -> 964 ;
965 [label="gini = 0.5\nsamples = 2\nvalue = [0, 0, 1, 1]"] ;
964 -> 965 ;
966 [label="gini = 0.5\nsamples = 2\nvalue = [0, 0, 1, 1]"] ;
964 -> 966 ;
967 [label="X[10] <= 0.5\ngini = 0.5\nsamples = 8\nvalue = [0, 0, 4, 4]"] ;
959 -> 967 ;
968 [label="X[18] <= 0.5\ngini = 0.5\nsamples = 4\nvalue = [0, 0, 2, 2]"] ;
967 -> 968 ;
969 [label="gini = 0.5\nsamples = 2\nvalue = [0, 0, 1, 1]"] ;
968 -> 969 ;
970 [label="gini = 0.5\nsamples = 2\nvalue = [0, 0, 1, 1]"] ;
968 -> 970 ;
971 [label="X[18] <= 0.5\ngini = 0.5\nsamples = 4\nvalue = [0, 0, 2, 2]"] ;
967 -> 971 ;
972 [label="gini = 0.5\nsamples = 2\nvalue = [0, 0, 1, 1]"] ;
971 -> 972 ;
973 [label="gini = 0.5\nsamples = 2\nvalue = [0, 0, 1, 1]"] ;
971 -> 973 ;
974 [label="X[10] <= 0.5\ngini = 0.5\nsamples = 16\nvalue = [0, 0, 8, 8]"] ;
958 -> 974 ;
975 [label="X[6] <= 0.5\ngini = 0.5\nsamples = 8\nvalue = [0, 0, 4, 4]"] ;
974 -> 975 ;
976 [label="X[18] <= 0.5\ngini = 0.5\nsamples = 4\nvalue = [0, 0, 2, 2]"] ;
975 -> 976 ;
977 [label="gini = 0.5\nsamples = 2\nvalue = [0, 0, 1, 1]"] ;
976 -> 977 ;
978 [label="gini = 0.5\nsamples = 2\nvalue = [0, 0, 1, 1]"] ;
976 -> 978 ;
979 [label="X[18] <= 0.5\ngini = 0.5\nsamples = 4\nvalue = [0, 0, 2, 2]"] ;
975 -> 979 ;
980 [label="gini = 0.5\nsamples = 2\nvalue = [0, 0, 1, 1]"] ;
979 -> 980 ;
981 [label="gini = 0.5\nsamples = 2\nvalue = [0, 0, 1, 1]"] ;
979 -> 981 ;
982 [label="X[6] <= 0.5\ngini = 0.5\nsamples = 8\nvalue = [0, 0, 4, 4]"] ;
974 -> 982 ;
983 [label="X[18] <= 0.5\ngini = 0.5\nsamples = 4\nvalue = [0, 0, 2, 2]"] ;
982 -> 983 ;
984 [label="gini = 0.5\nsamples = 2\nvalue = [0, 0, 1, 1]"] ;
983 -> 984 ;
985 [label="gini = 0.5\nsamples = 2\nvalue = [0, 0, 1, 1]"] ;
983 -> 985 ;
986 [label="X[18] <= 0.5\ngini = 0.5\nsamples = 4\nvalue = [0, 0, 2, 2]"] ;
982 -> 986 ;
987 [label="gini = 0.5\nsamples = 2\nvalue = [0, 0, 1, 1]"] ;
986 -> 987 ;
988 [label="gini = 0.5\nsamples = 2\nvalue = [0, 0, 1, 1]"] ;
986 -> 988 ;
989 [label="X[10] <= 0.5\ngini = 0.5\nsamples = 32\nvalue = [0, 0, 16, 16]"] ;
957 -> 989 ;
990 [label="X[18] <= 0.5\ngini = 0.5\nsamples = 16\nvalue = [0, 0, 8, 8]"] ;
989 -> 990 ;
991 [label="X[0] <= 0.5\ngini = 0.5\nsamples = 8\nvalue = [0, 0, 4, 4]"] ;
990 -> 991 ;
992 [label="X[6] <= 0.5\ngini = 0.5\nsamples = 4\nvalue = [0, 0, 2, 2]"] ;
991 -> 992 ;
993 [label="gini = 0.5\nsamples = 2\nvalue = [0, 0, 1, 1]"] ;
992 -> 993 ;
994 [label="gini = 0.5\nsamples = 2\nvalue = [0, 0, 1, 1]"] ;
992 -> 994 ;
995 [label="X[6] <= 0.5\ngini = 0.5\nsamples = 4\nvalue = [0, 0, 2, 2]"] ;
991 -> 995 ;
996 [label="gini = 0.5\nsamples = 2\nvalue = [0, 0, 1, 1]"] ;
995 -> 996 ;
997 [label="gini = 0.5\nsamples = 2\nvalue = [0, 0, 1, 1]"] ;
995 -> 997 ;
998 [label="X[6] <= 0.5\ngini = 0.5\nsamples = 8\nvalue = [0, 0, 4, 4]"] ;
990 -> 998 ;
999 [label="X[0] <= 0.5\ngini = 0.5\nsamples = 4\nvalue = [0, 0, 2, 2]"] ;
998 -> 999 ;
1000 [label="gini = 0.5\nsamples = 2\nvalue = [0, 0, 1, 1]"] ;
999 -> 1000 ;
1001 [label="gini = 0.5\nsamples = 2\nvalue = [0, 0, 1, 1]"] ;
999 -> 1001 ;
1002 [label="X[0] <= 0.5\ngini = 0.5\nsamples = 4\nvalue = [0, 0, 2, 2]"] ;
998 -> 1002 ;
1003 [label="gini = 0.5\nsamples = 2\nvalue = [0, 0, 1, 1]"] ;
1002 -> 1003 ;
1004 [label="gini = 0.5\nsamples = 2\nvalue = [0, 0, 1, 1]"] ;
1002 -> 1004 ;
1005 [label="X[18] <= 0.5\ngini = 0.5\nsamples = 16\nvalue = [0, 0, 8, 8]"] ;
989 -> 1005 ;
1006 [label="X[6] <= 0.5\ngini = 0.5\nsamples = 8\nvalue = [0, 0, 4, 4]"] ;
1005 -> 1006 ;
1007 [label="X[0] <= 0.5\ngini = 0.5\nsamples = 4\nvalue = [0, 0, 2, 2]"] ;
1006 -> 1007 ;
1008 [label="gini = 0.5\nsamples = 2\nvalue = [0, 0, 1, 1]"] ;
1007 -> 1008 ;
1009 [label="gini = 0.5\nsamples = 2\nvalue = [0, 0, 1, 1]"] ;
1007 -> 1009 ;
1010 [label="X[0] <= 0.5\ngini = 0.5\nsamples = 4\nvalue = [0, 0, 2, 2]"] ;
1006 -> 1010 ;
1011 [label="gini = 0.5\nsamples = 2\nvalue = [0, 0, 1, 1]"] ;
1010 -> 1011 ;
1012 [label="gini = 0.5\nsamples = 2\nvalue = [0, 0, 1, 1]"] ;
1010 -> 1012 ;
1013 [label="X[6] <= 0.5\ngini = 0.5\nsamples = 8\nvalue = [0, 0, 4, 4]"] ;
1005 -> 1013 ;
1014 [label="X[0] <= 0.5\ngini = 0.5\nsamples = 4\nvalue = [0, 0, 2, 2]"] ;
1013 -> 1014 ;
1015 [label="gini = 0.5\nsamples = 2\nvalue = [0, 0, 1, 1]"] ;
1014 -> 1015 ;
1016 [label="gini = 0.5\nsamples = 2\nvalue = [0, 0, 1, 1]"] ;
1014 -> 1016 ;
1017 [label="X[0] <= 0.5\ngini = 0.5\nsamples = 4\nvalue = [0, 0, 2, 2]"] ;
1013 -> 1017 ;
1018 [label="gini = 0.5\nsamples = 2\nvalue = [0, 0, 1, 1]"] ;
1017 -> 1018 ;
1019 [label="gini = 0.5\nsamples = 2\nvalue = [0, 0, 1, 1]"] ;
1017 -> 1019 ;
1020 [label="X[6] <= 0.5\ngini = 0.5\nsamples = 1012\nvalue = [0, 0, 512, 500]"] ;
10 -> 1020 ;
1021 [label="X[2] <= 0.5\ngini = 0.5\nsamples = 501\nvalue = [0, 0, 256, 245]"] ;
1020 -> 1021 ;
1022 [label="X[18] <= 0.5\ngini = 0.499\nsamples = 246\nvalue = [0, 0, 128, 118]"] ;
1021 -> 1022 ;
1023 [label="X[10] <= 0.5\ngini = 0.497\nsamples = 119\nvalue = [0, 0, 64, 55]"] ;
1022 -> 1023 ;
1024 [label="X[3] <= 0.5\ngini = 0.49\nsamples = 56\nvalue = [0, 0, 32, 24]"] ;
1023 -> 1024 ;
1025 [label="X[0] <= 0.5\ngini = 0.461\nsamples = 25\nvalue = [0, 0, 16, 9]"] ;
1024 -> 1025 ;
1026 [label="X[1] <= 0.5\ngini = 0.32\nsamples = 10\nvalue = [0, 0, 8, 2]"] ;
1025 -> 1026 ;
1027 [label="gini = 0.0\nsamples = 4\nvalue = [0, 0, 4, 0]"] ;
1026 -> 1027 ;
1028 [label="X[7] <= 0.5\ngini = 0.444\nsamples = 6\nvalue = [0, 0, 4, 2]"] ;
1026 -> 1028 ;
1029 [label="gini = 0.0\nsamples = 2\nvalue = [0, 0, 2, 0]"] ;
1028 -> 1029 ;
1030 [label="X[11] <= 0.5\ngini = 0.5\nsamples = 4\nvalue = [0, 0, 2, 2]"] ;
1028 -> 1030 ;
1031 [label="gini = 0.5\nsamples = 2\nvalue = [0, 0, 1, 1]"] ;
1030 -> 1031 ;
1032 [label="gini = 0.5\nsamples = 2\nvalue = [0, 0, 1, 1]"] ;
1030 -> 1032 ;
1033 [label="X[11] <= 0.5\ngini = 0.498\nsamples = 15\nvalue = [0, 0, 8, 7]"] ;
1025 -> 1033 ;
1034 [label="X[1] <= 0.5\ngini = 0.49\nsamples = 7\nvalue = [0, 0, 4, 3]"] ;
1033 -> 1034 ;
1035 [label="X[7] <= 0.5\ngini = 0.444\nsamples = 3\nvalue = [0, 0, 2, 1]"] ;
1034 -> 1035 ;
1036 [label="gini = 0.0\nsamples = 1\nvalue = [0, 0, 1, 0]"] ;
1035 -> 1036 ;
1037 [label="gini = 0.5\nsamples = 2\nvalue = [0, 0, 1, 1]"] ;
1035 -> 1037 ;
1038 [label="X[7] <= 0.5\ngini = 0.5\nsamples = 4\nvalue = [0, 0, 2, 2]"] ;
1034 -> 1038 ;
1039 [label="gini = 0.5\nsamples = 2\nvalue = [0, 0, 1, 1]"] ;
1038 -> 1039 ;
1040 [label="gini = 0.5\nsamples = 2\nvalue = [0, 0, 1, 1]"] ;
1038 -> 1040 ;
1041 [label="X[1] <= 0.5\ngini = 0.5\nsamples = 8\nvalue = [0, 0, 4, 4]"] ;
1033 -> 1041 ;
1042 [label="X[7] <= 0.5\ngini = 0.5\nsamples = 4\nvalue = [0, 0, 2, 2]"] ;
1041 -> 1042 ;
1043 [label="gini = 0.5\nsamples = 2\nvalue = [0, 0, 1, 1]"] ;
1042 -> 1043 ;
1044 [label="gini = 0.5\nsamples = 2\nvalue = [0, 0, 1, 1]"] ;
1042 -> 1044 ;
1045 [label="X[7] <= 0.5\ngini = 0.5\nsamples = 4\nvalue = [0, 0, 2, 2]"] ;
1041 -> 1045 ;
1046 [label="gini = 0.5\nsamples = 2\nvalue = [0, 0, 1, 1]"] ;
1045 -> 1046 ;
1047 [label="gini = 0.5\nsamples = 2\nvalue = [0, 0, 1, 1]"] ;
1045 -> 1047 ;
1048 [label="X[7] <= 0.5\ngini = 0.499\nsamples = 31\nvalue = [0, 0, 16, 15]"] ;
1024 -> 1048 ;
1049 [label="X[0] <= 0.5\ngini = 0.498\nsamples = 15\nvalue = [0, 0, 8, 7]"] ;
1048 -> 1049 ;
1050 [label="X[1] <= 0.5\ngini = 0.5\nsamples = 8\nvalue = [0, 0, 4, 4]"] ;
1049 -> 1050 ;
1051 [label="X[11] <= 0.5\ngini = 0.5\nsamples = 4\nvalue = [0, 0, 2, 2]"] ;
1050 -> 1051 ;
1052 [label="gini = 0.5\nsamples = 2\nvalue = [0, 0, 1, 1]"] ;
1051 -> 1052 ;
1053 [label="gini = 0.5\nsamples = 2\nvalue = [0, 0, 1, 1]"] ;
1051 -> 1053 ;
1054 [label="X[11] <= 0.5\ngini = 0.5\nsamples = 4\nvalue = [0, 0, 2, 2]"] ;
1050 -> 1054 ;
1055 [label="gini = 0.5\nsamples = 2\nvalue = [0, 0, 1, 1]"] ;
1054 -> 1055 ;
1056 [label="gini = 0.5\nsamples = 2\nvalue = [0, 0, 1, 1]"] ;
1054 -> 1056 ;
1057 [label="X[11] <= 0.5\ngini = 0.49\nsamples = 7\nvalue = [0, 0, 4, 3]"] ;
1049 -> 1057 ;
1058 [label="X[1] <= 0.5\ngini = 0.444\nsamples = 3\nvalue = [0, 0, 2, 1]"] ;
1057 -> 1058 ;
1059 [label="gini = 0.0\nsamples = 1\nvalue = [0, 0, 1, 0]"] ;
1058 -> 1059 ;
1060 [label="gini = 0.5\nsamples = 2\nvalue = [0, 0, 1, 1]"] ;
1058 -> 1060 ;
1061 [label="X[1] <= 0.5\ngini = 0.5\nsamples = 4\nvalue = [0, 0, 2, 2]"] ;
1057 -> 1061 ;
1062 [label="gini = 0.5\nsamples = 2\nvalue = [0, 0, 1, 1]"] ;
1061 -> 1062 ;
1063 [label="gini = 0.5\nsamples = 2\nvalue = [0, 0, 1, 1]"] ;
1061 -> 1063 ;
1064 [label="X[0] <= 0.5\ngini = 0.5\nsamples = 16\nvalue = [0, 0, 8, 8]"] ;
1048 -> 1064 ;
1065 [label="X[11] <= 0.5\ngini = 0.5\nsamples = 8\nvalue = [0, 0, 4, 4]"] ;
1064 -> 1065 ;
1066 [label="X[1] <= 0.5\ngini = 0.5\nsamples = 4\nvalue = [0, 0, 2, 2]"] ;
1065 -> 1066 ;
1067 [label="gini = 0.5\nsamples = 2\nvalue = [0, 0, 1, 1]"] ;
1066 -> 1067 ;
1068 [label="gini = 0.5\nsamples = 2\nvalue = [0, 0, 1, 1]"] ;
1066 -> 1068 ;
1069 [label="X[1] <= 0.5\ngini = 0.5\nsamples = 4\nvalue = [0, 0, 2, 2]"] ;
1065 -> 1069 ;
1070 [label="gini = 0.5\nsamples = 2\nvalue = [0, 0, 1, 1]"] ;
1069 -> 1070 ;
1071 [label="gini = 0.5\nsamples = 2\nvalue = [0, 0, 1, 1]"] ;
1069 -> 1071 ;
1072 [label="X[11] <= 0.5\ngini = 0.5\nsamples = 8\nvalue = [0, 0, 4, 4]"] ;
1064 -> 1072 ;
1073 [label="X[1] <= 0.5\ngini = 0.5\nsamples = 4\nvalue = [0, 0, 2, 2]"] ;
1072 -> 1073 ;
1074 [label="gini = 0.5\nsamples = 2\nvalue = [0, 0, 1, 1]"] ;
1073 -> 1074 ;
1075 [label="gini = 0.5\nsamples = 2\nvalue = [0, 0, 1, 1]"] ;
1073 -> 1075 ;
1076 [label="X[1] <= 0.5\ngini = 0.5\nsamples = 4\nvalue = [0, 0, 2, 2]"] ;
1072 -> 1076 ;
1077 [label="gini = 0.5\nsamples = 2\nvalue = [0, 0, 1, 1]"] ;
1076 -> 1077 ;
1078 [label="gini = 0.5\nsamples = 2\nvalue = [0, 0, 1, 1]"] ;
1076 -> 1078 ;
1079 [label="X[7] <= 0.5\ngini = 0.5\nsamples = 63\nvalue = [0, 0, 32, 31]"] ;
1023 -> 1079 ;
1080 [label="X[1] <= 0.5\ngini = 0.499\nsamples = 31\nvalue = [0, 0, 16, 15]"] ;
1079 -> 1080 ;
1081 [label="X[3] <= 0.5\ngini = 0.498\nsamples = 15\nvalue = [0, 0, 8, 7]"] ;
1080 -> 1081 ;
1082 [label="X[0] <= 0.5\ngini = 0.49\nsamples = 7\nvalue = [0, 0, 4, 3]"] ;
1081 -> 1082 ;
1083 [label="X[11] <= 0.5\ngini = 0.444\nsamples = 3\nvalue = [0, 0, 2, 1]"] ;
1082 -> 1083 ;
1084 [label="gini = 0.5\nsamples = 2\nvalue = [0, 0, 1, 1]"] ;
1083 -> 1084 ;
1085 [label="gini = 0.0\nsamples = 1\nvalue = [0, 0, 1, 0]"] ;
1083 -> 1085 ;
1086 [label="X[11] <= 0.5\ngini = 0.5\nsamples = 4\nvalue = [0, 0, 2, 2]"] ;
1082 -> 1086 ;
1087 [label="gini = 0.5\nsamples = 2\nvalue = [0, 0, 1, 1]"] ;
1086 -> 1087 ;
1088 [label="gini = 0.5\nsamples = 2\nvalue = [0, 0, 1, 1]"] ;
1086 -> 1088 ;
1089 [label="X[0] <= 0.5\ngini = 0.5\nsamples = 8\nvalue = [0, 0, 4, 4]"] ;
1081 -> 1089 ;
1090 [label="X[11] <= 0.5\ngini = 0.5\nsamples = 4\nvalue = [0, 0, 2, 2]"] ;
1089 -> 1090 ;
1091 [label="gini = 0.5\nsamples = 2\nvalue = [0, 0, 1, 1]"] ;
1090 -> 1091 ;
1092 [label="gini = 0.5\nsamples = 2\nvalue = [0, 0, 1, 1]"] ;
1090 -> 1092 ;
1093 [label="X[11] <= 0.5\ngini = 0.5\nsamples = 4\nvalue = [0, 0, 2, 2]"] ;
1089 -> 1093 ;
1094 [label="gini = 0.5\nsamples = 2\nvalue = [0, 0, 1, 1]"] ;
1093 -> 1094 ;
1095 [label="gini = 0.5\nsamples = 2\nvalue = [0, 0, 1, 1]"] ;
1093 -> 1095 ;
1096 [label="X[11] <= 0.5\ngini = 0.5\nsamples = 16\nvalue = [0, 0, 8, 8]"] ;
1080 -> 1096 ;
1097 [label="X[0] <= 0.5\ngini = 0.5\nsamples = 8\nvalue = [0, 0, 4, 4]"] ;
1096 -> 1097 ;
1098 [label="X[3] <= 0.5\ngini = 0.5\nsamples = 4\nvalue = [0, 0, 2, 2]"] ;
1097 -> 1098 ;
1099 [label="gini = 0.5\nsamples = 2\nvalue = [0, 0, 1, 1]"] ;
1098 -> 1099 ;
1100 [label="gini = 0.5\nsamples = 2\nvalue = [0, 0, 1, 1]"] ;
1098 -> 1100 ;
1101 [label="X[3] <= 0.5\ngini = 0.5\nsamples = 4\nvalue = [0, 0, 2, 2]"] ;
1097 -> 1101 ;
1102 [label="gini = 0.5\nsamples = 2\nvalue = [0, 0, 1, 1]"] ;
1101 -> 1102 ;
1103 [label="gini = 0.5\nsamples = 2\nvalue = [0, 0, 1, 1]"] ;
1101 -> 1103 ;
1104 [label="X[3] <= 0.5\ngini = 0.5\nsamples = 8\nvalue = [0, 0, 4, 4]"] ;
1096 -> 1104 ;
1105 [label="X[0] <= 0.5\ngini = 0.5\nsamples = 4\nvalue = [0, 0, 2, 2]"] ;
1104 -> 1105 ;
1106 [label="gini = 0.5\nsamples = 2\nvalue = [0, 0, 1, 1]"] ;
1105 -> 1106 ;
1107 [label="gini = 0.5\nsamples = 2\nvalue = [0, 0, 1, 1]"] ;
1105 -> 1107 ;
1108 [label="X[0] <= 0.5\ngini = 0.5\nsamples = 4\nvalue = [0, 0, 2, 2]"] ;
1104 -> 1108 ;
1109 [label="gini = 0.5\nsamples = 2\nvalue = [0, 0, 1, 1]"] ;
1108 -> 1109 ;
1110 [label="gini = 0.5\nsamples = 2\nvalue = [0, 0, 1, 1]"] ;
1108 -> 1110 ;
1111 [label="X[1] <= 0.5\ngini = 0.5\nsamples = 32\nvalue = [0, 0, 16, 16]"] ;
1079 -> 1111 ;
1112 [label="X[0] <= 0.5\ngini = 0.5\nsamples = 16\nvalue = [0, 0, 8, 8]"] ;
1111 -> 1112 ;
1113 [label="X[3] <= 0.5\ngini = 0.5\nsamples = 8\nvalue = [0, 0, 4, 4]"] ;
1112 -> 1113 ;
1114 [label="X[11] <= 0.5\ngini = 0.5\nsamples = 4\nvalue = [0, 0, 2, 2]"] ;
1113 -> 1114 ;
1115 [label="gini = 0.5\nsamples = 2\nvalue = [0, 0, 1, 1]"] ;
1114 -> 1115 ;
1116 [label="gini = 0.5\nsamples = 2\nvalue = [0, 0, 1, 1]"] ;
1114 -> 1116 ;
1117 [label="X[11] <= 0.5\ngini = 0.5\nsamples = 4\nvalue = [0, 0, 2, 2]"] ;
1113 -> 1117 ;
1118 [label="gini = 0.5\nsamples = 2\nvalue = [0, 0, 1, 1]"] ;
1117 -> 1118 ;
1119 [label="gini = 0.5\nsamples = 2\nvalue = [0, 0, 1, 1]"] ;
1117 -> 1119 ;
1120 [label="X[11] <= 0.5\ngini = 0.5\nsamples = 8\nvalue = [0, 0, 4, 4]"] ;
1112 -> 1120 ;
1121 [label="X[3] <= 0.5\ngini = 0.5\nsamples = 4\nvalue = [0, 0, 2, 2]"] ;
1120 -> 1121 ;
1122 [label="gini = 0.5\nsamples = 2\nvalue = [0, 0, 1, 1]"] ;
1121 -> 1122 ;
1123 [label="gini = 0.5\nsamples = 2\nvalue = [0, 0, 1, 1]"] ;
1121 -> 1123 ;
1124 [label="X[3] <= 0.5\ngini = 0.5\nsamples = 4\nvalue = [0, 0, 2, 2]"] ;
1120 -> 1124 ;
1125 [label="gini = 0.5\nsamples = 2\nvalue = [0, 0, 1, 1]"] ;
1124 -> 1125 ;
1126 [label="gini = 0.5\nsamples = 2\nvalue = [0, 0, 1, 1]"] ;
1124 -> 1126 ;
1127 [label="X[3] <= 0.5\ngini = 0.5\nsamples = 16\nvalue = [0, 0, 8, 8]"] ;
1111 -> 1127 ;
1128 [label="X[11] <= 0.5\ngini = 0.5\nsamples = 8\nvalue = [0, 0, 4, 4]"] ;
1127 -> 1128 ;
1129 [label="X[0] <= 0.5\ngini = 0.5\nsamples = 4\nvalue = [0, 0, 2, 2]"] ;
1128 -> 1129 ;
1130 [label="gini = 0.5\nsamples = 2\nvalue = [0, 0, 1, 1]"] ;
1129 -> 1130 ;
1131 [label="gini = 0.5\nsamples = 2\nvalue = [0, 0, 1, 1]"] ;
1129 -> 1131 ;
1132 [label="X[0] <= 0.5\ngini = 0.5\nsamples = 4\nvalue = [0, 0, 2, 2]"] ;
1128 -> 1132 ;
1133 [label="gini = 0.5\nsamples = 2\nvalue = [0, 0, 1, 1]"] ;
1132 -> 1133 ;
1134 [label="gini = 0.5\nsamples = 2\nvalue = [0, 0, 1, 1]"] ;
1132 -> 1134 ;
1135 [label="X[11] <= 0.5\ngini = 0.5\nsamples = 8\nvalue = [0, 0, 4, 4]"] ;
1127 -> 1135 ;
1136 [label="X[0] <= 0.5\ngini = 0.5\nsamples = 4\nvalue = [0, 0, 2, 2]"] ;
1135 -> 1136 ;
1137 [label="gini = 0.5\nsamples = 2\nvalue = [0, 0, 1, 1]"] ;
1136 -> 1137 ;
1138 [label="gini = 0.5\nsamples = 2\nvalue = [0, 0, 1, 1]"] ;
1136 -> 1138 ;
1139 [label="X[0] <= 0.5\ngini = 0.5\nsamples = 4\nvalue = [0, 0, 2, 2]"] ;
1135 -> 1139 ;
1140 [label="gini = 0.5\nsamples = 2\nvalue = [0, 0, 1, 1]"] ;
1139 -> 1140 ;
1141 [label="gini = 0.5\nsamples = 2\nvalue = [0, 0, 1, 1]"] ;
1139 -> 1141 ;
1142 [label="X[11] <= 0.5\ngini = 0.5\nsamples = 127\nvalue = [0, 0, 64, 63]"] ;
1022 -> 1142 ;
1143 [label="X[0] <= 0.5\ngini = 0.5\nsamples = 63\nvalue = [0, 0, 32, 31]"] ;
1142 -> 1143 ;
1144 [label="X[10] <= 0.5\ngini = 0.499\nsamples = 31\nvalue = [0, 0, 16, 15]"] ;
1143 -> 1144 ;
1145 [label="X[1] <= 0.5\ngini = 0.5\nsamples = 16\nvalue = [0, 0, 8, 8]"] ;
1144 -> 1145 ;
1146 [label="X[7] <= 0.5\ngini = 0.5\nsamples = 8\nvalue = [0, 0, 4, 4]"] ;
1145 -> 1146 ;
1147 [label="X[3] <= 0.5\ngini = 0.5\nsamples = 4\nvalue = [0, 0, 2, 2]"] ;
1146 -> 1147 ;
1148 [label="gini = 0.5\nsamples = 2\nvalue = [0, 0, 1, 1]"] ;
1147 -> 1148 ;
1149 [label="gini = 0.5\nsamples = 2\nvalue = [0, 0, 1, 1]"] ;
1147 -> 1149 ;
1150 [label="X[3] <= 0.5\ngini = 0.5\nsamples = 4\nvalue = [0, 0, 2, 2]"] ;
1146 -> 1150 ;
1151 [label="gini = 0.5\nsamples = 2\nvalue = [0, 0, 1, 1]"] ;
1150 -> 1151 ;
1152 [label="gini = 0.5\nsamples = 2\nvalue = [0, 0, 1, 1]"] ;
1150 -> 1152 ;
1153 [label="X[3] <= 0.5\ngini = 0.5\nsamples = 8\nvalue = [0, 0, 4, 4]"] ;
1145 -> 1153 ;
1154 [label="X[7] <= 0.5\ngini = 0.5\nsamples = 4\nvalue = [0, 0, 2, 2]"] ;
1153 -> 1154 ;
1155 [label="gini = 0.5\nsamples = 2\nvalue = [0, 0, 1, 1]"] ;
1154 -> 1155 ;
1156 [label="gini = 0.5\nsamples = 2\nvalue = [0, 0, 1, 1]"] ;
1154 -> 1156 ;
1157 [label="X[7] <= 0.5\ngini = 0.5\nsamples = 4\nvalue = [0, 0, 2, 2]"] ;
1153 -> 1157 ;
1158 [label="gini = 0.5\nsamples = 2\nvalue = [0, 0, 1, 1]"] ;
1157 -> 1158 ;
1159 [label="gini = 0.5\nsamples = 2\nvalue = [0, 0, 1, 1]"] ;
1157 -> 1159 ;
1160 [label="X[3] <= 0.5\ngini = 0.498\nsamples = 15\nvalue = [0, 0, 8, 7]"] ;
1144 -> 1160 ;
1161 [label="X[1] <= 0.5\ngini = 0.49\nsamples = 7\nvalue = [0, 0, 4, 3]"] ;
1160 -> 1161 ;
1162 [label="X[7] <= 0.5\ngini = 0.444\nsamples = 3\nvalue = [0, 0, 2, 1]"] ;
1161 -> 1162 ;
1163 [label="gini = 0.0\nsamples = 1\nvalue = [0, 0, 1, 0]"] ;
1162 -> 1163 ;
1164 [label="gini = 0.5\nsamples = 2\nvalue = [0, 0, 1, 1]"] ;
1162 -> 1164 ;
1165 [label="X[7] <= 0.5\ngini = 0.5\nsamples = 4\nvalue = [0, 0, 2, 2]"] ;
1161 -> 1165 ;
1166 [label="gini = 0.5\nsamples = 2\nvalue = [0, 0, 1, 1]"] ;
1165 -> 1166 ;
1167 [label="gini = 0.5\nsamples = 2\nvalue = [0, 0, 1, 1]"] ;
1165 -> 1167 ;
1168 [label="X[7] <= 0.5\ngini = 0.5\nsamples = 8\nvalue = [0, 0, 4, 4]"] ;
1160 -> 1168 ;
1169 [label="X[1] <= 0.5\ngini = 0.5\nsamples = 4\nvalue = [0, 0, 2, 2]"] ;
1168 -> 1169 ;
1170 [label="gini = 0.5\nsamples = 2\nvalue = [0, 0, 1, 1]"] ;
1169 -> 1170 ;
1171 [label="gini = 0.5\nsamples = 2\nvalue = [0, 0, 1, 1]"] ;
1169 -> 1171 ;
1172 [label="X[1] <= 0.5\ngini = 0.5\nsamples = 4\nvalue = [0, 0, 2, 2]"] ;
1168 -> 1172 ;
1173 [label="gini = 0.5\nsamples = 2\nvalue = [0, 0, 1, 1]"] ;
1172 -> 1173 ;
1174 [label="gini = 0.5\nsamples = 2\nvalue = [0, 0, 1, 1]"] ;
1172 -> 1174 ;
1175 [label="X[3] <= 0.5\ngini = 0.5\nsamples = 32\nvalue = [0, 0, 16, 16]"] ;
1143 -> 1175 ;
1176 [label="X[1] <= 0.5\ngini = 0.5\nsamples = 16\nvalue = [0, 0, 8, 8]"] ;
1175 -> 1176 ;
1177 [label="X[7] <= 0.5\ngini = 0.5\nsamples = 8\nvalue = [0, 0, 4, 4]"] ;
1176 -> 1177 ;
1178 [label="X[10] <= 0.5\ngini = 0.5\nsamples = 4\nvalue = [0, 0, 2, 2]"] ;
1177 -> 1178 ;
1179 [label="gini = 0.5\nsamples = 2\nvalue = [0, 0, 1, 1]"] ;
1178 -> 1179 ;
1180 [label="gini = 0.5\nsamples = 2\nvalue = [0, 0, 1, 1]"] ;
1178 -> 1180 ;
1181 [label="X[10] <= 0.5\ngini = 0.5\nsamples = 4\nvalue = [0, 0, 2, 2]"] ;
1177 -> 1181 ;
1182 [label="gini = 0.5\nsamples = 2\nvalue = [0, 0, 1, 1]"] ;
1181 -> 1182 ;
1183 [label="gini = 0.5\nsamples = 2\nvalue = [0, 0, 1, 1]"] ;
1181 -> 1183 ;
1184 [label="X[10] <= 0.5\ngini = 0.5\nsamples = 8\nvalue = [0, 0, 4, 4]"] ;
1176 -> 1184 ;
1185 [label="X[7] <= 0.5\ngini = 0.5\nsamples = 4\nvalue = [0, 0, 2, 2]"] ;
1184 -> 1185 ;
1186 [label="gini = 0.5\nsamples = 2\nvalue = [0, 0, 1, 1]"] ;
1185 -> 1186 ;
1187 [label="gini = 0.5\nsamples = 2\nvalue = [0, 0, 1, 1]"] ;
1185 -> 1187 ;
1188 [label="X[7] <= 0.5\ngini = 0.5\nsamples = 4\nvalue = [0, 0, 2, 2]"] ;
1184 -> 1188 ;
1189 [label="gini = 0.5\nsamples = 2\nvalue = [0, 0, 1, 1]"] ;
1188 -> 1189 ;
1190 [label="gini = 0.5\nsamples = 2\nvalue = [0, 0, 1, 1]"] ;
1188 -> 1190 ;
1191 [label="X[1] <= 0.5\ngini = 0.5\nsamples = 16\nvalue = [0, 0, 8, 8]"] ;
1175 -> 1191 ;
1192 [label="X[7] <= 0.5\ngini = 0.5\nsamples = 8\nvalue = [0, 0, 4, 4]"] ;
1191 -> 1192 ;
1193 [label="X[10] <= 0.5\ngini = 0.5\nsamples = 4\nvalue = [0, 0, 2, 2]"] ;
1192 -> 1193 ;
1194 [label="gini = 0.5\nsamples = 2\nvalue = [0, 0, 1, 1]"] ;
1193 -> 1194 ;
1195 [label="gini = 0.5\nsamples = 2\nvalue = [0, 0, 1, 1]"] ;
1193 -> 1195 ;
1196 [label="X[10] <= 0.5\ngini = 0.5\nsamples = 4\nvalue = [0, 0, 2, 2]"] ;
1192 -> 1196 ;
1197 [label="gini = 0.5\nsamples = 2\nvalue = [0, 0, 1, 1]"] ;
1196 -> 1197 ;
1198 [label="gini = 0.5\nsamples = 2\nvalue = [0, 0, 1, 1]"] ;
1196 -> 1198 ;
1199 [label="X[10] <= 0.5\ngini = 0.5\nsamples = 8\nvalue = [0, 0, 4, 4]"] ;
1191 -> 1199 ;
1200 [label="X[7] <= 0.5\ngini = 0.5\nsamples = 4\nvalue = [0, 0, 2, 2]"] ;
1199 -> 1200 ;
1201 [label="gini = 0.5\nsamples = 2\nvalue = [0, 0, 1, 1]"] ;
1200 -> 1201 ;
1202 [label="gini = 0.5\nsamples = 2\nvalue = [0, 0, 1, 1]"] ;
1200 -> 1202 ;
1203 [label="X[7] <= 0.5\ngini = 0.5\nsamples = 4\nvalue = [0, 0, 2, 2]"] ;
1199 -> 1203 ;
1204 [label="gini = 0.5\nsamples = 2\nvalue = [0, 0, 1, 1]"] ;
1203 -> 1204 ;
1205 [label="gini = 0.5\nsamples = 2\nvalue = [0, 0, 1, 1]"] ;
1203 -> 1205 ;
1206 [label="X[3] <= 0.5\ngini = 0.5\nsamples = 64\nvalue = [0, 0, 32, 32]"] ;
1142 -> 1206 ;
