digraph Tree {
node [shape=box] ;
0 [label="X[11573] <= 0.5\ngini = 1.0\nsamples = 6247\nvalue = [1, 1, 1 ... 1, 1, 1]"] ;
1 [label="X[3695] <= 0.5\ngini = 1.0\nsamples = 6244\nvalue = [1, 1, 1 ... 1, 1, 1]"] ;
0 -> 1 [labeldistance=2.5, labelangle=45, headlabel="True"] ;
2 [label="X[5787] <= 0.5\ngini = 1.0\nsamples = 6241\nvalue = [1, 1, 1 ... 1, 1, 1]"] ;
1 -> 2 ;
3 [label="X[17842] <= 0.5\ngini = 1.0\nsamples = 6236\nvalue = [1, 1, 1 ... 1, 1, 1]"] ;
2 -> 3 ;
4 [label="X[13833] <= 0.5\ngini = 1.0\nsamples = 6235\nvalue = [1, 1, 1 ... 1, 1, 1]"] ;
3 -> 4 ;
5 [label="X[16995] <= 0.5\ngini = 1.0\nsamples = 6234\nvalue = [1, 1, 1 ... 1, 1, 1]"] ;
4 -> 5 ;
6 [label="X[14775] <= 0.5\ngini = 1.0\nsamples = 6233\nvalue = [1, 1, 1 ... 1, 1, 1]"] ;
5 -> 6 ;
7 [label="X[11811] <= 0.5\ngini = 1.0\nsamples = 6232\nvalue = [1, 1, 1 ... 1, 1, 1]"] ;
6 -> 7 ;
8 [label="X[10915] <= 0.5\ngini = 1.0\nsamples = 6231\nvalue = [1, 1, 1 ... 1, 1, 1]"] ;
7 -> 8 ;
9 [label="X[13587] <= 0.5\ngini = 1.0\nsamples = 6229\nvalue = [1, 1, 1 ... 1, 1, 1]"] ;
8 -> 9 ;
10 [label="X[5536] <= 0.5\ngini = 1.0\nsamples = 6228\nvalue = [1, 1, 1 ... 1, 1, 1]"] ;
9 -> 10 ;
11 [label="X[4200] <= 0.5\ngini = 1.0\nsamples = 6227\nvalue = [1, 1, 1 ... 1, 1, 1]"] ;
10 -> 11 ;
12 [label="X[5898] <= 0.5\ngini = 1.0\nsamples = 6226\nvalue = [1, 1, 1 ... 1, 1, 1]"] ;
11 -> 12 ;
13 [label="X[5008] <= 0.5\ngini = 1.0\nsamples = 6224\nvalue = [1, 1, 1 ... 1, 1, 1]"] ;
12 -> 13 ;
14 [label="X[16978] <= 0.5\ngini = 1.0\nsamples = 6222\nvalue = [1, 1, 1 ... 1, 1, 1]"] ;
13 -> 14 ;
15 [label="X[4039] <= 0.5\ngini = 1.0\nsamples = 6221\nvalue = [1, 1, 1 ... 1, 1, 1]"] ;
14 -> 15 ;
16 [label="X[14015] <= 0.5\ngini = 1.0\nsamples = 6217\nvalue = [1, 1, 1 ... 1, 1, 1]"] ;
15 -> 16 ;
17 [label="X[11067] <= 0.5\ngini = 1.0\nsamples = 6216\nvalue = [1, 1, 1 ... 1, 1, 1]"] ;
16 -> 17 ;
18 [label="X[7127] <= 0.5\ngini = 1.0\nsamples = 6215\nvalue = [1, 1, 1 ... 1, 1, 1]"] ;
17 -> 18 ;
19 [label="X[3735] <= 0.5\ngini = 1.0\nsamples = 6214\nvalue = [1, 1, 1 ... 1, 1, 1]"] ;
18 -> 19 ;
20 [label="X[11164] <= 0.5\ngini = 1.0\nsamples = 6213\nvalue = [1, 1, 1 ... 1, 1, 1]"] ;
19 -> 20 ;
21 [label="X[7564] <= 0.5\ngini = 1.0\nsamples = 6212\nvalue = [1, 1, 1 ... 1, 1, 1]"] ;
20 -> 21 ;
22 [label="X[6313] <= 0.5\ngini = 1.0\nsamples = 6211\nvalue = [1, 1, 1 ... 1, 1, 1]"] ;
21 -> 22 ;
23 [label="X[7318] <= 0.5\ngini = 1.0\nsamples = 6210\nvalue = [1, 1, 1 ... 1, 1, 1]"] ;
22 -> 23 ;
24 [label="X[15929] <= 0.5\ngini = 1.0\nsamples = 6208\nvalue = [1, 1, 1 ... 1, 1, 1]"] ;
23 -> 24 ;
25 [label="X[5907] <= 0.5\ngini = 1.0\nsamples = 6207\nvalue = [1, 1, 1 ... 1, 1, 1]"] ;
24 -> 25 ;
26 [label="X[15240] <= 0.5\ngini = 1.0\nsamples = 6206\nvalue = [1, 1, 1 ... 1, 1, 1]"] ;
25 -> 26 ;
27 [label="X[11464] <= 0.5\ngini = 1.0\nsamples = 6205\nvalue = [1, 1, 1 ... 1, 1, 1]"] ;
26 -> 27 ;
28 [label="X[4867] <= 0.5\ngini = 1.0\nsamples = 6198\nvalue = [1, 1, 1 ... 1, 1, 1]"] ;
27 -> 28 ;
29 [label="X[16476] <= 0.5\ngini = 1.0\nsamples = 6197\nvalue = [1, 1, 1 ... 1, 1, 1]"] ;
28 -> 29 ;
30 [label="X[7312] <= 0.5\ngini = 1.0\nsamples = 6195\nvalue = [1, 1, 1 ... 1, 1, 1]"] ;
29 -> 30 ;
31 [label="X[3884] <= 0.5\ngini = 1.0\nsamples = 6193\nvalue = [1, 1, 1 ... 1, 1, 1]"] ;
30 -> 31 ;
32 [label="X[14245] <= 0.5\ngini = 1.0\nsamples = 6191\nvalue = [1, 1, 1 ... 1, 1, 1]"] ;
31 -> 32 ;
33 [label="X[9242] <= 0.5\ngini = 1.0\nsamples = 6190\nvalue = [1, 1, 1 ... 1, 1, 1]"] ;
32 -> 33 ;
34 [label="X[18040] <= 0.5\ngini = 1.0\nsamples = 6189\nvalue = [1, 1, 1 ... 1, 1, 1]"] ;
33 -> 34 ;
35 [label="X[13757] <= 0.5\ngini = 1.0\nsamples = 6188\nvalue = [1, 1, 1 ... 1, 1, 1]"] ;
34 -> 35 ;
36 [label="X[8211] <= 0.5\ngini = 1.0\nsamples = 6187\nvalue = [1, 1, 1 ... 1, 1, 1]"] ;
35 -> 36 ;
37 [label="X[5546] <= 0.5\ngini = 1.0\nsamples = 6185\nvalue = [1, 1, 1 ... 1, 1, 1]"] ;
36 -> 37 ;
38 [label="X[16459] <= 0.5\ngini = 1.0\nsamples = 6182\nvalue = [1, 1, 1 ... 1, 1, 1]"] ;
37 -> 38 ;
39 [label="X[2948] <= 0.5\ngini = 1.0\nsamples = 6181\nvalue = [1, 1, 1 ... 1, 1, 1]"] ;
38 -> 39 ;
40 [label="X[6684] <= 0.5\ngini = 1.0\nsamples = 6180\nvalue = [1, 1, 1 ... 1, 1, 1]"] ;
39 -> 40 ;
41 [label="X[5629] <= 0.5\ngini = 1.0\nsamples = 6179\nvalue = [1, 1, 1 ... 1, 1, 1]"] ;
40 -> 41 ;
42 [label="X[535] <= 0.5\ngini = 1.0\nsamples = 6177\nvalue = [1, 1, 1 ... 1, 1, 1]"] ;
41 -> 42 ;
43 [label="X[6488] <= 0.5\ngini = 1.0\nsamples = 6176\nvalue = [1, 1, 1 ... 1, 1, 1]"] ;
42 -> 43 ;
44 [label="X[6043] <= 0.5\ngini = 1.0\nsamples = 6173\nvalue = [1, 1, 1 ... 1, 1, 1]"] ;
43 -> 44 ;
45 [label="X[7325] <= 0.5\ngini = 1.0\nsamples = 6170\nvalue = [1, 1, 1 ... 1, 1, 1]"] ;
44 -> 45 ;
46 [label="X[12081] <= 0.5\ngini = 1.0\nsamples = 6159\nvalue = [1, 1, 1 ... 1, 1, 1]"] ;
45 -> 46 ;
47 [label="X[16802] <= 0.5\ngini = 1.0\nsamples = 6157\nvalue = [1, 1, 1 ... 1, 1, 1]"] ;
46 -> 47 ;
48 [label="X[7756] <= 0.5\ngini = 1.0\nsamples = 6156\nvalue = [1, 1, 1 ... 1, 1, 1]"] ;
47 -> 48 ;
49 [label="X[1197] <= 0.5\ngini = 1.0\nsamples = 6153\nvalue = [1, 1, 1 ... 1, 1, 1]"] ;
48 -> 49 ;
50 [label="X[13415] <= 0.5\ngini = 1.0\nsamples = 6152\nvalue = [1, 1, 1 ... 1, 1, 1]"] ;
49 -> 50 ;
51 [label="X[2753] <= 0.5\ngini = 1.0\nsamples = 6150\nvalue = [1, 1, 1 ... 1, 1, 1]"] ;
50 -> 51 ;
52 [label="X[9878] <= 0.5\ngini = 1.0\nsamples = 6148\nvalue = [1, 1, 1 ... 1, 1, 1]"] ;
51 -> 52 ;
53 [label="X[1736] <= 0.5\ngini = 1.0\nsamples = 6147\nvalue = [1, 1, 1 ... 1, 1, 1]"] ;
52 -> 53 ;
54 [label="X[14825] <= 0.5\ngini = 1.0\nsamples = 6146\nvalue = [1, 1, 1 ... 1, 1, 1]"] ;
53 -> 54 ;
55 [label="X[14140] <= 0.5\ngini = 1.0\nsamples = 6145\nvalue = [1, 1, 1 ... 1, 1, 1]"] ;
54 -> 55 ;
56 [label="X[1001] <= 0.5\ngini = 1.0\nsamples = 6144\nvalue = [1, 1, 1 ... 1, 1, 1]"] ;
55 -> 56 ;
57 [label="X[1616] <= 0.5\ngini = 1.0\nsamples = 6138\nvalue = [1, 1, 1 ... 1, 1, 1]"] ;
56 -> 57 ;
58 [label="X[14558] <= 0.5\ngini = 1.0\nsamples = 6126\nvalue = [1, 1, 1 ... 1, 1, 1]"] ;
57 -> 58 ;
59 [label="X[17069] <= 0.5\ngini = 1.0\nsamples = 6125\nvalue = [1, 1, 1 ... 1, 1, 1]"] ;
58 -> 59 ;
60 [label="X[15732] <= 0.5\ngini = 1.0\nsamples = 6123\nvalue = [1, 1, 1 ... 1, 1, 1]"] ;
59 -> 60 ;
61 [label="X[4760] <= 0.5\ngini = 1.0\nsamples = 6122\nvalue = [1, 1, 1 ... 1, 1, 1]"] ;
60 -> 61 ;
62 [label="X[781] <= 0.5\ngini = 1.0\nsamples = 6121\nvalue = [1, 1, 1 ... 1, 1, 1]"] ;
61 -> 62 ;
63 [label="X[16750] <= 0.5\ngini = 1.0\nsamples = 6118\nvalue = [1, 1, 1 ... 1, 1, 1]"] ;
62 -> 63 ;
64 [label="X[15028] <= 0.5\ngini = 1.0\nsamples = 6117\nvalue = [1, 1, 1 ... 1, 1, 1]"] ;
63 -> 64 ;
65 [label="X[8327] <= 0.5\ngini = 1.0\nsamples = 6116\nvalue = [1, 1, 1 ... 1, 1, 1]"] ;
64 -> 65 ;
66 [label="X[7683] <= 0.5\ngini = 1.0\nsamples = 6115\nvalue = [1, 1, 1 ... 1, 1, 1]"] ;
65 -> 66 ;
67 [label="X[9476] <= 0.5\ngini = 1.0\nsamples = 6109\nvalue = [1, 1, 1 ... 1, 1, 1]"] ;
66 -> 67 ;
68 [label="X[10063] <= 0.5\ngini = 1.0\nsamples = 6108\nvalue = [1, 1, 1 ... 1, 1, 1]"] ;
67 -> 68 ;
69 [label="X[16864] <= 0.5\ngini = 1.0\nsamples = 6107\nvalue = [1, 1, 1 ... 1, 1, 1]"] ;
68 -> 69 ;
70 [label="X[9217] <= 0.5\ngini = 1.0\nsamples = 6106\nvalue = [1, 1, 1 ... 1, 1, 1]"] ;
69 -> 70 ;
71 [label="X[14368] <= 0.5\ngini = 1.0\nsamples = 6105\nvalue = [1, 1, 1 ... 1, 1, 1]"] ;
70 -> 71 ;
72 [label="X[11510] <= 0.5\ngini = 1.0\nsamples = 6104\nvalue = [1, 1, 1 ... 1, 1, 1]"] ;
71 -> 72 ;
73 [label="X[13258] <= 0.5\ngini = 1.0\nsamples = 6103\nvalue = [1, 1, 1 ... 1, 1, 1]"] ;
72 -> 73 ;
74 [label="X[1921] <= 0.5\ngini = 1.0\nsamples = 6102\nvalue = [1, 1, 1 ... 1, 1, 1]"] ;
73 -> 74 ;
75 [label="X[381] <= 0.5\ngini = 1.0\nsamples = 6100\nvalue = [1, 1, 1 ... 1, 1, 1]"] ;
74 -> 75 ;
76 [label="X[17978] <= 0.5\ngini = 1.0\nsamples = 6099\nvalue = [1, 1, 1 ... 1, 1, 1]"] ;
75 -> 76 ;
77 [label="X[351] <= 0.5\ngini = 1.0\nsamples = 6098\nvalue = [1, 1, 1 ... 1, 1, 1]"] ;
76 -> 77 ;
78 [label="X[6135] <= 0.5\ngini = 1.0\nsamples = 6097\nvalue = [1, 1, 1 ... 1, 1, 1]"] ;
77 -> 78 ;
79 [label="X[14388] <= 0.5\ngini = 1.0\nsamples = 6094\nvalue = [1, 1, 1 ... 1, 1, 1]"] ;
78 -> 79 ;
80 [label="X[11233] <= 0.5\ngini = 1.0\nsamples = 6093\nvalue = [1, 1, 1 ... 1, 1, 1]"] ;
79 -> 80 ;
81 [label="X[16189] <= 0.5\ngini = 1.0\nsamples = 6092\nvalue = [1, 1, 1 ... 1, 1, 1]"] ;
80 -> 81 ;
82 [label="X[8055] <= 0.5\ngini = 1.0\nsamples = 6091\nvalue = [1, 1, 1 ... 1, 1, 1]"] ;
81 -> 82 ;
83 [label="X[1043] <= 0.5\ngini = 1.0\nsamples = 6090\nvalue = [1, 1, 1 ... 1, 1, 1]"] ;
82 -> 83 ;
84 [label="X[1018] <= 0.5\ngini = 1.0\nsamples = 6089\nvalue = [1, 1, 1 ... 1, 1, 1]"] ;
83 -> 84 ;
85 [label="X[11848] <= 0.5\ngini = 1.0\nsamples = 6088\nvalue = [1, 1, 1 ... 1, 1, 1]"] ;
84 -> 85 ;
86 [label="X[13532] <= 0.5\ngini = 1.0\nsamples = 6087\nvalue = [1, 1, 1 ... 1, 1, 1]"] ;
85 -> 86 ;
87 [label="X[3318] <= 0.5\ngini = 1.0\nsamples = 6086\nvalue = [1, 1, 1 ... 1, 1, 1]"] ;
86 -> 87 ;
88 [label="X[10542] <= 0.5\ngini = 1.0\nsamples = 6084\nvalue = [1, 1, 1 ... 1, 1, 1]"] ;
87 -> 88 ;
89 [label="X[8616] <= 0.5\ngini = 1.0\nsamples = 6083\nvalue = [1, 1, 1 ... 1, 1, 1]"] ;
88 -> 89 ;
90 [label="X[10517] <= 0.5\ngini = 1.0\nsamples = 6082\nvalue = [1, 1, 1 ... 1, 1, 1]"] ;
89 -> 90 ;
91 [label="X[17004] <= 0.5\ngini = 1.0\nsamples = 6081\nvalue = [1, 1, 1 ... 1, 1, 1]"] ;
90 -> 91 ;
92 [label="X[14181] <= 0.5\ngini = 1.0\nsamples = 6080\nvalue = [1, 1, 1 ... 1, 1, 1]"] ;
91 -> 92 ;
93 [label="X[13112] <= 0.5\ngini = 1.0\nsamples = 6079\nvalue = [1, 1, 1 ... 1, 1, 1]"] ;
92 -> 93 ;
94 [label="X[16550] <= 0.5\ngini = 1.0\nsamples = 6078\nvalue = [1, 1, 1 ... 1, 1, 1]"] ;
93 -> 94 ;
95 [label="X[7494] <= 0.5\ngini = 1.0\nsamples = 6077\nvalue = [1, 1, 1 ... 1, 1, 1]"] ;
94 -> 95 ;
96 [label="X[6291] <= 0.5\ngini = 1.0\nsamples = 6076\nvalue = [1, 1, 1 ... 1, 1, 1]"] ;
95 -> 96 ;
97 [label="X[8284] <= 0.5\ngini = 1.0\nsamples = 6073\nvalue = [1, 1, 1 ... 1, 1, 1]"] ;
96 -> 97 ;
98 [label="X[17118] <= 0.5\ngini = 1.0\nsamples = 6069\nvalue = [1, 1, 1 ... 1, 1, 1]"] ;
97 -> 98 ;
99 [label="X[17875] <= 0.5\ngini = 1.0\nsamples = 6068\nvalue = [1, 1, 1 ... 1, 1, 1]"] ;
98 -> 99 ;
100 [label="X[597] <= 0.5\ngini = 1.0\nsamples = 6067\nvalue = [1, 1, 1 ... 1, 1, 1]"] ;
99 -> 100 ;
101 [label="X[8735] <= 0.5\ngini = 1.0\nsamples = 6066\nvalue = [1, 1, 1 ... 1, 1, 1]"] ;
100 -> 101 ;
102 [label="X[7230] <= 0.5\ngini = 1.0\nsamples = 6063\nvalue = [1, 1, 1 ... 1, 1, 1]"] ;
101 -> 102 ;
103 [label="X[14395] <= 0.5\ngini = 1.0\nsamples = 6062\nvalue = [1, 1, 1 ... 1, 1, 1]"] ;
102 -> 103 ;
104 [label="X[5333] <= 0.5\ngini = 1.0\nsamples = 6061\nvalue = [1, 1, 1 ... 1, 1, 1]"] ;
103 -> 104 ;
105 [label="X[1551] <= 0.5\ngini = 1.0\nsamples = 6060\nvalue = [1, 1, 1 ... 1, 1, 1]"] ;
104 -> 105 ;
106 [label="X[7401] <= 0.5\ngini = 1.0\nsamples = 6053\nvalue = [1, 1, 1 ... 1, 1, 1]"] ;
105 -> 106 ;
107 [label="X[1287] <= 0.5\ngini = 1.0\nsamples = 6047\nvalue = [1, 1, 1 ... 1, 1, 1]"] ;
106 -> 107 ;
108 [label="X[6851] <= 0.5\ngini = 1.0\nsamples = 6046\nvalue = [1, 1, 1 ... 1, 1, 1]"] ;
107 -> 108 ;
109 [label="X[15979] <= 0.5\ngini = 1.0\nsamples = 6045\nvalue = [1, 1, 1 ... 1, 1, 1]"] ;
108 -> 109 ;
110 [label="X[2779] <= 0.5\ngini = 1.0\nsamples = 6044\nvalue = [1, 1, 1 ... 1, 1, 1]"] ;
109 -> 110 ;
111 [label="X[1656] <= 0.5\ngini = 1.0\nsamples = 6043\nvalue = [1, 1, 1 ... 1, 1, 1]"] ;
110 -> 111 ;
112 [label="X[2046] <= 0.5\ngini = 1.0\nsamples = 6040\nvalue = [1, 1, 1 ... 1, 1, 1]"] ;
111 -> 112 ;
113 [label="X[8752] <= 0.5\ngini = 1.0\nsamples = 6039\nvalue = [1, 1, 1 ... 1, 1, 1]"] ;
112 -> 113 ;
114 [label="X[8798] <= 0.5\ngini = 1.0\nsamples = 6032\nvalue = [1, 1, 1 ... 1, 1, 1]"] ;
113 -> 114 ;
115 [label="X[12477] <= 0.5\ngini = 1.0\nsamples = 6031\nvalue = [1, 1, 1 ... 1, 1, 1]"] ;
114 -> 115 ;
116 [label="X[8856] <= 0.5\ngini = 1.0\nsamples = 6030\nvalue = [1, 1, 1 ... 1, 1, 1]"] ;
115 -> 116 ;
117 [label="X[12517] <= 0.5\ngini = 1.0\nsamples = 6029\nvalue = [1, 1, 1 ... 1, 1, 1]"] ;
116 -> 117 ;
118 [label="X[1146] <= 0.5\ngini = 1.0\nsamples = 6027\nvalue = [1, 1, 1 ... 1, 1, 1]"] ;
117 -> 118 ;
119 [label="X[4982] <= 0.5\ngini = 1.0\nsamples = 6025\nvalue = [1, 1, 1 ... 1, 1, 1]"] ;
118 -> 119 ;
120 [label="X[12685] <= 0.5\ngini = 1.0\nsamples = 5993\nvalue = [1, 1, 1 ... 1, 1, 1]"] ;
119 -> 120 ;
121 [label="X[16397] <= 0.5\ngini = 1.0\nsamples = 5992\nvalue = [1, 1, 1 ... 1, 1, 1]"] ;
120 -> 121 ;
122 [label="X[10583] <= 0.5\ngini = 1.0\nsamples = 5991\nvalue = [1, 1, 1 ... 1, 1, 1]"] ;
121 -> 122 ;
123 [label="X[1250] <= 0.5\ngini = 1.0\nsamples = 5990\nvalue = [1, 1, 1 ... 1, 1, 1]"] ;
122 -> 123 ;
124 [label="X[12414] <= 0.5\ngini = 1.0\nsamples = 5989\nvalue = [1, 1, 1 ... 1, 1, 1]"] ;
123 -> 124 ;
125 [label="X[3658] <= 0.5\ngini = 1.0\nsamples = 5988\nvalue = [1, 1, 1 ... 1, 1, 1]"] ;
124 -> 125 ;
126 [label="X[12154] <= 0.5\ngini = 1.0\nsamples = 5987\nvalue = [1, 1, 1 ... 1, 1, 1]"] ;
125 -> 126 ;
127 [label="X[12213] <= 0.5\ngini = 1.0\nsamples = 5986\nvalue = [1, 1, 1 ... 1, 1, 1]"] ;
126 -> 127 ;
128 [label="X[6229] <= 0.5\ngini = 1.0\nsamples = 5985\nvalue = [1, 1, 1 ... 1, 1, 1]"] ;
127 -> 128 ;
129 [label="X[14828] <= 0.5\ngini = 1.0\nsamples = 5984\nvalue = [1, 1, 1 ... 1, 1, 1]"] ;
128 -> 129 ;
130 [label="X[11294] <= 0.5\ngini = 1.0\nsamples = 5983\nvalue = [1, 1, 1 ... 1, 1, 1]"] ;
129 -> 130 ;
131 [label="X[5514] <= 0.5\ngini = 1.0\nsamples = 5982\nvalue = [1, 1, 1 ... 1, 1, 1]"] ;
130 -> 131 ;
132 [label="X[561] <= 0.5\ngini = 1.0\nsamples = 5980\nvalue = [1, 1, 1 ... 1, 1, 1]"] ;
131 -> 132 ;
133 [label="X[6352] <= 0.5\ngini = 1.0\nsamples = 5939\nvalue = [1, 1, 1 ... 1, 1, 1]"] ;
132 -> 133 ;
134 [label="X[4849] <= 0.5\ngini = 1.0\nsamples = 5938\nvalue = [1, 1, 1 ... 1, 1, 1]"] ;
133 -> 134 ;
135 [label="X[14867] <= 0.5\ngini = 1.0\nsamples = 5937\nvalue = [1, 1, 1 ... 1, 1, 1]"] ;
134 -> 135 ;
136 [label="X[904] <= 0.5\ngini = 1.0\nsamples = 5934\nvalue = [1, 1, 1 ... 1, 1, 1]"] ;
135 -> 136 ;
137 [label="X[2547] <= 0.5\ngini = 1.0\nsamples = 5933\nvalue = [1, 1, 1 ... 1, 1, 1]"] ;
136 -> 137 ;
138 [label="X[9384] <= 0.5\ngini = 1.0\nsamples = 5932\nvalue = [1, 1, 1 ... 1, 1, 1]"] ;
137 -> 138 ;
139 [label="X[17207] <= 0.5\ngini = 1.0\nsamples = 5931\nvalue = [1, 1, 1 ... 1, 1, 1]"] ;
138 -> 139 ;
140 [label="X[11304] <= 0.5\ngini = 1.0\nsamples = 5930\nvalue = [1, 1, 1 ... 1, 1, 1]"] ;
139 -> 140 ;
141 [label="X[5260] <= 0.5\ngini = 1.0\nsamples = 5929\nvalue = [1, 1, 1 ... 1, 1, 1]"] ;
140 -> 141 ;
142 [label="X[1383] <= 0.5\ngini = 1.0\nsamples = 5928\nvalue = [1, 1, 1 ... 1, 1, 1]"] ;
141 -> 142 ;
143 [label="X[7347] <= 0.5\ngini = 1.0\nsamples = 5927\nvalue = [1, 1, 1 ... 1, 1, 1]"] ;
142 -> 143 ;
144 [label="X[12668] <= 0.5\ngini = 1.0\nsamples = 5926\nvalue = [1, 1, 1 ... 1, 1, 1]"] ;
143 -> 144 ;
145 [label="X[4347] <= 0.5\ngini = 1.0\nsamples = 5925\nvalue = [1, 1, 1 ... 1, 1, 1]"] ;
144 -> 145 ;
146 [label="X[17527] <= 0.5\ngini = 1.0\nsamples = 5924\nvalue = [1, 1, 1 ... 1, 1, 1]"] ;
145 -> 146 ;
147 [label="X[2959] <= 0.5\ngini = 1.0\nsamples = 5923\nvalue = [1, 1, 1 ... 1, 1, 1]"] ;
146 -> 147 ;
148 [label="X[5104] <= 0.5\ngini = 1.0\nsamples = 5922\nvalue = [1, 1, 1 ... 1, 1, 1]"] ;
147 -> 148 ;
149 [label="X[4340] <= 0.5\ngini = 1.0\nsamples = 5920\nvalue = [1, 1, 1 ... 1, 1, 1]"] ;
148 -> 149 ;
150 [label="X[2099] <= 0.5\ngini = 1.0\nsamples = 5919\nvalue = [1, 1, 1 ... 1, 1, 1]"] ;
149 -> 150 ;
151 [label="X[2674] <= 0.5\ngini = 1.0\nsamples = 5916\nvalue = [1, 1, 1 ... 1, 1, 1]"] ;
150 -> 151 ;
152 [label="X[8700] <= 0.5\ngini = 1.0\nsamples = 5915\nvalue = [1, 1, 1 ... 1, 1, 1]"] ;
151 -> 152 ;
153 [label="X[12838] <= 0.5\ngini = 1.0\nsamples = 5913\nvalue = [1, 1, 1 ... 1, 1, 1]"] ;
152 -> 153 ;
154 [label="X[11976] <= 0.5\ngini = 1.0\nsamples = 5912\nvalue = [1, 1, 1 ... 1, 1, 1]"] ;
153 -> 154 ;
155 [label="X[2444] <= 0.5\ngini = 1.0\nsamples = 5910\nvalue = [1, 1, 1 ... 1, 1, 1]"] ;
154 -> 155 ;
156 [label="X[7224] <= 0.5\ngini = 1.0\nsamples = 5909\nvalue = [1, 1, 1 ... 1, 1, 1]"] ;
155 -> 156 ;
157 [label="X[8827] <= 0.5\ngini = 1.0\nsamples = 5908\nvalue = [1, 1, 1 ... 1, 1, 1]"] ;
156 -> 157 ;
158 [label="X[1013] <= 0.5\ngini = 1.0\nsamples = 5907\nvalue = [1, 1, 1 ... 1, 1, 1]"] ;
157 -> 158 ;
159 [label="X[2262] <= 0.5\ngini = 1.0\nsamples = 5889\nvalue = [1, 1, 1 ... 1, 1, 1]"] ;
158 -> 159 ;
160 [label="X[6368] <= 0.5\ngini = 1.0\nsamples = 5888\nvalue = [1, 1, 1 ... 1, 1, 1]"] ;
159 -> 160 ;
161 [label="X[751] <= 0.5\ngini = 1.0\nsamples = 5887\nvalue = [1, 1, 1 ... 1, 1, 1]"] ;
160 -> 161 ;
162 [label="X[5507] <= 0.5\ngini = 1.0\nsamples = 5885\nvalue = [1, 1, 1 ... 1, 1, 1]"] ;
161 -> 162 ;
163 [label="X[10971] <= 0.5\ngini = 1.0\nsamples = 5858\nvalue = [1, 1, 1 ... 1, 1, 1]"] ;
162 -> 163 ;
164 [label="X[17480] <= 0.5\ngini = 1.0\nsamples = 5857\nvalue = [1, 1, 1 ... 1, 1, 1]"] ;
163 -> 164 ;
165 [label="X[13289] <= 0.5\ngini = 1.0\nsamples = 5856\nvalue = [1, 1, 1 ... 1, 1, 1]"] ;
164 -> 165 ;
166 [label="X[16484] <= 0.5\ngini = 1.0\nsamples = 5855\nvalue = [1, 1, 1 ... 1, 1, 1]"] ;
165 -> 166 ;
167 [label="X[804] <= 0.5\ngini = 1.0\nsamples = 5854\nvalue = [1, 1, 1 ... 1, 1, 1]"] ;
166 -> 167 ;
168 [label="X[12678] <= 0.5\ngini = 1.0\nsamples = 5851\nvalue = [1, 1, 1 ... 1, 1, 1]"] ;
167 -> 168 ;
169 [label="X[10933] <= 0.5\ngini = 1.0\nsamples = 5850\nvalue = [1, 1, 1 ... 1, 1, 1]"] ;
168 -> 169 ;
170 [label="X[6484] <= 0.5\ngini = 1.0\nsamples = 5849\nvalue = [1, 1, 1 ... 1, 1, 1]"] ;
169 -> 170 ;
171 [label="X[3429] <= 0.5\ngini = 1.0\nsamples = 5848\nvalue = [1, 1, 1 ... 1, 1, 1]"] ;
170 -> 171 ;
172 [label="X[486] <= 0.5\ngini = 1.0\nsamples = 5847\nvalue = [1, 1, 1 ... 1, 1, 1]"] ;
171 -> 172 ;
173 [label="X[14974] <= 0.5\ngini = 1.0\nsamples = 5843\nvalue = [1, 1, 1 ... 1, 1, 1]"] ;
172 -> 173 ;
174 [label="X[2846] <= 0.5\ngini = 1.0\nsamples = 5842\nvalue = [1, 1, 1 ... 1, 1, 1]"] ;
173 -> 174 ;
175 [label="X[2341] <= 0.5\ngini = 1.0\nsamples = 5839\nvalue = [1, 1, 1 ... 1, 1, 1]"] ;
174 -> 175 ;
176 [label="X[13890] <= 0.5\ngini = 1.0\nsamples = 5837\nvalue = [1, 1, 1 ... 1, 1, 1]"] ;
175 -> 176 ;
177 [label="X[1635] <= 0.5\ngini = 1.0\nsamples = 5836\nvalue = [1, 1, 1 ... 1, 1, 1]"] ;
176 -> 177 ;
178 [label="X[9717] <= 0.5\ngini = 1.0\nsamples = 5835\nvalue = [1, 1, 1 ... 1, 1, 1]"] ;
177 -> 178 ;
179 [label="X[17047] <= 0.5\ngini = 1.0\nsamples = 5834\nvalue = [1, 1, 1 ... 1, 1, 1]"] ;
178 -> 179 ;
180 [label="X[902] <= 0.5\ngini = 1.0\nsamples = 5831\nvalue = [1, 1, 1 ... 1, 1, 1]"] ;
179 -> 180 ;
181 [label="X[3703] <= 0.5\ngini = 1.0\nsamples = 5830\nvalue = [1, 1, 1 ... 1, 1, 1]"] ;
180 -> 181 ;
182 [label="X[993] <= 0.5\ngini = 1.0\nsamples = 5828\nvalue = [1, 1, 1 ... 1, 1, 1]"] ;
181 -> 182 ;
183 [label="X[15402] <= 0.5\ngini = 1.0\nsamples = 5827\nvalue = [1, 1, 1 ... 1, 1, 1]"] ;
182 -> 183 ;
184 [label="X[5931] <= 0.5\ngini = 1.0\nsamples = 5826\nvalue = [1, 1, 1 ... 1, 1, 1]"] ;
183 -> 184 ;
185 [label="X[14131] <= 0.5\ngini = 1.0\nsamples = 5825\nvalue = [1, 1, 1 ... 1, 1, 1]"] ;
184 -> 185 ;
186 [label="X[5051] <= 0.5\ngini = 1.0\nsamples = 5823\nvalue = [1, 1, 1 ... 1, 1, 1]"] ;
185 -> 186 ;
187 [label="X[13490] <= 0.5\ngini = 1.0\nsamples = 5822\nvalue = [1, 1, 1 ... 1, 1, 1]"] ;
186 -> 187 ;
188 [label="X[6211] <= 0.5\ngini = 1.0\nsamples = 5821\nvalue = [1, 1, 1 ... 1, 1, 1]"] ;
187 -> 188 ;
189 [label="X[4411] <= 0.5\ngini = 1.0\nsamples = 5820\nvalue = [1, 1, 1 ... 1, 1, 1]"] ;
188 -> 189 ;
190 [label="X[10886] <= 0.5\ngini = 1.0\nsamples = 5819\nvalue = [1, 1, 1 ... 1, 1, 1]"] ;
189 -> 190 ;
191 [label="X[549] <= 0.5\ngini = 1.0\nsamples = 5818\nvalue = [1, 1, 1 ... 1, 1, 1]"] ;
190 -> 191 ;
192 [label="X[13782] <= 0.5\ngini = 1.0\nsamples = 5808\nvalue = [1, 1, 1 ... 1, 1, 1]"] ;
191 -> 192 ;
193 [label="X[8545] <= 0.5\ngini = 1.0\nsamples = 5807\nvalue = [1, 1, 1 ... 1, 1, 1]"] ;
192 -> 193 ;
194 [label="X[11110] <= 0.5\ngini = 1.0\nsamples = 5804\nvalue = [1, 1, 1 ... 1, 1, 1]"] ;
193 -> 194 ;
195 [label="X[7316] <= 0.5\ngini = 1.0\nsamples = 5801\nvalue = [1, 1, 1 ... 1, 1, 1]"] ;
194 -> 195 ;
196 [label="X[5501] <= 0.5\ngini = 1.0\nsamples = 5800\nvalue = [1, 1, 1 ... 1, 1, 1]"] ;
195 -> 196 ;
197 [label="X[12129] <= 0.5\ngini = 1.0\nsamples = 5797\nvalue = [1, 1, 1 ... 1, 1, 1]"] ;
196 -> 197 ;
198 [label="X[17367] <= 0.5\ngini = 1.0\nsamples = 5796\nvalue = [1, 1, 1 ... 1, 1, 1]"] ;
197 -> 198 ;
199 [label="X[4903] <= 0.5\ngini = 1.0\nsamples = 5795\nvalue = [1, 1, 1 ... 1, 1, 1]"] ;
198 -> 199 ;
200 [label="X[7045] <= 0.5\ngini = 1.0\nsamples = 5793\nvalue = [1, 1, 1 ... 1, 1, 1]"] ;
199 -> 200 ;
201 [label="X[7547] <= 0.5\ngini = 1.0\nsamples = 5791\nvalue = [1, 1, 1 ... 1, 1, 1]"] ;
200 -> 201 ;
202 [label="X[9590] <= 0.5\ngini = 1.0\nsamples = 5790\nvalue = [1, 1, 1 ... 1, 1, 1]"] ;
201 -> 202 ;
203 [label="X[2531] <= 0.5\ngini = 1.0\nsamples = 5781\nvalue = [1, 1, 1 ... 1, 1, 1]"] ;
202 -> 203 ;
204 [label="X[17746] <= 0.5\ngini = 1.0\nsamples = 5780\nvalue = [1, 1, 1 ... 1, 1, 1]"] ;
203 -> 204 ;
205 [label="X[2791] <= 0.5\ngini = 1.0\nsamples = 5779\nvalue = [1, 1, 1 ... 1, 1, 1]"] ;
204 -> 205 ;
206 [label="X[1249] <= 0.5\ngini = 1.0\nsamples = 5777\nvalue = [1, 1, 1 ... 1, 1, 1]"] ;
205 -> 206 ;
207 [label="X[8831] <= 0.5\ngini = 1.0\nsamples = 5775\nvalue = [1, 1, 1 ... 1, 1, 1]"] ;
206 -> 207 ;
208 [label="X[4510] <= 0.5\ngini = 1.0\nsamples = 5774\nvalue = [1, 1, 1 ... 1, 1, 1]"] ;
207 -> 208 ;
209 [label="X[8512] <= 0.5\ngini = 1.0\nsamples = 5773\nvalue = [1, 1, 1 ... 1, 1, 1]"] ;
208 -> 209 ;
210 [label="X[2707] <= 0.5\ngini = 1.0\nsamples = 5764\nvalue = [1, 1, 1 ... 1, 1, 1]"] ;
209 -> 210 ;
211 [label="X[9279] <= 0.5\ngini = 1.0\nsamples = 5763\nvalue = [1, 1, 1 ... 1, 1, 1]"] ;
210 -> 211 ;
212 [label="X[13166] <= 0.5\ngini = 1.0\nsamples = 5761\nvalue = [1, 1, 1 ... 1, 1, 1]"] ;
211 -> 212 ;
213 [label="X[1353] <= 0.5\ngini = 1.0\nsamples = 5759\nvalue = [1, 1, 1 ... 1, 1, 1]"] ;
212 -> 213 ;
214 [label="X[7104] <= 0.5\ngini = 1.0\nsamples = 5757\nvalue = [1, 1, 1 ... 1, 1, 1]"] ;
213 -> 214 ;
215 [label="X[16650] <= 0.5\ngini = 1.0\nsamples = 5756\nvalue = [1, 1, 1 ... 1, 1, 1]"] ;
214 -> 215 ;
216 [label="X[14684] <= 0.5\ngini = 1.0\nsamples = 5755\nvalue = [1, 1, 1 ... 1, 1, 1]"] ;
215 -> 216 ;
217 [label="X[5941] <= 0.5\ngini = 1.0\nsamples = 5752\nvalue = [1, 1, 1 ... 1, 1, 1]"] ;
216 -> 217 ;
218 [label="X[16790] <= 0.5\ngini = 1.0\nsamples = 5751\nvalue = [1, 1, 1 ... 1, 1, 1]"] ;
217 -> 218 ;
219 [label="X[9907] <= 0.5\ngini = 1.0\nsamples = 5750\nvalue = [1, 1, 1 ... 1, 1, 1]"] ;
218 -> 219 ;
220 [label="X[5476] <= 0.5\ngini = 1.0\nsamples = 5749\nvalue = [1, 1, 1 ... 1, 1, 1]"] ;
219 -> 220 ;
221 [label="X[3561] <= 0.5\ngini = 1.0\nsamples = 5748\nvalue = [1, 1, 1 ... 1, 1, 1]"] ;
220 -> 221 ;
222 [label="X[11104] <= 0.5\ngini = 1.0\nsamples = 5747\nvalue = [1, 1, 1 ... 1, 1, 1]"] ;
221 -> 222 ;
223 [label="X[10181] <= 0.5\ngini = 1.0\nsamples = 5746\nvalue = [1, 1, 1 ... 1, 1, 1]"] ;
222 -> 223 ;
224 [label="X[16508] <= 0.5\ngini = 1.0\nsamples = 5744\nvalue = [1, 1, 1 ... 1, 1, 1]"] ;
223 -> 224 ;
225 [label="X[7237] <= 0.5\ngini = 1.0\nsamples = 5743\nvalue = [1, 1, 1 ... 1, 1, 1]"] ;
224 -> 225 ;
226 [label="X[708] <= 0.5\ngini = 1.0\nsamples = 5741\nvalue = [1, 1, 1 ... 1, 1, 1]"] ;
225 -> 226 ;
227 [label="X[9925] <= 0.5\ngini = 1.0\nsamples = 5740\nvalue = [1, 1, 1 ... 1, 1, 1]"] ;
226 -> 227 ;
228 [label="X[4643] <= 0.5\ngini = 1.0\nsamples = 5739\nvalue = [1, 1, 1 ... 1, 1, 1]"] ;
227 -> 228 ;
229 [label="X[11056] <= 0.5\ngini = 1.0\nsamples = 5738\nvalue = [1, 1, 1 ... 1, 1, 1]"] ;
228 -> 229 ;
230 [label="X[7696] <= 0.5\ngini = 1.0\nsamples = 5737\nvalue = [1, 1, 1 ... 1, 1, 1]"] ;
229 -> 230 ;
231 [label="X[11037] <= 0.5\ngini = 1.0\nsamples = 5736\nvalue = [1, 1, 1 ... 1, 1, 1]"] ;
230 -> 231 ;
232 [label="X[8587] <= 0.5\ngini = 1.0\nsamples = 5735\nvalue = [1, 1, 1 ... 1, 1, 1]"] ;
231 -> 232 ;
233 [label="X[12597] <= 0.5\ngini = 1.0\nsamples = 5733\nvalue = [1, 1, 1 ... 1, 1, 1]"] ;
232 -> 233 ;
234 [label="X[8683] <= 0.5\ngini = 1.0\nsamples = 5732\nvalue = [1, 1, 1 ... 1, 1, 1]"] ;
233 -> 234 ;
235 [label="X[15157] <= 0.5\ngini = 1.0\nsamples = 5731\nvalue = [1, 1, 1 ... 1, 1, 1]"] ;
234 -> 235 ;
236 [label="X[17164] <= 0.5\ngini = 1.0\nsamples = 5730\nvalue = [1, 1, 1 ... 1, 1, 1]"] ;
235 -> 236 ;
237 [label="X[1890] <= 0.5\ngini = 1.0\nsamples = 5729\nvalue = [1, 1, 1 ... 1, 1, 1]"] ;
236 -> 237 ;
238 [label="X[17002] <= 0.5\ngini = 1.0\nsamples = 5728\nvalue = [1, 1, 1 ... 1, 1, 1]"] ;
237 -> 238 ;
239 [label="X[4631] <= 0.5\ngini = 1.0\nsamples = 5726\nvalue = [1, 1, 1 ... 1, 1, 1]"] ;
238 -> 239 ;
240 [label="X[8178] <= 0.5\ngini = 1.0\nsamples = 5725\nvalue = [1, 1, 1 ... 1, 1, 1]"] ;
239 -> 240 ;
241 [label="X[2822] <= 0.5\ngini = 1.0\nsamples = 5724\nvalue = [1, 1, 1 ... 1, 1, 1]"] ;
240 -> 241 ;
242 [label="X[14504] <= 0.5\ngini = 1.0\nsamples = 5722\nvalue = [1, 1, 1 ... 1, 1, 1]"] ;
241 -> 242 ;
243 [label="X[13259] <= 0.5\ngini = 1.0\nsamples = 5721\nvalue = [1, 1, 1 ... 1, 1, 1]"] ;
242 -> 243 ;
244 [label="X[13256] <= 0.5\ngini = 1.0\nsamples = 5719\nvalue = [1, 1, 1 ... 1, 1, 1]"] ;
243 -> 244 ;
245 [label="X[12997] <= 0.5\ngini = 1.0\nsamples = 5718\nvalue = [1, 1, 1 ... 1, 1, 1]"] ;
244 -> 245 ;
246 [label="X[3177] <= 0.5\ngini = 1.0\nsamples = 5717\nvalue = [1, 1, 1 ... 1, 1, 1]"] ;
245 -> 246 ;
247 [label="X[4033] <= 0.5\ngini = 1.0\nsamples = 5716\nvalue = [1, 1, 1 ... 1, 1, 1]"] ;
246 -> 247 ;
248 [label="X[16711] <= 0.5\ngini = 1.0\nsamples = 5707\nvalue = [1, 1, 1 ... 1, 1, 1]"] ;
247 -> 248 ;
249 [label="X[7524] <= 0.5\ngini = 1.0\nsamples = 5706\nvalue = [1, 1, 1 ... 1, 1, 1]"] ;
248 -> 249 ;
250 [label="X[9454] <= 0.5\ngini = 1.0\nsamples = 5704\nvalue = [1, 1, 1 ... 1, 1, 1]"] ;
249 -> 250 ;
251 [label="X[17760] <= 0.5\ngini = 1.0\nsamples = 5703\nvalue = [1, 1, 1 ... 1, 1, 1]"] ;
250 -> 251 ;
252 [label="X[1864] <= 0.5\ngini = 1.0\nsamples = 5702\nvalue = [1, 1, 1 ... 1, 1, 1]"] ;
251 -> 252 ;
253 [label="X[5733] <= 0.5\ngini = 1.0\nsamples = 5690\nvalue = [1, 1, 1 ... 1, 1, 1]"] ;
252 -> 253 ;
254 [label="X[1098] <= 0.5\ngini = 1.0\nsamples = 5685\nvalue = [1, 1, 1 ... 1, 1, 1]"] ;
253 -> 254 ;
255 [label="X[17428] <= 0.5\ngini = 1.0\nsamples = 5684\nvalue = [1, 1, 1 ... 1, 1, 1]"] ;
254 -> 255 ;
256 [label="X[2471] <= 0.5\ngini = 1.0\nsamples = 5683\nvalue = [1, 1, 1 ... 1, 1, 1]"] ;
255 -> 256 ;
257 [label="X[9685] <= 0.5\ngini = 1.0\nsamples = 5665\nvalue = [1, 1, 1 ... 1, 1, 1]"] ;
256 -> 257 ;
258 [label="X[6775] <= 0.5\ngini = 1.0\nsamples = 5664\nvalue = [1, 1, 1 ... 1, 1, 1]"] ;
257 -> 258 ;
259 [label="X[1077] <= 0.5\ngini = 1.0\nsamples = 5663\nvalue = [1, 1, 1 ... 1, 1, 1]"] ;
258 -> 259 ;
260 [label="X[582] <= 0.5\ngini = 1.0\nsamples = 5660\nvalue = [1, 1, 1 ... 1, 1, 1]"] ;
259 -> 260 ;
261 [label="X[17483] <= 0.5\ngini = 1.0\nsamples = 5655\nvalue = [1, 1, 1 ... 1, 1, 1]"] ;
260 -> 261 ;
262 [label="X[15948] <= 0.5\ngini = 1.0\nsamples = 5654\nvalue = [1, 1, 1 ... 1, 1, 1]"] ;
261 -> 262 ;
263 [label="X[8076] <= 0.5\ngini = 1.0\nsamples = 5652\nvalue = [1, 1, 1 ... 1, 1, 1]"] ;
262 -> 263 ;
264 [label="X[17463] <= 0.5\ngini = 1.0\nsamples = 5651\nvalue = [1, 1, 1 ... 1, 1, 1]"] ;
263 -> 264 ;
265 [label="X[5465] <= 0.5\ngini = 1.0\nsamples = 5649\nvalue = [1, 1, 1 ... 1, 1, 1]"] ;
264 -> 265 ;
266 [label="X[10848] <= 0.5\ngini = 1.0\nsamples = 5647\nvalue = [1, 1, 1 ... 1, 1, 1]"] ;
265 -> 266 ;
267 [label="X[14915] <= 0.5\ngini = 1.0\nsamples = 5641\nvalue = [1, 1, 1 ... 1, 1, 1]"] ;
266 -> 267 ;
268 [label="X[15794] <= 0.5\ngini = 1.0\nsamples = 5640\nvalue = [1, 1, 1 ... 1, 1, 1]"] ;
267 -> 268 ;
269 [label="X[5920] <= 0.5\ngini = 1.0\nsamples = 5639\nvalue = [1, 1, 1 ... 1, 1, 1]"] ;
268 -> 269 ;
270 [label="X[7311] <= 0.5\ngini = 1.0\nsamples = 5638\nvalue = [1, 1, 1 ... 1, 1, 1]"] ;
269 -> 270 ;
271 [label="X[12790] <= 0.5\ngini = 1.0\nsamples = 5635\nvalue = [1, 1, 1 ... 1, 1, 1]"] ;
270 -> 271 ;
272 [label="X[3164] <= 0.5\ngini = 1.0\nsamples = 5634\nvalue = [1, 1, 1 ... 1, 1, 1]"] ;
271 -> 272 ;
273 [label="X[12149] <= 0.5\ngini = 1.0\nsamples = 5633\nvalue = [1, 1, 1 ... 1, 1, 1]"] ;
272 -> 273 ;
274 [label="X[4877] <= 0.5\ngini = 1.0\nsamples = 5630\nvalue = [1, 1, 1 ... 1, 1, 1]"] ;
273 -> 274 ;
275 [label="X[10102] <= 0.5\ngini = 1.0\nsamples = 5628\nvalue = [1, 1, 1 ... 1, 1, 1]"] ;
274 -> 275 ;
276 [label="X[7509] <= 0.5\ngini = 1.0\nsamples = 5627\nvalue = [1, 1, 1 ... 1, 1, 1]"] ;
275 -> 276 ;
277 [label="X[12380] <= 0.5\ngini = 1.0\nsamples = 5626\nvalue = [1, 1, 1 ... 1, 1, 1]"] ;
276 -> 277 ;
278 [label="X[10654] <= 0.5\ngini = 1.0\nsamples = 5625\nvalue = [1, 1, 1 ... 1, 1, 1]"] ;
277 -> 278 ;
279 [label="X[5977] <= 0.5\ngini = 1.0\nsamples = 5624\nvalue = [1, 1, 1 ... 1, 1, 1]"] ;
278 -> 279 ;
280 [label="X[3864] <= 0.5\ngini = 1.0\nsamples = 5623\nvalue = [1, 1, 1 ... 1, 1, 1]"] ;
279 -> 280 ;
281 [label="X[10805] <= 0.5\ngini = 1.0\nsamples = 5622\nvalue = [1, 1, 1 ... 1, 1, 1]"] ;
280 -> 281 ;
282 [label="X[17932] <= 0.5\ngini = 1.0\nsamples = 5621\nvalue = [1, 1, 1 ... 1, 1, 1]"] ;
281 -> 282 ;
283 [label="X[5453] <= 0.5\ngini = 1.0\nsamples = 5620\nvalue = [1, 1, 1 ... 1, 1, 1]"] ;
282 -> 283 ;
284 [label="X[1311] <= 0.5\ngini = 1.0\nsamples = 5618\nvalue = [1, 1, 1 ... 1, 1, 1]"] ;
283 -> 284 ;
285 [label="X[15680] <= 0.5\ngini = 1.0\nsamples = 5609\nvalue = [1, 1, 1 ... 1, 0, 1]"] ;
284 -> 285 ;
286 [label="X[6839] <= 0.5\ngini = 1.0\nsamples = 5608\nvalue = [1, 1, 1 ... 1, 0, 1]"] ;
285 -> 286 ;
287 [label="X[17679] <= 0.5\ngini = 1.0\nsamples = 5607\nvalue = [1, 1, 1 ... 1, 0, 1]"] ;
286 -> 287 ;
288 [label="X[15847] <= 0.5\ngini = 1.0\nsamples = 5606\nvalue = [1, 1, 1 ... 1, 0, 1]"] ;
287 -> 288 ;
289 [label="X[13458] <= 0.5\ngini = 1.0\nsamples = 5605\nvalue = [1, 1, 1 ... 1, 0, 1]"] ;
288 -> 289 ;
290 [label="X[6388] <= 0.5\ngini = 1.0\nsamples = 5604\nvalue = [1, 1, 1 ... 1, 0, 1]"] ;
289 -> 290 ;
291 [label="X[9288] <= 0.5\ngini = 1.0\nsamples = 5603\nvalue = [1, 1, 1 ... 1, 0, 1]"] ;
290 -> 291 ;
292 [label="X[4132] <= 0.5\ngini = 1.0\nsamples = 5602\nvalue = [1, 1, 1 ... 1, 0, 1]"] ;
291 -> 292 ;
293 [label="X[1720] <= 0.5\ngini = 1.0\nsamples = 5601\nvalue = [1, 1, 1 ... 1, 0, 1]"] ;
292 -> 293 ;
294 [label="X[12109] <= 0.5\ngini = 1.0\nsamples = 5596\nvalue = [1, 1, 1 ... 1, 0, 1]"] ;
293 -> 294 ;
295 [label="X[4477] <= 0.5\ngini = 1.0\nsamples = 5595\nvalue = [1, 1, 1 ... 1, 0, 1]"] ;
294 -> 295 ;
296 [label="X[8908] <= 0.5\ngini = 1.0\nsamples = 5594\nvalue = [1, 1, 1 ... 1, 0, 1]"] ;
295 -> 296 ;
297 [label="X[5420] <= 0.5\ngini = 1.0\nsamples = 5593\nvalue = [1, 1, 1 ... 1, 0, 1]"] ;
296 -> 297 ;
298 [label="X[10603] <= 0.5\ngini = 1.0\nsamples = 5592\nvalue = [1, 1, 1 ... 1, 0, 1]"] ;
297 -> 298 ;
299 [label="X[13394] <= 0.5\ngini = 1.0\nsamples = 5591\nvalue = [1, 1, 1 ... 1, 0, 1]"] ;
298 -> 299 ;
300 [label="X[7927] <= 0.5\ngini = 1.0\nsamples = 5590\nvalue = [1, 1, 1 ... 1, 0, 1]"] ;
299 -> 300 ;
301 [label="X[5075] <= 0.5\ngini = 1.0\nsamples = 5588\nvalue = [1, 1, 1 ... 1, 0, 1]"] ;
300 -> 301 ;
302 [label="X[3399] <= 0.5\ngini = 1.0\nsamples = 5586\nvalue = [1, 1, 1 ... 1, 0, 1]"] ;
301 -> 302 ;
303 [label="X[15436] <= 0.5\ngini = 1.0\nsamples = 5581\nvalue = [1, 1, 1 ... 1, 0, 1]"] ;
302 -> 303 ;
304 [label="X[3195] <= 0.5\ngini = 1.0\nsamples = 5580\nvalue = [1, 1, 1 ... 1, 0, 1]"] ;
303 -> 304 ;
305 [label="X[6298] <= 0.5\ngini = 1.0\nsamples = 5579\nvalue = [1, 1, 1 ... 1, 0, 1]"] ;
304 -> 305 ;
306 [label="X[889] <= 0.5\ngini = 1.0\nsamples = 5578\nvalue = [1, 1, 1 ... 1, 0, 1]"] ;
305 -> 306 ;
307 [label="X[5589] <= 0.5\ngini = 1.0\nsamples = 5554\nvalue = [1, 1, 1 ... 1, 0, 1]"] ;
306 -> 307 ;
308 [label="X[13570] <= 0.5\ngini = 1.0\nsamples = 5553\nvalue = [1, 1, 1 ... 1, 0, 1]"] ;
307 -> 308 ;
309 [label="X[11488] <= 0.5\ngini = 1.0\nsamples = 5552\nvalue = [1, 1, 1 ... 1, 0, 1]"] ;
308 -> 309 ;
310 [label="X[14481] <= 0.5\ngini = 1.0\nsamples = 5551\nvalue = [1, 1, 1 ... 1, 0, 1]"] ;
309 -> 310 ;
311 [label="X[14681] <= 0.5\ngini = 1.0\nsamples = 5550\nvalue = [1, 1, 1 ... 1, 0, 1]"] ;
310 -> 311 ;
312 [label="X[12061] <= 0.5\ngini = 1.0\nsamples = 5549\nvalue = [1, 1, 1 ... 1, 0, 1]"] ;
311 -> 312 ;
313 [label="X[5500] <= 0.5\ngini = 1.0\nsamples = 5548\nvalue = [1, 1, 1 ... 1, 0, 1]"] ;
312 -> 313 ;
314 [label="X[6593] <= 0.5\ngini = 1.0\nsamples = 5546\nvalue = [1, 1, 1 ... 1, 0, 1]"] ;
313 -> 314 ;
315 [label="X[4778] <= 0.5\ngini = 1.0\nsamples = 5543\nvalue = [1, 1, 1 ... 1, 0, 1]"] ;
314 -> 315 ;
316 [label="X[7778] <= 0.5\ngini = 1.0\nsamples = 5541\nvalue = [1, 1, 1 ... 1, 0, 1]"] ;
315 -> 316 ;
317 [label="X[16034] <= 0.5\ngini = 1.0\nsamples = 5540\nvalue = [1, 1, 1 ... 1, 0, 1]"] ;
316 -> 317 ;
318 [label="X[6187] <= 0.5\ngini = 1.0\nsamples = 5539\nvalue = [1, 1, 1 ... 1, 0, 1]"] ;
317 -> 318 ;
319 [label="X[17683] <= 0.5\ngini = 1.0\nsamples = 5536\nvalue = [1, 1, 1 ... 1, 0, 1]"] ;
318 -> 319 ;
320 [label="X[16593] <= 0.5\ngini = 1.0\nsamples = 5535\nvalue = [1, 1, 1 ... 1, 0, 1]"] ;
319 -> 320 ;
321 [label="X[11581] <= 0.5\ngini = 1.0\nsamples = 5534\nvalue = [1, 1, 1 ... 1, 0, 1]"] ;
320 -> 321 ;
322 [label="X[15698] <= 0.5\ngini = 1.0\nsamples = 5533\nvalue = [1, 1, 1 ... 1, 0, 1]"] ;
321 -> 322 ;
323 [label="X[3610] <= 0.5\ngini = 1.0\nsamples = 5532\nvalue = [1, 1, 1 ... 1, 0, 1]"] ;
322 -> 323 ;
324 [label="X[12012] <= 0.5\ngini = 1.0\nsamples = 5530\nvalue = [1, 1, 1 ... 1, 0, 1]"] ;
323 -> 324 ;
325 [label="X[13317] <= 0.5\ngini = 1.0\nsamples = 5529\nvalue = [1, 1, 1 ... 1, 0, 1]"] ;
324 -> 325 ;
326 [label="X[14893] <= 0.5\ngini = 1.0\nsamples = 5528\nvalue = [1, 1, 1 ... 1, 0, 1]"] ;
325 -> 326 ;
327 [label="X[1506] <= 0.5\ngini = 1.0\nsamples = 5526\nvalue = [1, 1, 1 ... 1, 0, 1]"] ;
326 -> 327 ;
328 [label="X[12969] <= 0.5\ngini = 1.0\nsamples = 5525\nvalue = [1, 1, 1 ... 1, 0, 1]"] ;
327 -> 328 ;
329 [label="X[6982] <= 0.5\ngini = 1.0\nsamples = 5524\nvalue = [1, 1, 1 ... 1, 0, 1]"] ;
328 -> 329 ;
330 [label="X[4736] <= 0.5\ngini = 1.0\nsamples = 5502\nvalue = [1, 1, 0 ... 1, 0, 1]"] ;
329 -> 330 ;
331 [label="X[10617] <= 0.5\ngini = 1.0\nsamples = 5501\nvalue = [1, 1, 0 ... 1, 0, 1]"] ;
330 -> 331 ;
332 [label="X[15701] <= 0.5\ngini = 1.0\nsamples = 5500\nvalue = [1, 1, 0 ... 1, 0, 1]"] ;
331 -> 332 ;
333 [label="X[12221] <= 0.5\ngini = 1.0\nsamples = 5499\nvalue = [1, 1, 0 ... 1, 0, 1]"] ;
332 -> 333 ;
334 [label="X[13054] <= 0.5\ngini = 1.0\nsamples = 5497\nvalue = [1, 1, 0 ... 1, 0, 1]"] ;
333 -> 334 ;
335 [label="X[1692] <= 0.5\ngini = 1.0\nsamples = 5494\nvalue = [1, 1, 0 ... 1, 0, 1]"] ;
334 -> 335 ;
336 [label="X[1370] <= 0.5\ngini = 1.0\nsamples = 5472\nvalue = [1, 1, 0 ... 1, 0, 1]"] ;
335 -> 336 ;
337 [label="X[8672] <= 0.5\ngini = 1.0\nsamples = 5466\nvalue = [1, 1, 0 ... 1, 0, 1]"] ;
336 -> 337 ;
338 [label="X[13546] <= 0.5\ngini = 1.0\nsamples = 5464\nvalue = [1, 1, 0 ... 1, 0, 1]"] ;
337 -> 338 ;
339 [label="X[9037] <= 0.5\ngini = 1.0\nsamples = 5463\nvalue = [1, 1, 0 ... 1, 0, 1]"] ;
338 -> 339 ;
340 [label="X[11518] <= 0.5\ngini = 1.0\nsamples = 5462\nvalue = [1, 1, 0 ... 1, 0, 1]"] ;
339 -> 340 ;
341 [label="X[17051] <= 0.5\ngini = 1.0\nsamples = 5461\nvalue = [1, 1, 0 ... 1, 0, 1]"] ;
340 -> 341 ;
342 [label="X[2084] <= 0.5\ngini = 1.0\nsamples = 5460\nvalue = [1, 1, 0 ... 1, 0, 1]"] ;
341 -> 342 ;
343 [label="X[8221] <= 0.5\ngini = 1.0\nsamples = 5458\nvalue = [1, 1, 0 ... 1, 0, 1]"] ;
342 -> 343 ;
344 [label="X[12697] <= 0.5\ngini = 1.0\nsamples = 5457\nvalue = [1, 1, 0 ... 1, 0, 1]"] ;
343 -> 344 ;
345 [label="X[9967] <= 0.5\ngini = 1.0\nsamples = 5455\nvalue = [1, 1, 0 ... 1, 0, 1]"] ;
344 -> 345 ;
346 [label="X[9990] <= 0.5\ngini = 1.0\nsamples = 5454\nvalue = [1, 1, 0 ... 1, 0, 1]"] ;
345 -> 346 ;
347 [label="X[757] <= 0.5\ngini = 1.0\nsamples = 5453\nvalue = [1, 1, 0 ... 1, 0, 1]"] ;
346 -> 347 ;
348 [label="X[3744] <= 0.5\ngini = 1.0\nsamples = 5452\nvalue = [1, 1, 0 ... 1, 0, 1]"] ;
347 -> 348 ;
349 [label="X[2881] <= 0.5\ngini = 1.0\nsamples = 5451\nvalue = [1, 1, 0 ... 1, 0, 1]"] ;
348 -> 349 ;
350 [label="X[4123] <= 0.5\ngini = 1.0\nsamples = 5442\nvalue = [1, 1, 0 ... 1, 0, 1]"] ;
349 -> 350 ;
351 [label="X[5163] <= 0.5\ngini = 1.0\nsamples = 5441\nvalue = [1, 1, 0 ... 1, 0, 1]"] ;
350 -> 351 ;
352 [label="X[1157] <= 0.5\ngini = 1.0\nsamples = 5440\nvalue = [1, 1, 0 ... 1, 0, 1]"] ;
351 -> 352 ;
353 [label="X[17701] <= 0.5\ngini = 1.0\nsamples = 5438\nvalue = [1, 1, 0 ... 1, 0, 1]"] ;
352 -> 353 ;
354 [label="X[15107] <= 0.5\ngini = 1.0\nsamples = 5437\nvalue = [1, 1, 0 ... 1, 0, 1]"] ;
353 -> 354 ;
355 [label="X[5723] <= 0.5\ngini = 1.0\nsamples = 5436\nvalue = [1, 1, 0 ... 1, 0, 1]"] ;
354 -> 355 ;
356 [label="X[9390] <= 0.5\ngini = 1.0\nsamples = 5435\nvalue = [1, 1, 0 ... 1, 0, 1]"] ;
355 -> 356 ;
357 [label="X[3052] <= 0.5\ngini = 1.0\nsamples = 5434\nvalue = [1, 1, 0 ... 1, 0, 1]"] ;
356 -> 357 ;
358 [label="X[2808] <= 0.5\ngini = 1.0\nsamples = 5433\nvalue = [1, 1, 0 ... 1, 0, 1]"] ;
357 -> 358 ;
359 [label="X[9953] <= 0.5\ngini = 1.0\nsamples = 5432\nvalue = [1, 1, 0 ... 1, 0, 1]"] ;
358 -> 359 ;
360 [label="X[12160] <= 0.5\ngini = 1.0\nsamples = 5431\nvalue = [1, 1, 0 ... 1, 0, 1]"] ;
359 -> 360 ;
361 [label="X[9729] <= 0.5\ngini = 1.0\nsamples = 5430\nvalue = [1, 1, 0 ... 1, 0, 1]"] ;
360 -> 361 ;
362 [label="X[2021] <= 0.5\ngini = 1.0\nsamples = 5429\nvalue = [1, 1, 0 ... 1, 0, 1]"] ;
361 -> 362 ;
363 [label="X[11994] <= 0.5\ngini = 1.0\nsamples = 5428\nvalue = [1, 1, 0 ... 1, 0, 1]"] ;
362 -> 363 ;
364 [label="X[17379] <= 0.5\ngini = 1.0\nsamples = 5427\nvalue = [1, 1, 0 ... 1, 0, 1]"] ;
363 -> 364 ;
365 [label="X[6078] <= 0.5\ngini = 1.0\nsamples = 5426\nvalue = [1, 1, 0 ... 1, 0, 1]"] ;
364 -> 365 ;
366 [label="X[15625] <= 0.5\ngini = 1.0\nsamples = 5425\nvalue = [1, 1, 0 ... 1, 0, 1]"] ;
365 -> 366 ;
367 [label="X[5646] <= 0.5\ngini = 1.0\nsamples = 5424\nvalue = [1, 1, 0 ... 1, 0, 1]"] ;
366 -> 367 ;
368 [label="X[8949] <= 0.5\ngini = 1.0\nsamples = 5423\nvalue = [1, 1, 0 ... 1, 0, 1]"] ;
367 -> 368 ;
369 [label="X[3339] <= 0.5\ngini = 1.0\nsamples = 5421\nvalue = [1, 1, 0 ... 1, 0, 1]"] ;
368 -> 369 ;
370 [label="X[13236] <= 0.5\ngini = 1.0\nsamples = 5416\nvalue = [1, 1, 0 ... 1, 0, 1]"] ;
369 -> 370 ;
371 [label="X[3968] <= 0.5\ngini = 1.0\nsamples = 5415\nvalue = [1, 1, 0 ... 1, 0, 1]"] ;
370 -> 371 ;
372 [label="X[9412] <= 0.5\ngini = 1.0\nsamples = 5414\nvalue = [1, 1, 0 ... 1, 0, 1]"] ;
371 -> 372 ;
373 [label="X[1021] <= 0.5\ngini = 1.0\nsamples = 5412\nvalue = [1, 1, 0 ... 1, 0, 1]"] ;
372 -> 373 ;
374 [label="X[8965] <= 0.5\ngini = 1.0\nsamples = 5392\nvalue = [1, 1, 0 ... 1, 0, 1]"] ;
373 -> 374 ;
375 [label="X[6085] <= 0.5\ngini = 1.0\nsamples = 5391\nvalue = [1, 1, 0 ... 1, 0, 1]"] ;
374 -> 375 ;
376 [label="X[18135] <= 0.5\ngini = 1.0\nsamples = 5390\nvalue = [1, 1, 0 ... 1, 0, 1]"] ;
375 -> 376 ;
377 [label="X[7056] <= 0.5\ngini = 1.0\nsamples = 5389\nvalue = [1, 1, 0 ... 1, 0, 1]"] ;
376 -> 377 ;
378 [label="X[8984] <= 0.5\ngini = 1.0\nsamples = 5387\nvalue = [1, 1, 0 ... 1, 0, 1]"] ;
377 -> 378 ;
379 [label="X[10327] <= 0.5\ngini = 1.0\nsamples = 5385\nvalue = [1, 1, 0 ... 1, 0, 1]"] ;
378 -> 379 ;
380 [label="X[1801] <= 0.5\ngini = 1.0\nsamples = 5381\nvalue = [1, 1, 0 ... 1, 0, 1]"] ;
379 -> 380 ;
381 [label="X[1308] <= 0.5\ngini = 1.0\nsamples = 5380\nvalue = [1, 1, 0 ... 1, 0, 1]"] ;
380 -> 381 ;
382 [label="X[1712] <= 0.5\ngini = 1.0\nsamples = 5360\nvalue = [1, 1, 0 ... 1, 0, 1]"] ;
381 -> 382 ;
383 [label="X[10569] <= 0.5\ngini = 1.0\nsamples = 5359\nvalue = [1, 1, 0 ... 1, 0, 1]"] ;
382 -> 383 ;
384 [label="X[502] <= 0.5\ngini = 1.0\nsamples = 5358\nvalue = [1, 1, 0 ... 1, 0, 1]"] ;
383 -> 384 ;
385 [label="X[6260] <= 0.5\ngini = 1.0\nsamples = 5357\nvalue = [1, 1, 0 ... 1, 0, 1]"] ;
384 -> 385 ;
386 [label="X[10155] <= 0.5\ngini = 1.0\nsamples = 5355\nvalue = [1, 1, 0 ... 1, 0, 1]"] ;
385 -> 386 ;
387 [label="X[3416] <= 0.5\ngini = 1.0\nsamples = 5354\nvalue = [1, 1, 0 ... 1, 0, 1]"] ;
386 -> 387 ;
388 [label="X[8161] <= 0.5\ngini = 1.0\nsamples = 5353\nvalue = [1, 1, 0 ... 1, 0, 1]"] ;
387 -> 388 ;
389 [label="X[10349] <= 0.5\ngini = 1.0\nsamples = 5352\nvalue = [1, 1, 0 ... 1, 0, 1]"] ;
388 -> 389 ;
390 [label="X[10787] <= 0.5\ngini = 1.0\nsamples = 5350\nvalue = [1, 1, 0 ... 1, 0, 1]"] ;
389 -> 390 ;
391 [label="X[10299] <= 0.5\ngini = 1.0\nsamples = 5349\nvalue = [1, 1, 0 ... 1, 0, 1]"] ;
390 -> 391 ;
392 [label="X[12193] <= 0.5\ngini = 1.0\nsamples = 5348\nvalue = [1, 1, 0 ... 1, 0, 1]"] ;
391 -> 392 ;
393 [label="X[3383] <= 0.5\ngini = 1.0\nsamples = 5347\nvalue = [1, 1, 0 ... 1, 0, 1]"] ;
392 -> 393 ;
394 [label="X[2799] <= 0.5\ngini = 1.0\nsamples = 5346\nvalue = [1, 1, 0 ... 1, 0, 1]"] ;
393 -> 394 ;
395 [label="X[15254] <= 0.5\ngini = 1.0\nsamples = 5345\nvalue = [1, 1, 0 ... 1, 0, 1]"] ;
394 -> 395 ;
396 [label="X[7231] <= 0.5\ngini = 1.0\nsamples = 5343\nvalue = [1, 1, 0 ... 1, 0, 1]"] ;
395 -> 396 ;
397 [label="X[13228] <= 0.5\ngini = 1.0\nsamples = 5341\nvalue = [1, 1, 0 ... 1, 0, 1]"] ;
396 -> 397 ;
398 [label="X[15815] <= 0.5\ngini = 1.0\nsamples = 5339\nvalue = [1, 1, 0 ... 1, 0, 1]"] ;
397 -> 398 ;
399 [label="X[13454] <= 0.5\ngini = 1.0\nsamples = 5338\nvalue = [1, 1, 0 ... 1, 0, 1]"] ;
398 -> 399 ;
400 [label="X[6308] <= 0.5\ngini = 1.0\nsamples = 5337\nvalue = [1, 1, 0 ... 1, 0, 1]"] ;
399 -> 400 ;
401 [label="X[9790] <= 0.5\ngini = 1.0\nsamples = 5336\nvalue = [1, 1, 0 ... 1, 0, 1]"] ;
400 -> 401 ;
402 [label="X[17883] <= 0.5\ngini = 1.0\nsamples = 5332\nvalue = [1, 1, 0 ... 1, 0, 1]"] ;
401 -> 402 ;
403 [label="X[818] <= 0.5\ngini = 1.0\nsamples = 5330\nvalue = [1, 1, 0 ... 1, 0, 1]"] ;
402 -> 403 ;
404 [label="X[3140] <= 0.5\ngini = 1.0\nsamples = 5329\nvalue = [1, 1, 0 ... 1, 0, 1]"] ;
403 -> 404 ;
405 [label="X[11708] <= 0.5\ngini = 1.0\nsamples = 5317\nvalue = [1, 1, 0 ... 1, 0, 1]"] ;
404 -> 405 ;
406 [label="X[13876] <= 0.5\ngini = 1.0\nsamples = 5316\nvalue = [1, 1, 0 ... 1, 0, 1]"] ;
405 -> 406 ;
407 [label="X[2141] <= 0.5\ngini = 1.0\nsamples = 5315\nvalue = [1, 1, 0 ... 1, 0, 1]"] ;
406 -> 407 ;
408 [label="X[4022] <= 0.5\ngini = 1.0\nsamples = 5314\nvalue = [1, 1, 0 ... 1, 0, 1]"] ;
407 -> 408 ;
409 [label="X[14199] <= 0.5\ngini = 1.0\nsamples = 5313\nvalue = [1, 1, 0 ... 1, 0, 1]"] ;
408 -> 409 ;
410 [label="X[15604] <= 0.5\ngini = 1.0\nsamples = 5312\nvalue = [1, 1, 0 ... 1, 0, 1]"] ;
409 -> 410 ;
411 [label="X[4964] <= 0.5\ngini = 1.0\nsamples = 5311\nvalue = [1, 1, 0 ... 1, 0, 1]"] ;
410 -> 411 ;
412 [label="X[6307] <= 0.5\ngini = 1.0\nsamples = 5307\nvalue = [1, 1, 0 ... 1, 0, 1]"] ;
411 -> 412 ;
413 [label="X[4270] <= 0.5\ngini = 1.0\nsamples = 5306\nvalue = [1, 1, 0 ... 1, 0, 1]"] ;
412 -> 413 ;
414 [label="X[5834] <= 0.5\ngini = 1.0\nsamples = 5303\nvalue = [1, 1, 0 ... 1, 0, 1]"] ;
413 -> 414 ;
415 [label="X[4088] <= 0.5\ngini = 1.0\nsamples = 5302\nvalue = [1, 1, 0 ... 1, 0, 1]"] ;
414 -> 415 ;
416 [label="X[7587] <= 0.5\ngini = 1.0\nsamples = 5301\nvalue = [1, 1, 0 ... 1, 0, 1]"] ;
415 -> 416 ;
417 [label="X[9511] <= 0.5\ngini = 1.0\nsamples = 5300\nvalue = [1, 1, 0 ... 1, 0, 1]"] ;
416 -> 417 ;
418 [label="X[2693] <= 0.5\ngini = 1.0\nsamples = 5296\nvalue = [1, 1, 0 ... 1, 0, 1]"] ;
417 -> 418 ;
419 [label="X[13345] <= 0.5\ngini = 1.0\nsamples = 5289\nvalue = [1, 1, 0 ... 1, 0, 1]"] ;
418 -> 419 ;
420 [label="X[9143] <= 0.5\ngini = 1.0\nsamples = 5288\nvalue = [1, 1, 0 ... 1, 0, 1]"] ;
419 -> 420 ;
421 [label="X[13788] <= 0.5\ngini = 1.0\nsamples = 5284\nvalue = [1, 1, 0 ... 1, 0, 1]"] ;
420 -> 421 ;
422 [label="X[9275] <= 0.5\ngini = 1.0\nsamples = 5283\nvalue = [1, 1, 0 ... 1, 0, 1]"] ;
421 -> 422 ;
423 [label="X[17441] <= 0.5\ngini = 1.0\nsamples = 5281\nvalue = [1, 1, 0 ... 1, 0, 1]"] ;
422 -> 423 ;
424 [label="X[12664] <= 0.5\ngini = 1.0\nsamples = 5280\nvalue = [1, 1, 0 ... 1, 0, 1]"] ;
423 -> 424 ;
425 [label="X[15542] <= 0.5\ngini = 1.0\nsamples = 5279\nvalue = [1, 1, 0 ... 1, 0, 1]"] ;
424 -> 425 ;
426 [label="X[12545] <= 0.5\ngini = 1.0\nsamples = 5278\nvalue = [1, 1, 0 ... 1, 0, 1]"] ;
425 -> 426 ;
427 [label="X[13631] <= 0.5\ngini = 1.0\nsamples = 5277\nvalue = [1, 1, 0 ... 1, 0, 1]"] ;
426 -> 427 ;
428 [label="X[4005] <= 0.5\ngini = 1.0\nsamples = 5276\nvalue = [1, 1, 0 ... 1, 0, 1]"] ;
427 -> 428 ;
429 [label="X[105] <= 0.5\ngini = 1.0\nsamples = 5274\nvalue = [1, 1, 0 ... 1, 0, 1]"] ;
428 -> 429 ;
430 [label="X[4288] <= 0.5\ngini = 1.0\nsamples = 5263\nvalue = [1, 1, 0 ... 1, 0, 1]"] ;
429 -> 430 ;
431 [label="X[4112] <= 0.5\ngini = 1.0\nsamples = 5259\nvalue = [1, 1, 0 ... 1, 0, 1]"] ;
430 -> 431 ;
432 [label="X[13230] <= 0.5\ngini = 1.0\nsamples = 5258\nvalue = [1, 1, 0 ... 1, 0, 1]"] ;
431 -> 432 ;
433 [label="X[5578] <= 0.5\ngini = 1.0\nsamples = 5257\nvalue = [1, 1, 0 ... 1, 0, 1]"] ;
432 -> 433 ;
434 [label="X[3916] <= 0.5\ngini = 1.0\nsamples = 5256\nvalue = [1, 1, 0 ... 1, 0, 1]"] ;
433 -> 434 ;
435 [label="X[15222] <= 0.5\ngini = 1.0\nsamples = 5255\nvalue = [1, 1, 0 ... 1, 0, 1]"] ;
434 -> 435 ;
436 [label="X[4844] <= 0.5\ngini = 1.0\nsamples = 5254\nvalue = [1, 1, 0 ... 1, 0, 1]"] ;
435 -> 436 ;
437 [label="X[4442] <= 0.5\ngini = 1.0\nsamples = 5253\nvalue = [1, 1, 0 ... 1, 0, 1]"] ;
436 -> 437 ;
438 [label="X[9930] <= 0.5\ngini = 1.0\nsamples = 5245\nvalue = [1, 1, 0 ... 1, 0, 1]"] ;
437 -> 438 ;
439 [label="X[7208] <= 0.5\ngini = 1.0\nsamples = 5244\nvalue = [1, 1, 0 ... 1, 0, 1]"] ;
438 -> 439 ;
440 [label="X[1346] <= 0.5\ngini = 1.0\nsamples = 5243\nvalue = [1, 1, 0 ... 1, 0, 1]"] ;
439 -> 440 ;
441 [label="X[11512] <= 0.5\ngini = 1.0\nsamples = 5242\nvalue = [1, 1, 0 ... 1, 0, 1]"] ;
440 -> 441 ;
442 [label="X[5401] <= 0.5\ngini = 1.0\nsamples = 5241\nvalue = [1, 1, 0 ... 1, 0, 1]"] ;
441 -> 442 ;
443 [label="X[13268] <= 0.5\ngini = 1.0\nsamples = 5240\nvalue = [1, 1, 0 ... 1, 0, 1]"] ;
442 -> 443 ;
444 [label="X[1876] <= 0.5\ngini = 1.0\nsamples = 5239\nvalue = [1, 1, 0 ... 1, 0, 1]"] ;
443 -> 444 ;
445 [label="X[15332] <= 0.5\ngini = 1.0\nsamples = 5238\nvalue = [1, 1, 0 ... 1, 0, 1]"] ;
444 -> 445 ;
446 [label="X[12310] <= 0.5\ngini = 1.0\nsamples = 5237\nvalue = [1, 1, 0 ... 1, 0, 1]"] ;
445 -> 446 ;
447 [label="X[114] <= 0.5\ngini = 1.0\nsamples = 5236\nvalue = [1, 1, 0 ... 1, 0, 1]"] ;
446 -> 447 ;
448 [label="X[17307] <= 0.5\ngini = 1.0\nsamples = 5216\nvalue = [1, 1, 0 ... 1, 0, 1]"] ;
447 -> 448 ;
449 [label="X[5529] <= 0.5\ngini = 1.0\nsamples = 5215\nvalue = [1, 1, 0 ... 1, 0, 1]"] ;
448 -> 449 ;
450 [label="X[14700] <= 0.5\ngini = 1.0\nsamples = 5214\nvalue = [1, 1, 0 ... 1, 0, 1]"] ;
449 -> 450 ;
451 [label="X[7086] <= 0.5\ngini = 1.0\nsamples = 5211\nvalue = [1, 1, 0 ... 1, 0, 1]"] ;
450 -> 451 ;
452 [label="X[11178] <= 0.5\ngini = 1.0\nsamples = 5210\nvalue = [1, 1, 0 ... 1, 0, 1]"] ;
451 -> 452 ;
453 [label="X[11280] <= 0.5\ngini = 1.0\nsamples = 5209\nvalue = [1, 1, 0 ... 1, 0, 1]"] ;
452 -> 453 ;
454 [label="X[5207] <= 0.5\ngini = 1.0\nsamples = 5208\nvalue = [1, 1, 0 ... 1, 0, 1]"] ;
453 -> 454 ;
455 [label="X[11134] <= 0.5\ngini = 1.0\nsamples = 5207\nvalue = [1, 1, 0 ... 1, 0, 1]"] ;
454 -> 455 ;
456 [label="X[15462] <= 0.5\ngini = 1.0\nsamples = 5206\nvalue = [1, 1, 0 ... 1, 0, 1]"] ;
455 -> 456 ;
457 [label="X[10838] <= 0.5\ngini = 1.0\nsamples = 5205\nvalue = [1, 1, 0 ... 1, 0, 1]"] ;
456 -> 457 ;
458 [label="X[9759] <= 0.5\ngini = 1.0\nsamples = 5204\nvalue = [1, 1, 0 ... 1, 0, 1]"] ;
457 -> 458 ;
459 [label="X[8844] <= 0.5\ngini = 1.0\nsamples = 5203\nvalue = [1, 1, 0 ... 1, 0, 1]"] ;
458 -> 459 ;
460 [label="X[6863] <= 0.5\ngini = 1.0\nsamples = 5202\nvalue = [1, 1, 0 ... 1, 0, 1]"] ;
459 -> 460 ;
461 [label="X[15916] <= 0.5\ngini = 1.0\nsamples = 5193\nvalue = [1, 1, 0 ... 1, 0, 1]"] ;
460 -> 461 ;
462 [label="X[14338] <= 0.5\ngini = 1.0\nsamples = 5191\nvalue = [1, 1, 0 ... 1, 0, 1]"] ;
461 -> 462 ;
463 [label="X[16106] <= 0.5\ngini = 1.0\nsamples = 5190\nvalue = [1, 1, 0 ... 1, 0, 1]"] ;
462 -> 463 ;
464 [label="X[12927] <= 0.5\ngini = 1.0\nsamples = 5188\nvalue = [1, 1, 0 ... 1, 0, 1]"] ;
463 -> 464 ;
465 [label="X[663] <= 0.5\ngini = 1.0\nsamples = 5187\nvalue = [1, 1, 0 ... 1, 0, 1]"] ;
464 -> 465 ;
466 [label="X[6857] <= 0.5\ngini = 1.0\nsamples = 5021\nvalue = [1, 1, 0 ... 1, 0, 1]"] ;
465 -> 466 ;
467 [label="X[16049] <= 0.5\ngini = 1.0\nsamples = 5019\nvalue = [1, 1, 0 ... 1, 0, 1]"] ;
466 -> 467 ;
468 [label="X[14473] <= 0.5\ngini = 1.0\nsamples = 5016\nvalue = [1, 1, 0 ... 1, 0, 1]"] ;
467 -> 468 ;
469 [label="X[15687] <= 0.5\ngini = 1.0\nsamples = 5015\nvalue = [1, 1, 0 ... 1, 0, 1]"] ;
468 -> 469 ;
470 [label="X[3727] <= 0.5\ngini = 1.0\nsamples = 5014\nvalue = [1, 1, 0 ... 1, 0, 1]"] ;
469 -> 470 ;
471 [label="X[18056] <= 0.5\ngini = 1.0\nsamples = 5013\nvalue = [1, 1, 0 ... 1, 0, 1]"] ;
470 -> 471 ;
472 [label="X[9879] <= 0.5\ngini = 1.0\nsamples = 5012\nvalue = [1, 1, 0 ... 1, 0, 1]"] ;
471 -> 472 ;
473 [label="X[17288] <= 0.5\ngini = 1.0\nsamples = 5011\nvalue = [1, 1, 0 ... 1, 0, 1]"] ;
472 -> 473 ;
474 [label="X[16333] <= 0.5\ngini = 1.0\nsamples = 5010\nvalue = [1, 1, 0 ... 1, 0, 1]"] ;
473 -> 474 ;
475 [label="X[17192] <= 0.5\ngini = 1.0\nsamples = 5009\nvalue = [1, 1, 0 ... 1, 0, 1]"] ;
474 -> 475 ;
476 [label="X[9911] <= 0.5\ngini = 1.0\nsamples = 5008\nvalue = [1, 1, 0 ... 1, 0, 1]"] ;
475 -> 476 ;
477 [label="X[14642] <= 0.5\ngini = 1.0\nsamples = 5007\nvalue = [1, 1, 0 ... 1, 0, 1]"] ;
476 -> 477 ;
478 [label="X[4030] <= 0.5\ngini = 1.0\nsamples = 5006\nvalue = [1, 1, 0 ... 1, 0, 1]"] ;
477 -> 478 ;
479 [label="X[3169] <= 0.5\ngini = 1.0\nsamples = 5005\nvalue = [1, 1, 0 ... 1, 0, 1]"] ;
478 -> 479 ;
480 [label="X[15958] <= 0.5\ngini = 1.0\nsamples = 4990\nvalue = [1, 1, 0 ... 1, 0, 1]"] ;
479 -> 480 ;
481 [label="X[3146] <= 0.5\ngini = 1.0\nsamples = 4989\nvalue = [1, 1, 0 ... 1, 0, 1]"] ;
480 -> 481 ;
482 [label="X[16716] <= 0.5\ngini = 1.0\nsamples = 4988\nvalue = [1, 1, 0 ... 1, 0, 1]"] ;
481 -> 482 ;
483 [label="X[4780] <= 0.5\ngini = 1.0\nsamples = 4987\nvalue = [1, 1, 0 ... 1, 0, 1]"] ;
482 -> 483 ;
484 [label="X[1258] <= 0.5\ngini = 1.0\nsamples = 4986\nvalue = [1, 1, 0 ... 1, 0, 1]"] ;
483 -> 484 ;
485 [label="X[15311] <= 0.5\ngini = 1.0\nsamples = 4985\nvalue = [1, 1, 0 ... 1, 0, 1]"] ;
484 -> 485 ;
486 [label="X[6762] <= 0.5\ngini = 1.0\nsamples = 4984\nvalue = [1, 1, 0 ... 1, 0, 1]"] ;
485 -> 486 ;
487 [label="X[11973] <= 0.5\ngini = 1.0\nsamples = 4983\nvalue = [1, 1, 0 ... 1, 0, 1]"] ;
486 -> 487 ;
488 [label="X[13381] <= 0.5\ngini = 1.0\nsamples = 4982\nvalue = [1, 1, 0 ... 1, 0, 1]"] ;
487 -> 488 ;
489 [label="X[17962] <= 0.5\ngini = 1.0\nsamples = 4981\nvalue = [1, 1, 0 ... 1, 0, 1]"] ;
488 -> 489 ;
490 [label="X[17407] <= 0.5\ngini = 1.0\nsamples = 4980\nvalue = [1, 1, 0 ... 1, 0, 1]"] ;
489 -> 490 ;
491 [label="X[10094] <= 0.5\ngini = 1.0\nsamples = 4979\nvalue = [1, 1, 0 ... 1, 0, 1]"] ;
490 -> 491 ;
492 [label="X[5548] <= 0.5\ngini = 1.0\nsamples = 4978\nvalue = [1, 1, 0 ... 1, 0, 1]"] ;
491 -> 492 ;
493 [label="X[14919] <= 0.5\ngini = 1.0\nsamples = 4975\nvalue = [1, 1, 0 ... 1, 0, 1]"] ;
492 -> 493 ;
494 [label="X[13580] <= 0.5\ngini = 1.0\nsamples = 4974\nvalue = [1, 1, 0 ... 1, 0, 1]"] ;
493 -> 494 ;
495 [label="X[5125] <= 0.5\ngini = 1.0\nsamples = 4973\nvalue = [1, 1, 0 ... 1, 0, 1]"] ;
494 -> 495 ;
496 [label="X[1780] <= 0.5\ngini = 1.0\nsamples = 4969\nvalue = [1, 1, 0 ... 1, 0, 1]"] ;
495 -> 496 ;
497 [label="X[6261] <= 0.5\ngini = 1.0\nsamples = 4968\nvalue = [1, 1, 0 ... 1, 0, 1]"] ;
496 -> 497 ;
498 [label="X[11078] <= 0.5\ngini = 1.0\nsamples = 4967\nvalue = [1, 1, 0 ... 1, 0, 1]"] ;
497 -> 498 ;
499 [label="X[4566] <= 0.5\ngini = 1.0\nsamples = 4966\nvalue = [1, 1, 0 ... 1, 0, 1]"] ;
498 -> 499 ;
500 [label="X[15268] <= 0.5\ngini = 1.0\nsamples = 4965\nvalue = [1, 1, 0 ... 1, 0, 1]"] ;
499 -> 500 ;
501 [label="X[586] <= 0.5\ngini = 1.0\nsamples = 4964\nvalue = [1, 1, 0 ... 1, 0, 1]"] ;
500 -> 501 ;
502 [label="X[13927] <= 0.5\ngini = 1.0\nsamples = 4960\nvalue = [1, 1, 0 ... 1, 0, 1]"] ;
501 -> 502 ;
503 [label="X[637] <= 0.5\ngini = 1.0\nsamples = 4959\nvalue = [1, 1, 0 ... 1, 0, 1]"] ;
502 -> 503 ;
504 [label="X[3642] <= 0.5\ngini = 1.0\nsamples = 4958\nvalue = [1, 1, 0 ... 1, 0, 1]"] ;
503 -> 504 ;
505 [label="X[6189] <= 0.5\ngini = 1.0\nsamples = 4952\nvalue = [1, 1, 0 ... 1, 0, 1]"] ;
504 -> 505 ;
506 [label="X[6117] <= 0.5\ngini = 1.0\nsamples = 4950\nvalue = [1, 1, 0 ... 1, 0, 1]"] ;
505 -> 506 ;
507 [label="X[8740] <= 0.5\ngini = 1.0\nsamples = 4949\nvalue = [1, 1, 0 ... 1, 0, 1]"] ;
506 -> 507 ;
508 [label="X[5840] <= 0.5\ngini = 1.0\nsamples = 4947\nvalue = [1, 1, 0 ... 1, 0, 1]"] ;
507 -> 508 ;
509 [label="X[9159] <= 0.5\ngini = 1.0\nsamples = 4946\nvalue = [1, 1, 0 ... 1, 0, 1]"] ;
508 -> 509 ;
510 [label="X[2866] <= 0.5\ngini = 1.0\nsamples = 4945\nvalue = [1, 1, 0 ... 1, 0, 1]"] ;
509 -> 510 ;
511 [label="X[10599] <= 0.5\ngini = 1.0\nsamples = 4915\nvalue = [1, 1, 0 ... 1, 0, 1]"] ;
510 -> 511 ;
512 [label="X[7] <= 0.5\ngini = 1.0\nsamples = 4914\nvalue = [1, 1, 0 ... 1, 0, 1]"] ;
511 -> 512 ;
513 [label="X[4495] <= 0.5\ngini = 1.0\nsamples = 4088\nvalue = [1, 1, 0 ... 1, 0, 0]"] ;
512 -> 513 ;
514 [label="X[16748] <= 0.5\ngini = 1.0\nsamples = 4086\nvalue = [1, 1, 0 ... 1, 0, 0]"] ;
513 -> 514 ;
515 [label="X[4127] <= 0.5\ngini = 1.0\nsamples = 4085\nvalue = [1, 1, 0 ... 1, 0, 0]"] ;
514 -> 515 ;
516 [label="X[12178] <= 0.5\ngini = 1.0\nsamples = 4077\nvalue = [1, 1, 0 ... 1, 0, 0]"] ;
515 -> 516 ;
517 [label="X[7929] <= 0.5\ngini = 1.0\nsamples = 4076\nvalue = [1, 1, 0 ... 1, 0, 0]"] ;
516 -> 517 ;
518 [label="X[8090] <= 0.5\ngini = 1.0\nsamples = 4075\nvalue = [1, 1, 0 ... 1, 0, 0]"] ;
517 -> 518 ;
519 [label="X[8876] <= 0.5\ngini = 1.0\nsamples = 4074\nvalue = [1, 1, 0 ... 1, 0, 0]"] ;
518 -> 519 ;
520 [label="X[10364] <= 0.5\ngini = 1.0\nsamples = 4073\nvalue = [1, 1, 0 ... 1, 0, 0]"] ;
519 -> 520 ;
521 [label="X[14276] <= 0.5\ngini = 1.0\nsamples = 4072\nvalue = [1, 1, 0 ... 1, 0, 0]"] ;
520 -> 521 ;
522 [label="X[7269] <= 0.5\ngini = 1.0\nsamples = 4071\nvalue = [1, 1, 0 ... 1, 0, 0]"] ;
521 -> 522 ;
523 [label="X[8878] <= 0.5\ngini = 1.0\nsamples = 4070\nvalue = [1, 1, 0 ... 1, 0, 0]"] ;
522 -> 523 ;
524 [label="X[15471] <= 0.5\ngini = 1.0\nsamples = 4068\nvalue = [1, 1, 0 ... 1, 0, 0]"] ;
523 -> 524 ;
525 [label="X[10673] <= 0.5\ngini = 1.0\nsamples = 4067\nvalue = [1, 1, 0 ... 1, 0, 0]"] ;
524 -> 525 ;
526 [label="X[13245] <= 0.5\ngini = 1.0\nsamples = 4065\nvalue = [1, 1, 0 ... 1, 0, 0]"] ;
525 -> 526 ;
527 [label="X[4147] <= 0.5\ngini = 1.0\nsamples = 4063\nvalue = [1, 1, 0 ... 1, 0, 0]"] ;
526 -> 527 ;
528 [label="X[10030] <= 0.5\ngini = 1.0\nsamples = 4058\nvalue = [1, 1, 0 ... 1, 0, 0]"] ;
527 -> 528 ;
529 [label="X[15592] <= 0.5\ngini = 1.0\nsamples = 4053\nvalue = [1, 1, 0 ... 1, 0, 0]"] ;
528 -> 529 ;
530 [label="X[11114] <= 0.5\ngini = 1.0\nsamples = 4052\nvalue = [1, 1, 0 ... 1, 0, 0]"] ;
529 -> 530 ;
531 [label="X[422] <= 0.5\ngini = 1.0\nsamples = 4051\nvalue = [1, 1, 0 ... 1, 0, 0]"] ;
530 -> 531 ;
532 [label="X[10746] <= 0.5\ngini = 1.0\nsamples = 4050\nvalue = [1, 1, 0 ... 1, 0, 0]"] ;
531 -> 532 ;
533 [label="X[2375] <= 0.5\ngini = 1.0\nsamples = 4049\nvalue = [1, 1, 0 ... 1, 0, 0]"] ;
532 -> 533 ;
534 [label="X[1375] <= 0.5\ngini = 1.0\nsamples = 4047\nvalue = [1, 1, 0 ... 1, 0, 0]"] ;
533 -> 534 ;
535 [label="X[1989] <= 0.5\ngini = 1.0\nsamples = 4045\nvalue = [1, 1, 0 ... 1, 0, 0]"] ;
534 -> 535 ;
536 [label="X[9523] <= 0.5\ngini = 1.0\nsamples = 4043\nvalue = [1, 1, 0 ... 1, 0, 0]"] ;
535 -> 536 ;
537 [label="X[2264] <= 0.5\ngini = 1.0\nsamples = 4038\nvalue = [1, 1, 0 ... 1, 0, 0]"] ;
536 -> 537 ;
538 [label="X[11917] <= 0.5\ngini = 1.0\nsamples = 4037\nvalue = [1, 1, 0 ... 1, 0, 0]"] ;
537 -> 538 ;
539 [label="X[8760] <= 0.5\ngini = 1.0\nsamples = 4036\nvalue = [1, 1, 0 ... 1, 0, 0]"] ;
538 -> 539 ;
540 [label="X[897] <= 0.5\ngini = 1.0\nsamples = 4035\nvalue = [1, 1, 0 ... 1, 0, 0]"] ;
539 -> 540 ;
541 [label="X[12857] <= 0.5\ngini = 1.0\nsamples = 4031\nvalue = [1, 1, 0 ... 1, 0, 0]"] ;
540 -> 541 ;
542 [label="X[10190] <= 0.5\ngini = 1.0\nsamples = 4029\nvalue = [1, 1, 0 ... 1, 0, 0]"] ;
541 -> 542 ;
543 [label="X[13507] <= 0.5\ngini = 1.0\nsamples = 4028\nvalue = [1, 1, 0 ... 1, 0, 0]"] ;
542 -> 543 ;
544 [label="X[14967] <= 0.5\ngini = 1.0\nsamples = 4027\nvalue = [1, 1, 0 ... 1, 0, 0]"] ;
543 -> 544 ;
545 [label="X[5903] <= 0.5\ngini = 1.0\nsamples = 4026\nvalue = [1, 1, 0 ... 1, 0, 0]"] ;
544 -> 545 ;
546 [label="X[11698] <= 0.5\ngini = 1.0\nsamples = 4024\nvalue = [1, 1, 0 ... 1, 0, 0]"] ;
545 -> 546 ;
547 [label="X[17552] <= 0.5\ngini = 1.0\nsamples = 4023\nvalue = [1, 1, 0 ... 1, 0, 0]"] ;
546 -> 547 ;
548 [label="X[6264] <= 0.5\ngini = 1.0\nsamples = 4022\nvalue = [1, 1, 0 ... 1, 0, 0]"] ;
547 -> 548 ;
549 [label="X[2282] <= 0.5\ngini = 1.0\nsamples = 4021\nvalue = [1, 1, 0 ... 1, 0, 0]"] ;
548 -> 549 ;
550 [label="X[15500] <= 0.5\ngini = 1.0\nsamples = 4020\nvalue = [1, 1, 0 ... 1, 0, 0]"] ;
549 -> 550 ;
551 [label="X[16232] <= 0.5\ngini = 1.0\nsamples = 4019\nvalue = [1, 1, 0 ... 1, 0, 0]"] ;
550 -> 551 ;
552 [label="X[9434] <= 0.5\ngini = 1.0\nsamples = 4018\nvalue = [1, 1, 0 ... 1, 0, 0]"] ;
551 -> 552 ;
553 [label="X[4972] <= 0.5\ngini = 1.0\nsamples = 4017\nvalue = [1, 1, 0 ... 1, 0, 0]"] ;
552 -> 553 ;
554 [label="X[4068] <= 0.5\ngini = 1.0\nsamples = 4016\nvalue = [1, 1, 0 ... 1, 0, 0]"] ;
553 -> 554 ;
555 [label="X[15022] <= 0.5\ngini = 1.0\nsamples = 4010\nvalue = [1, 1, 0 ... 1, 0, 0]"] ;
554 -> 555 ;
556 [label="X[17647] <= 0.5\ngini = 1.0\nsamples = 4009\nvalue = [1, 1, 0 ... 1, 0, 0]"] ;
555 -> 556 ;
557 [label="X[2434] <= 0.5\ngini = 1.0\nsamples = 4008\nvalue = [1, 1, 0 ... 1, 0, 0]"] ;
556 -> 557 ;
558 [label="X[7541] <= 0.5\ngini = 1.0\nsamples = 4007\nvalue = [1, 1, 0 ... 1, 0, 0]"] ;
557 -> 558 ;
559 [label="X[5092] <= 0.5\ngini = 1.0\nsamples = 4006\nvalue = [1, 1, 0 ... 1, 0, 0]"] ;
558 -> 559 ;
560 [label="X[8667] <= 0.5\ngini = 1.0\nsamples = 4005\nvalue = [1, 1, 0 ... 1, 0, 0]"] ;
559 -> 560 ;
561 [label="X[13827] <= 0.5\ngini = 1.0\nsamples = 4004\nvalue = [1, 1, 0 ... 1, 0, 0]"] ;
560 -> 561 ;
562 [label="X[14737] <= 0.5\ngini = 1.0\nsamples = 4003\nvalue = [1, 1, 0 ... 1, 0, 0]"] ;
561 -> 562 ;
563 [label="X[12374] <= 0.5\ngini = 1.0\nsamples = 4002\nvalue = [1, 1, 0 ... 1, 0, 0]"] ;
562 -> 563 ;
564 [label="X[5156] <= 0.5\ngini = 1.0\nsamples = 3999\nvalue = [1, 1, 0 ... 1, 0, 0]"] ;
563 -> 564 ;
565 [label="X[655] <= 0.5\ngini = 1.0\nsamples = 3998\nvalue = [1, 1, 0 ... 1, 0, 0]"] ;
564 -> 565 ;
566 [label="X[5310] <= 0.5\ngini = 1.0\nsamples = 3953\nvalue = [1, 1, 0 ... 1, 0, 0]"] ;
565 -> 566 ;
567 [label="X[12005] <= 0.5\ngini = 1.0\nsamples = 3932\nvalue = [1, 1, 0 ... 1, 0, 0]"] ;
566 -> 567 ;
568 [label="X[11218] <= 0.5\ngini = 1.0\nsamples = 3931\nvalue = [1, 1, 0 ... 1, 0, 0]"] ;
567 -> 568 ;
569 [label="X[8595] <= 0.5\ngini = 1.0\nsamples = 3930\nvalue = [1, 1, 0 ... 1, 0, 0]"] ;
568 -> 569 ;
570 [label="X[7922] <= 0.5\ngini = 1.0\nsamples = 3929\nvalue = [1, 1, 0 ... 1, 0, 0]"] ;
569 -> 570 ;
571 [label="X[1584] <= 0.5\ngini = 1.0\nsamples = 3928\nvalue = [1, 1, 0 ... 1, 0, 0]"] ;
570 -> 571 ;
572 [label="X[3354] <= 0.5\ngini = 1.0\nsamples = 3912\nvalue = [1, 1, 0 ... 1, 0, 0]"] ;
571 -> 572 ;
573 [label="X[4725] <= 0.5\ngini = 1.0\nsamples = 3911\nvalue = [1, 1, 0 ... 1, 0, 0]"] ;
572 -> 573 ;
574 [label="X[186] <= 0.5\ngini = 1.0\nsamples = 3910\nvalue = [1, 1, 0 ... 1, 0, 0]"] ;
573 -> 574 ;
575 [label="X[3508] <= 0.5\ngini = 1.0\nsamples = 3907\nvalue = [1, 1, 0 ... 1, 0, 0]"] ;
574 -> 575 ;
576 [label="X[15806] <= 0.5\ngini = 1.0\nsamples = 3906\nvalue = [1, 1, 0 ... 1, 0, 0]"] ;
575 -> 576 ;
577 [label="X[2080] <= 0.5\ngini = 1.0\nsamples = 3905\nvalue = [1, 1, 0 ... 1, 0, 0]"] ;
576 -> 577 ;
578 [label="X[8704] <= 0.5\ngini = 1.0\nsamples = 3904\nvalue = [1, 1, 0 ... 1, 0, 0]"] ;
577 -> 578 ;
579 [label="X[7025] <= 0.5\ngini = 1.0\nsamples = 3902\nvalue = [1, 1, 0 ... 1, 0, 0]"] ;
578 -> 579 ;
580 [label="X[10561] <= 0.5\ngini = 1.0\nsamples = 3900\nvalue = [1, 1, 0 ... 1, 0, 0]"] ;
579 -> 580 ;
581 [label="X[5970] <= 0.5\ngini = 1.0\nsamples = 3898\nvalue = [1, 1, 0 ... 1, 0, 0]"] ;
580 -> 581 ;
582 [label="X[11497] <= 0.5\ngini = 1.0\nsamples = 3897\nvalue = [1, 1, 0 ... 1, 0, 0]"] ;
581 -> 582 ;
583 [label="X[5956] <= 0.5\ngini = 1.0\nsamples = 3893\nvalue = [1, 1, 0 ... 1, 0, 0]"] ;
582 -> 583 ;
584 [label="X[5112] <= 0.5\ngini = 1.0\nsamples = 3892\nvalue = [1, 1, 0 ... 1, 0, 0]"] ;
583 -> 584 ;
585 [label="X[4547] <= 0.5\ngini = 1.0\nsamples = 3891\nvalue = [1, 1, 0 ... 1, 0, 0]"] ;
584 -> 585 ;
586 [label="X[4905] <= 0.5\ngini = 1.0\nsamples = 3890\nvalue = [1, 1, 0 ... 1, 0, 0]"] ;
585 -> 586 ;
587 [label="X[8445] <= 0.5\ngini = 1.0\nsamples = 3888\nvalue = [1, 1, 0 ... 1, 0, 0]"] ;
586 -> 587 ;
588 [label="X[5290] <= 0.5\ngini = 1.0\nsamples = 3887\nvalue = [1, 1, 0 ... 1, 0, 0]"] ;
587 -> 588 ;
589 [label="X[15006] <= 0.5\ngini = 1.0\nsamples = 3885\nvalue = [1, 1, 0 ... 1, 0, 0]"] ;
588 -> 589 ;
590 [label="X[135] <= 0.5\ngini = 1.0\nsamples = 3884\nvalue = [1, 1, 0 ... 1, 0, 0]"] ;
589 -> 590 ;
591 [label="X[13294] <= 0.5\ngini = 1.0\nsamples = 3883\nvalue = [1, 1, 0 ... 1, 0, 0]"] ;
590 -> 591 ;
592 [label="X[498] <= 0.5\ngini = 1.0\nsamples = 3881\nvalue = [1, 1, 0 ... 1, 0, 0]"] ;
591 -> 592 ;
593 [label="X[13724] <= 0.5\ngini = 1.0\nsamples = 3875\nvalue = [1, 1, 0 ... 1, 0, 0]"] ;
592 -> 593 ;
594 [label="X[1637] <= 0.5\ngini = 1.0\nsamples = 3874\nvalue = [1, 1, 0 ... 1, 0, 0]"] ;
593 -> 594 ;
595 [label="X[15303] <= 0.5\ngini = 1.0\nsamples = 3873\nvalue = [1, 1, 0 ... 1, 0, 0]"] ;
594 -> 595 ;
596 [label="X[1493] <= 0.5\ngini = 1.0\nsamples = 3872\nvalue = [1, 1, 0 ... 1, 0, 0]"] ;
595 -> 596 ;
597 [label="X[15396] <= 0.5\ngini = 1.0\nsamples = 3866\nvalue = [1, 1, 0 ... 1, 0, 0]"] ;
596 -> 597 ;
598 [label="X[9253] <= 0.5\ngini = 1.0\nsamples = 3865\nvalue = [1, 1, 0 ... 1, 0, 0]"] ;
597 -> 598 ;
599 [label="X[9961] <= 0.5\ngini = 1.0\nsamples = 3864\nvalue = [1, 1, 0 ... 1, 0, 0]"] ;
598 -> 599 ;
600 [label="X[2039] <= 0.5\ngini = 1.0\nsamples = 3863\nvalue = [1, 1, 0 ... 1, 0, 0]"] ;
599 -> 600 ;
601 [label="X[12476] <= 0.5\ngini = 1.0\nsamples = 3862\nvalue = [1, 1, 0 ... 1, 0, 0]"] ;
600 -> 601 ;
602 [label="X[2792] <= 0.5\ngini = 1.0\nsamples = 3859\nvalue = [1, 1, 0 ... 1, 0, 0]"] ;
601 -> 602 ;
603 [label="X[1395] <= 0.5\ngini = 1.0\nsamples = 3857\nvalue = [1, 1, 0 ... 1, 0, 0]"] ;
602 -> 603 ;
604 [label="X[2376] <= 0.5\ngini = 1.0\nsamples = 3856\nvalue = [1, 1, 0 ... 1, 0, 0]"] ;
603 -> 604 ;
605 [label="X[5714] <= 0.5\ngini = 1.0\nsamples = 3822\nvalue = [1, 1, 0 ... 1, 0, 0]"] ;
604 -> 605 ;
606 [label="X[16152] <= 0.5\ngini = 1.0\nsamples = 3821\nvalue = [1, 1, 0 ... 1, 0, 0]"] ;
605 -> 606 ;
607 [label="X[3824] <= 0.5\ngini = 1.0\nsamples = 3819\nvalue = [1, 1, 0 ... 1, 0, 0]"] ;
606 -> 607 ;
608 [label="X[11762] <= 0.5\ngini = 1.0\nsamples = 3818\nvalue = [1, 1, 0 ... 1, 0, 0]"] ;
607 -> 608 ;
609 [label="X[13162] <= 0.5\ngini = 1.0\nsamples = 3817\nvalue = [1, 1, 0 ... 1, 0, 0]"] ;
608 -> 609 ;
610 [label="X[3166] <= 0.5\ngini = 1.0\nsamples = 3816\nvalue = [1, 1, 0 ... 1, 0, 0]"] ;
609 -> 610 ;
611 [label="X[2595] <= 0.5\ngini = 1.0\nsamples = 3815\nvalue = [1, 1, 0 ... 1, 0, 0]"] ;
610 -> 611 ;
612 [label="X[1414] <= 0.5\ngini = 1.0\nsamples = 3814\nvalue = [1, 1, 0 ... 1, 0, 0]"] ;
611 -> 612 ;
613 [label="X[14168] <= 0.5\ngini = 1.0\nsamples = 3809\nvalue = [1, 1, 0 ... 1, 0, 0]"] ;
612 -> 613 ;
614 [label="X[12575] <= 0.5\ngini = 1.0\nsamples = 3808\nvalue = [1, 1, 0 ... 1, 0, 0]"] ;
613 -> 614 ;
615 [label="X[17899] <= 0.5\ngini = 1.0\nsamples = 3806\nvalue = [1, 1, 0 ... 1, 0, 0]"] ;
614 -> 615 ;
616 [label="X[3654] <= 0.5\ngini = 1.0\nsamples = 3805\nvalue = [1, 1, 0 ... 1, 0, 0]"] ;
615 -> 616 ;
617 [label="X[13680] <= 0.5\ngini = 1.0\nsamples = 3798\nvalue = [1, 1, 0 ... 1, 0, 0]"] ;
616 -> 617 ;
618 [label="X[9464] <= 0.5\ngini = 1.0\nsamples = 3797\nvalue = [1, 1, 0 ... 1, 0, 0]"] ;
617 -> 618 ;
619 [label="X[2602] <= 0.5\ngini = 1.0\nsamples = 3795\nvalue = [1, 1, 0 ... 1, 0, 0]"] ;
618 -> 619 ;
620 [label="X[1393] <= 0.5\ngini = 1.0\nsamples = 3794\nvalue = [1, 1, 0 ... 1, 0, 0]"] ;
619 -> 620 ;
621 [label="X[13424] <= 0.5\ngini = 1.0\nsamples = 3793\nvalue = [1, 1, 0 ... 1, 0, 0]"] ;
620 -> 621 ;
622 [label="X[17601] <= 0.5\ngini = 1.0\nsamples = 3792\nvalue = [1, 1, 0 ... 1, 0, 0]"] ;
621 -> 622 ;
623 [label="X[15673] <= 0.5\ngini = 1.0\nsamples = 3791\nvalue = [1, 1, 0 ... 1, 0, 0]"] ;
622 -> 623 ;
624 [label="X[13508] <= 0.5\ngini = 1.0\nsamples = 3790\nvalue = [1, 1, 0 ... 1, 0, 0]"] ;
623 -> 624 ;
625 [label="X[492] <= 0.5\ngini = 1.0\nsamples = 3789\nvalue = [1, 1, 0 ... 1, 0, 0]"] ;
624 -> 625 ;
626 [label="X[10416] <= 0.5\ngini = 1.0\nsamples = 3787\nvalue = [1, 1, 0 ... 1, 0, 0]"] ;
625 -> 626 ;
627 [label="X[10747] <= 0.5\ngini = 1.0\nsamples = 3786\nvalue = [1, 1, 0 ... 1, 0, 0]"] ;
626 -> 627 ;
628 [label="X[8958] <= 0.5\ngini = 1.0\nsamples = 3785\nvalue = [1, 1, 0 ... 1, 0, 0]"] ;
627 -> 628 ;
629 [label="X[13861] <= 0.5\ngini = 1.0\nsamples = 3777\nvalue = [1, 1, 0 ... 1, 0, 0]"] ;
628 -> 629 ;
630 [label="X[6612] <= 0.5\ngini = 1.0\nsamples = 3773\nvalue = [1, 1, 0 ... 1, 0, 0]"] ;
629 -> 630 ;
631 [label="X[9323] <= 0.5\ngini = 1.0\nsamples = 3772\nvalue = [1, 1, 0 ... 1, 0, 0]"] ;
630 -> 631 ;
632 [label="X[14428] <= 0.5\ngini = 1.0\nsamples = 3771\nvalue = [1, 1, 0 ... 1, 0, 0]"] ;
631 -> 632 ;
633 [label="X[7770] <= 0.5\ngini = 1.0\nsamples = 3770\nvalue = [1, 1, 0 ... 1, 0, 0]"] ;
632 -> 633 ;
634 [label="X[14387] <= 0.5\ngini = 1.0\nsamples = 3769\nvalue = [1, 1, 0 ... 1, 0, 0]"] ;
633 -> 634 ;
635 [label="X[11980] <= 0.5\ngini = 1.0\nsamples = 3768\nvalue = [1, 1, 0 ... 1, 0, 0]"] ;
634 -> 635 ;
636 [label="X[12065] <= 0.5\ngini = 1.0\nsamples = 3766\nvalue = [1, 1, 0 ... 1, 0, 0]"] ;
635 -> 636 ;
637 [label="X[14705] <= 0.5\ngini = 1.0\nsamples = 3765\nvalue = [1, 1, 0 ... 1, 0, 0]"] ;
636 -> 637 ;
638 [label="X[13113] <= 0.5\ngini = 1.0\nsamples = 3764\nvalue = [1, 1, 0 ... 1, 0, 0]"] ;
637 -> 638 ;
639 [label="X[12318] <= 0.5\ngini = 1.0\nsamples = 3762\nvalue = [1, 1, 0 ... 1, 0, 0]"] ;
638 -> 639 ;
640 [label="X[11251] <= 0.5\ngini = 1.0\nsamples = 3761\nvalue = [1, 1, 0 ... 1, 0, 0]"] ;
639 -> 640 ;
641 [label="X[14909] <= 0.5\ngini = 1.0\nsamples = 3760\nvalue = [1, 1, 0 ... 1, 0, 0]"] ;
640 -> 641 ;
642 [label="X[848] <= 0.5\ngini = 1.0\nsamples = 3759\nvalue = [1, 1, 0 ... 1, 0, 0]"] ;
641 -> 642 ;
643 [label="X[1339] <= 0.5\ngini = 1.0\nsamples = 3723\nvalue = [1, 1, 0 ... 1, 0, 0]"] ;
642 -> 643 ;
644 [label="X[6824] <= 0.5\ngini = 1.0\nsamples = 3720\nvalue = [1, 1, 0 ... 1, 0, 0]"] ;
643 -> 644 ;
645 [label="X[11371] <= 0.5\ngini = 1.0\nsamples = 3719\nvalue = [1, 1, 0 ... 1, 0, 0]"] ;
644 -> 645 ;
646 [label="X[15310] <= 0.5\ngini = 1.0\nsamples = 3718\nvalue = [1, 1, 0 ... 1, 0, 0]"] ;
645 -> 646 ;
647 [label="X[6553] <= 0.5\ngini = 1.0\nsamples = 3717\nvalue = [1, 1, 0 ... 1, 0, 0]"] ;
646 -> 647 ;
648 [label="X[17777] <= 0.5\ngini = 1.0\nsamples = 3716\nvalue = [1, 1, 0 ... 1, 0, 0]"] ;
647 -> 648 ;
649 [label="X[3612] <= 0.5\ngini = 1.0\nsamples = 3715\nvalue = [1, 1, 0 ... 1, 0, 0]"] ;
648 -> 649 ;
650 [label="X[5418] <= 0.5\ngini = 1.0\nsamples = 3714\nvalue = [1, 1, 0 ... 1, 0, 0]"] ;
649 -> 650 ;
651 [label="X[4671] <= 0.5\ngini = 1.0\nsamples = 3713\nvalue = [1, 1, 0 ... 1, 0, 0]"] ;
650 -> 651 ;
652 [label="X[13098] <= 0.5\ngini = 1.0\nsamples = 3712\nvalue = [1, 1, 0 ... 1, 0, 0]"] ;
651 -> 652 ;
653 [label="X[4292] <= 0.5\ngini = 1.0\nsamples = 3711\nvalue = [1, 1, 0 ... 1, 0, 0]"] ;
652 -> 653 ;
654 [label="X[457] <= 0.5\ngini = 1.0\nsamples = 3709\nvalue = [1, 1, 0 ... 1, 0, 0]"] ;
653 -> 654 ;
655 [label="X[2848] <= 0.5\ngini = 1.0\nsamples = 3703\nvalue = [1, 1, 0 ... 1, 0, 0]"] ;
654 -> 655 ;
656 [label="X[9069] <= 0.5\ngini = 1.0\nsamples = 3702\nvalue = [1, 1, 0 ... 1, 0, 0]"] ;
655 -> 656 ;
657 [label="X[4001] <= 0.5\ngini = 1.0\nsamples = 3701\nvalue = [1, 1, 0 ... 1, 0, 0]"] ;
656 -> 657 ;
658 [label="X[1582] <= 0.5\ngini = 1.0\nsamples = 3699\nvalue = [1, 1, 0 ... 1, 0, 0]"] ;
657 -> 658 ;
659 [label="X[9310] <= 0.5\ngini = 1.0\nsamples = 3696\nvalue = [1, 1, 0 ... 1, 0, 0]"] ;
658 -> 659 ;
660 [label="X[12402] <= 0.5\ngini = 1.0\nsamples = 3694\nvalue = [1, 1, 0 ... 1, 0, 0]"] ;
659 -> 660 ;
661 [label="X[278] <= 0.5\ngini = 1.0\nsamples = 3693\nvalue = [1, 1, 0 ... 1, 0, 0]"] ;
660 -> 661 ;
662 [label="X[5899] <= 0.5\ngini = 1.0\nsamples = 3690\nvalue = [1, 1, 0 ... 1, 0, 0]"] ;
661 -> 662 ;
663 [label="X[16203] <= 0.5\ngini = 1.0\nsamples = 3689\nvalue = [1, 1, 0 ... 1, 0, 0]"] ;
662 -> 663 ;
664 [label="X[11664] <= 0.5\ngini = 1.0\nsamples = 3688\nvalue = [1, 1, 0 ... 1, 0, 0]"] ;
663 -> 664 ;
665 [label="X[633] <= 0.5\ngini = 1.0\nsamples = 3684\nvalue = [1, 1, 0 ... 1, 0, 0]"] ;
664 -> 665 ;
666 [label="X[6107] <= 0.5\ngini = 1.0\nsamples = 3680\nvalue = [1, 1, 0 ... 1, 0, 0]"] ;
665 -> 666 ;
667 [label="X[4503] <= 0.5\ngini = 1.0\nsamples = 3679\nvalue = [1, 1, 0 ... 1, 0, 0]"] ;
666 -> 667 ;
668 [label="X[8550] <= 0.5\ngini = 1.0\nsamples = 3677\nvalue = [1, 1, 0 ... 1, 0, 0]"] ;
667 -> 668 ;
669 [label="X[421] <= 0.5\ngini = 1.0\nsamples = 3676\nvalue = [1, 1, 0 ... 1, 0, 0]"] ;
668 -> 669 ;
670 [label="X[5441] <= 0.5\ngini = 1.0\nsamples = 3669\nvalue = [1, 1, 0 ... 1, 0, 0]"] ;
669 -> 670 ;
671 [label="X[5717] <= 0.5\ngini = 1.0\nsamples = 3668\nvalue = [1, 1, 0 ... 1, 0, 0]"] ;
670 -> 671 ;
672 [label="X[17435] <= 0.5\ngini = 1.0\nsamples = 3665\nvalue = [1, 1, 0 ... 1, 0, 0]"] ;
671 -> 672 ;
673 [label="X[7658] <= 0.5\ngini = 1.0\nsamples = 3664\nvalue = [1, 1, 0 ... 1, 0, 0]"] ;
672 -> 673 ;
674 [label="X[6791] <= 0.5\ngini = 1.0\nsamples = 3663\nvalue = [1, 1, 0 ... 1, 0, 0]"] ;
673 -> 674 ;
675 [label="X[12753] <= 0.5\ngini = 1.0\nsamples = 3662\nvalue = [1, 1, 0 ... 1, 0, 0]"] ;
674 -> 675 ;
676 [label="X[13603] <= 0.5\ngini = 1.0\nsamples = 3660\nvalue = [1, 1, 0 ... 1, 0, 0]"] ;
675 -> 676 ;
677 [label="X[2148] <= 0.5\ngini = 1.0\nsamples = 3658\nvalue = [1, 1, 0 ... 1, 0, 0]"] ;
676 -> 677 ;
678 [label="X[4142] <= 0.5\ngini = 1.0\nsamples = 3657\nvalue = [1, 1, 0 ... 1, 0, 0]"] ;
677 -> 678 ;
679 [label="X[17801] <= 0.5\ngini = 1.0\nsamples = 3656\nvalue = [1, 1, 0 ... 1, 0, 0]"] ;
678 -> 679 ;
680 [label="X[7954] <= 0.5\ngini = 1.0\nsamples = 3655\nvalue = [1, 1, 0 ... 1, 0, 0]"] ;
679 -> 680 ;
681 [label="X[6155] <= 0.5\ngini = 1.0\nsamples = 3654\nvalue = [1, 1, 0 ... 1, 0, 0]"] ;
680 -> 681 ;
682 [label="X[662] <= 0.5\ngini = 1.0\nsamples = 3653\nvalue = [1, 1, 0 ... 1, 0, 0]"] ;
681 -> 682 ;
683 [label="X[1482] <= 0.5\ngini = 1.0\nsamples = 3568\nvalue = [1, 1, 0 ... 1, 0, 0]"] ;
682 -> 683 ;
684 [label="X[14576] <= 0.5\ngini = 1.0\nsamples = 3565\nvalue = [1, 1, 0 ... 1, 0, 0]"] ;
683 -> 684 ;
685 [label="X[14329] <= 0.5\ngini = 1.0\nsamples = 3564\nvalue = [1, 1, 0 ... 1, 0, 0]"] ;
684 -> 685 ;
686 [label="X[1052] <= 0.5\ngini = 1.0\nsamples = 3563\nvalue = [1, 1, 0 ... 1, 0, 0]"] ;
685 -> 686 ;
687 [label="X[2463] <= 0.5\ngini = 1.0\nsamples = 3561\nvalue = [1, 1, 0 ... 1, 0, 0]"] ;
686 -> 687 ;
688 [label="X[16694] <= 0.5\ngini = 1.0\nsamples = 3530\nvalue = [1, 1, 0 ... 1, 0, 0]"] ;
687 -> 688 ;
689 [label="X[7798] <= 0.5\ngini = 1.0\nsamples = 3529\nvalue = [1, 1, 0 ... 1, 0, 0]"] ;
688 -> 689 ;
690 [label="X[12936] <= 0.5\ngini = 1.0\nsamples = 3528\nvalue = [1, 1, 0 ... 1, 0, 0]"] ;
689 -> 690 ;
691 [label="X[8449] <= 0.5\ngini = 1.0\nsamples = 3527\nvalue = [1, 1, 0 ... 1, 0, 0]"] ;
690 -> 691 ;
692 [label="X[1739] <= 0.5\ngini = 1.0\nsamples = 3526\nvalue = [1, 1, 0 ... 1, 0, 0]"] ;
691 -> 692 ;
693 [label="X[10189] <= 0.5\ngini = 1.0\nsamples = 3519\nvalue = [1, 1, 0 ... 1, 0, 0]"] ;
692 -> 693 ;
694 [label="X[14] <= 0.5\ngini = 1.0\nsamples = 3518\nvalue = [1, 1, 0 ... 1, 0, 0]"] ;
693 -> 694 ;
695 [label="X[5673] <= 0.5\ngini = 1.0\nsamples = 3474\nvalue = [1, 1, 0 ... 1, 0, 0]"] ;
694 -> 695 ;
696 [label="X[15725] <= 0.5\ngini = 1.0\nsamples = 3473\nvalue = [1, 1, 0 ... 1, 0, 0]"] ;
695 -> 696 ;
697 [label="X[16659] <= 0.5\ngini = 1.0\nsamples = 3472\nvalue = [1, 1, 0 ... 1, 0, 0]"] ;
696 -> 697 ;
698 [label="X[12117] <= 0.5\ngini = 1.0\nsamples = 3471\nvalue = [1, 1, 0 ... 1, 0, 0]"] ;
697 -> 698 ;
699 [label="X[9536] <= 0.5\ngini = 1.0\nsamples = 3470\nvalue = [1, 1, 0 ... 1, 0, 0]"] ;
698 -> 699 ;
700 [label="X[14581] <= 0.5\ngini = 1.0\nsamples = 3468\nvalue = [1, 1, 0 ... 1, 0, 0]"] ;
699 -> 700 ;
701 [label="X[625] <= 0.5\ngini = 1.0\nsamples = 3467\nvalue = [1, 1, 0 ... 1, 0, 0]"] ;
700 -> 701 ;
702 [label="X[10721] <= 0.5\ngini = 1.0\nsamples = 3466\nvalue = [1, 1, 0 ... 1, 0, 0]"] ;
701 -> 702 ;
703 [label="X[10939] <= 0.5\ngini = 1.0\nsamples = 3465\nvalue = [1, 1, 0 ... 1, 0, 0]"] ;
702 -> 703 ;
704 [label="X[10796] <= 0.5\ngini = 1.0\nsamples = 3464\nvalue = [1, 1, 0 ... 1, 0, 0]"] ;
703 -> 704 ;
705 [label="X[11272] <= 0.5\ngini = 1.0\nsamples = 3463\nvalue = [1, 1, 0 ... 1, 0, 0]"] ;
704 -> 705 ;
706 [label="X[2805] <= 0.5\ngini = 1.0\nsamples = 3462\nvalue = [1, 1, 0 ... 1, 0, 0]"] ;
705 -> 706 ;
707 [label="X[11684] <= 0.5\ngini = 1.0\nsamples = 3461\nvalue = [1, 1, 0 ... 1, 0, 0]"] ;
706 -> 707 ;
708 [label="X[257] <= 0.5\ngini = 1.0\nsamples = 3458\nvalue = [1, 1, 0 ... 1, 0, 0]"] ;
707 -> 708 ;
709 [label="X[6644] <= 0.5\ngini = 1.0\nsamples = 3457\nvalue = [1, 1, 0 ... 1, 0, 0]"] ;
708 -> 709 ;
710 [label="X[9885] <= 0.5\ngini = 1.0\nsamples = 3456\nvalue = [1, 1, 0 ... 1, 0, 0]"] ;
709 -> 710 ;
711 [label="X[1074] <= 0.5\ngini = 1.0\nsamples = 3455\nvalue = [1, 1, 0 ... 1, 0, 0]"] ;
710 -> 711 ;
712 [label="X[2276] <= 0.5\ngini = 1.0\nsamples = 3453\nvalue = [1, 1, 0 ... 1, 0, 0]"] ;
711 -> 712 ;
713 [label="X[3793] <= 0.5\ngini = 1.0\nsamples = 3448\nvalue = [1, 1, 0 ... 1, 0, 0]"] ;
712 -> 713 ;
714 [label="X[13606] <= 0.5\ngini = 1.0\nsamples = 3444\nvalue = [1, 1, 0 ... 1, 0, 0]"] ;
713 -> 714 ;
715 [label="X[12085] <= 0.5\ngini = 1.0\nsamples = 3442\nvalue = [1, 1, 0 ... 1, 0, 0]"] ;
714 -> 715 ;
716 [label="X[5379] <= 0.5\ngini = 1.0\nsamples = 3441\nvalue = [1, 1, 0 ... 1, 0, 0]"] ;
715 -> 716 ;
717 [label="X[8647] <= 0.5\ngini = 1.0\nsamples = 3440\nvalue = [1, 1, 0 ... 1, 0, 0]"] ;
716 -> 717 ;
718 [label="X[7134] <= 0.5\ngini = 1.0\nsamples = 3439\nvalue = [1, 1, 0 ... 1, 0, 0]"] ;
717 -> 718 ;
719 [label="X[9494] <= 0.5\ngini = 1.0\nsamples = 3438\nvalue = [1, 1, 0 ... 1, 0, 0]"] ;
718 -> 719 ;
720 [label="X[365] <= 0.5\ngini = 1.0\nsamples = 3437\nvalue = [1, 1, 0 ... 1, 0, 0]"] ;
719 -> 720 ;
721 [label="X[13643] <= 0.5\ngini = 1.0\nsamples = 3430\nvalue = [1, 1, 0 ... 1, 0, 0]"] ;
720 -> 721 ;
722 [label="X[5406] <= 0.5\ngini = 1.0\nsamples = 3428\nvalue = [1, 1, 0 ... 1, 0, 0]"] ;
721 -> 722 ;
723 [label="X[6223] <= 0.5\ngini = 1.0\nsamples = 3427\nvalue = [1, 1, 0 ... 1, 0, 0]"] ;
722 -> 723 ;
724 [label="X[14213] <= 0.5\ngini = 1.0\nsamples = 3426\nvalue = [1, 1, 0 ... 1, 0, 0]"] ;
723 -> 724 ;
725 [label="X[1295] <= 0.5\ngini = 1.0\nsamples = 3425\nvalue = [1, 1, 0 ... 1, 0, 0]"] ;
724 -> 725 ;
726 [label="X[6627] <= 0.5\ngini = 1.0\nsamples = 3424\nvalue = [1, 1, 0 ... 1, 0, 0]"] ;
725 -> 726 ;
727 [label="X[10743] <= 0.5\ngini = 1.0\nsamples = 3423\nvalue = [1, 1, 0 ... 1, 0, 0]"] ;
726 -> 727 ;
728 [label="X[13536] <= 0.5\ngini = 1.0\nsamples = 3422\nvalue = [1, 1, 0 ... 1, 0, 0]"] ;
727 -> 728 ;
729 [label="X[1404] <= 0.5\ngini = 1.0\nsamples = 3421\nvalue = [1, 1, 0 ... 1, 0, 0]"] ;
728 -> 729 ;
730 [label="X[5667] <= 0.5\ngini = 1.0\nsamples = 3417\nvalue = [1, 1, 0 ... 1, 0, 0]"] ;
729 -> 730 ;
731 [label="X[5253] <= 0.5\ngini = 1.0\nsamples = 3416\nvalue = [1, 1, 0 ... 1, 0, 0]"] ;
730 -> 731 ;
732 [label="X[17014] <= 0.5\ngini = 1.0\nsamples = 3415\nvalue = [1, 1, 0 ... 1, 0, 0]"] ;
731 -> 732 ;
733 [label="X[12456] <= 0.5\ngini = 1.0\nsamples = 3414\nvalue = [1, 1, 0 ... 1, 0, 0]"] ;
732 -> 733 ;
734 [label="X[6747] <= 0.5\ngini = 1.0\nsamples = 3413\nvalue = [1, 1, 0 ... 1, 0, 0]"] ;
733 -> 734 ;
735 [label="X[1041] <= 0.5\ngini = 1.0\nsamples = 3410\nvalue = [1, 1, 0 ... 1, 0, 0]"] ;
734 -> 735 ;
736 [label="X[10576] <= 0.5\ngini = 1.0\nsamples = 3409\nvalue = [1, 1, 0 ... 1, 0, 0]"] ;
735 -> 736 ;
737 [label="X[5610] <= 0.5\ngini = 1.0\nsamples = 3408\nvalue = [1, 1, 0 ... 1, 0, 0]"] ;
736 -> 737 ;
738 [label="X[8] <= 0.5\ngini = 1.0\nsamples = 3407\nvalue = [1, 1, 0 ... 1, 0, 0]"] ;
737 -> 738 ;
739 [label="X[727] <= 0.5\ngini = 1.0\nsamples = 3378\nvalue = [1, 1, 0 ... 1, 0, 0]"] ;
738 -> 739 ;
740 [label="X[8504] <= 0.5\ngini = 1.0\nsamples = 3376\nvalue = [1, 1, 0 ... 1, 0, 0]"] ;
739 -> 740 ;
741 [label="X[8137] <= 0.5\ngini = 1.0\nsamples = 3375\nvalue = [1, 1, 0 ... 1, 0, 0]"] ;
740 -> 741 ;
742 [label="X[12710] <= 0.5\ngini = 1.0\nsamples = 3373\nvalue = [1, 1, 0 ... 1, 0, 0]"] ;
741 -> 742 ;
743 [label="X[10402] <= 0.5\ngini = 1.0\nsamples = 3371\nvalue = [1, 1, 0 ... 1, 0, 0]"] ;
742 -> 743 ;
744 [label="X[17449] <= 0.5\ngini = 1.0\nsamples = 3370\nvalue = [1, 1, 0 ... 1, 0, 0]"] ;
743 -> 744 ;
745 [label="X[5274] <= 0.5\ngini = 1.0\nsamples = 3369\nvalue = [1, 1, 0 ... 1, 0, 0]"] ;
744 -> 745 ;
746 [label="X[14537] <= 0.5\ngini = 1.0\nsamples = 3368\nvalue = [1, 1, 0 ... 1, 0, 0]"] ;
745 -> 746 ;
747 [label="X[12702] <= 0.5\ngini = 1.0\nsamples = 3367\nvalue = [1, 1, 0 ... 1, 0, 0]"] ;
746 -> 747 ;
748 [label="X[9542] <= 0.5\ngini = 1.0\nsamples = 3366\nvalue = [1, 1, 0 ... 1, 0, 0]"] ;
747 -> 748 ;
749 [label="X[5343] <= 0.5\ngini = 1.0\nsamples = 3364\nvalue = [1, 1, 0 ... 1, 0, 0]"] ;
748 -> 749 ;
750 [label="X[17055] <= 0.5\ngini = 1.0\nsamples = 3362\nvalue = [1, 1, 0 ... 1, 0, 0]"] ;
749 -> 750 ;
751 [label="X[2725] <= 0.5\ngini = 1.0\nsamples = 3361\nvalue = [1, 1, 0 ... 1, 0, 0]"] ;
750 -> 751 ;
752 [label="X[9360] <= 0.5\ngini = 1.0\nsamples = 3360\nvalue = [1, 1, 0 ... 1, 0, 0]"] ;
751 -> 752 ;
753 [label="X[13400] <= 0.5\ngini = 1.0\nsamples = 3358\nvalue = [1, 1, 0 ... 1, 0, 0]"] ;
752 -> 753 ;
754 [label="X[15015] <= 0.5\ngini = 1.0\nsamples = 3357\nvalue = [1, 1, 0 ... 1, 0, 0]"] ;
753 -> 754 ;
755 [label="X[4652] <= 0.5\ngini = 1.0\nsamples = 3356\nvalue = [1, 1, 0 ... 1, 0, 0]"] ;
754 -> 755 ;
756 [label="X[14412] <= 0.5\ngini = 1.0\nsamples = 3355\nvalue = [1, 1, 0 ... 1, 0, 0]"] ;
755 -> 756 ;
757 [label="X[11878] <= 0.5\ngini = 1.0\nsamples = 3354\nvalue = [1, 1, 0 ... 1, 0, 0]"] ;
756 -> 757 ;
758 [label="X[12955] <= 0.5\ngini = 1.0\nsamples = 3353\nvalue = [1, 1, 0 ... 1, 0, 0]"] ;
757 -> 758 ;
759 [label="X[7901] <= 0.5\ngini = 1.0\nsamples = 3349\nvalue = [1, 1, 0 ... 1, 0, 0]"] ;
758 -> 759 ;
760 [label="X[3091] <= 0.5\ngini = 1.0\nsamples = 3348\nvalue = [1, 1, 0 ... 1, 0, 0]"] ;
759 -> 760 ;
761 [label="X[16239] <= 0.5\ngini = 1.0\nsamples = 3343\nvalue = [1, 1, 0 ... 1, 0, 0]"] ;
760 -> 761 ;
762 [label="X[13430] <= 0.5\ngini = 1.0\nsamples = 3342\nvalue = [1, 1, 0 ... 1, 0, 0]"] ;
761 -> 762 ;
763 [label="X[5238] <= 0.5\ngini = 1.0\nsamples = 3341\nvalue = [1, 1, 0 ... 1, 0, 0]"] ;
762 -> 763 ;
764 [label="X[1908] <= 0.5\ngini = 1.0\nsamples = 3340\nvalue = [1, 1, 0 ... 1, 0, 0]"] ;
763 -> 764 ;
765 [label="X[14458] <= 0.5\ngini = 1.0\nsamples = 3321\nvalue = [1, 1, 0 ... 1, 0, 0]"] ;
764 -> 765 ;
766 [label="X[5203] <= 0.5\ngini = 1.0\nsamples = 3320\nvalue = [1, 1, 0 ... 1, 0, 0]"] ;
765 -> 766 ;
767 [label="X[17653] <= 0.5\ngini = 1.0\nsamples = 3319\nvalue = [1, 1, 0 ... 1, 0, 0]"] ;
766 -> 767 ;
768 [label="X[11779] <= 0.5\ngini = 1.0\nsamples = 3318\nvalue = [1, 1, 0 ... 1, 0, 0]"] ;
767 -> 768 ;
769 [label="X[10255] <= 0.5\ngini = 1.0\nsamples = 3316\nvalue = [1, 1, 0 ... 1, 0, 0]"] ;
768 -> 769 ;
770 [label="X[1690] <= 0.5\ngini = 1.0\nsamples = 3315\nvalue = [1, 1, 0 ... 1, 0, 0]"] ;
769 -> 770 ;
771 [label="X[17856] <= 0.5\ngini = 1.0\nsamples = 3314\nvalue = [1, 1, 0 ... 1, 0, 0]"] ;
770 -> 771 ;
772 [label="X[11241] <= 0.5\ngini = 1.0\nsamples = 3313\nvalue = [1, 1, 0 ... 1, 0, 0]"] ;
771 -> 772 ;
773 [label="X[13906] <= 0.5\ngini = 1.0\nsamples = 3312\nvalue = [1, 1, 0 ... 1, 0, 0]"] ;
772 -> 773 ;
774 [label="X[13566] <= 0.5\ngini = 1.0\nsamples = 3311\nvalue = [1, 1, 0 ... 1, 0, 0]"] ;
773 -> 774 ;
775 [label="X[2079] <= 0.5\ngini = 1.0\nsamples = 3310\nvalue = [1, 1, 0 ... 1, 0, 0]"] ;
774 -> 775 ;
776 [label="X[5319] <= 0.5\ngini = 1.0\nsamples = 3308\nvalue = [1, 1, 0 ... 1, 0, 0]"] ;
775 -> 776 ;
777 [label="X[8403] <= 0.5\ngini = 1.0\nsamples = 3304\nvalue = [1, 1, 0 ... 1, 0, 0]"] ;
776 -> 777 ;
778 [label="X[8711] <= 0.5\ngini = 1.0\nsamples = 3299\nvalue = [1, 1, 0 ... 1, 0, 0]"] ;
777 -> 778 ;
779 [label="X[1831] <= 0.5\ngini = 1.0\nsamples = 3298\nvalue = [1, 1, 0 ... 1, 0, 0]"] ;
778 -> 779 ;
780 [label="X[14274] <= 0.5\ngini = 1.0\nsamples = 3296\nvalue = [1, 1, 0 ... 1, 0, 0]"] ;
779 -> 780 ;
781 [label="X[3076] <= 0.5\ngini = 1.0\nsamples = 3295\nvalue = [1, 1, 0 ... 1, 0, 0]"] ;
780 -> 781 ;
782 [label="X[2728] <= 0.5\ngini = 1.0\nsamples = 3294\nvalue = [1, 1, 0 ... 1, 0, 0]"] ;
781 -> 782 ;
783 [label="X[16909] <= 0.5\ngini = 1.0\nsamples = 3290\nvalue = [1, 1, 0 ... 1, 0, 0]"] ;
782 -> 783 ;
784 [label="X[4930] <= 0.5\ngini = 1.0\nsamples = 3289\nvalue = [1, 1, 0 ... 1, 0, 0]"] ;
783 -> 784 ;
785 [label="X[12853] <= 0.5\ngini = 1.0\nsamples = 3287\nvalue = [1, 1, 0 ... 1, 0, 0]"] ;
784 -> 785 ;
786 [label="X[8034] <= 0.5\ngini = 1.0\nsamples = 3286\nvalue = [1, 1, 0 ... 1, 0, 0]"] ;
785 -> 786 ;
787 [label="X[7941] <= 0.5\ngini = 1.0\nsamples = 3285\nvalue = [1, 1, 0 ... 1, 0, 0]"] ;
786 -> 787 ;
788 [label="X[2581] <= 0.5\ngini = 1.0\nsamples = 3283\nvalue = [1, 1, 0 ... 1, 0, 0]"] ;
787 -> 788 ;
789 [label="X[12767] <= 0.5\ngini = 1.0\nsamples = 3281\nvalue = [1, 1, 0 ... 1, 0, 0]"] ;
788 -> 789 ;
790 [label="X[10949] <= 0.5\ngini = 1.0\nsamples = 3280\nvalue = [1, 1, 0 ... 1, 0, 0]"] ;
789 -> 790 ;
791 [label="X[17143] <= 0.5\ngini = 1.0\nsamples = 3279\nvalue = [1, 1, 0 ... 1, 0, 0]"] ;
790 -> 791 ;
792 [label="X[809] <= 0.5\ngini = 1.0\nsamples = 3278\nvalue = [1, 1, 0 ... 1, 0, 0]"] ;
791 -> 792 ;
793 [label="X[718] <= 0.5\ngini = 1.0\nsamples = 3277\nvalue = [1, 1, 0 ... 1, 0, 0]"] ;
792 -> 793 ;
794 [label="X[12206] <= 0.5\ngini = 1.0\nsamples = 3272\nvalue = [1, 1, 0 ... 1, 0, 0]"] ;
793 -> 794 ;
795 [label="X[562] <= 0.5\ngini = 1.0\nsamples = 3271\nvalue = [1, 1, 0 ... 1, 0, 0]"] ;
794 -> 795 ;
796 [label="X[8584] <= 0.5\ngini = 1.0\nsamples = 3269\nvalue = [1, 1, 0 ... 1, 0, 0]"] ;
795 -> 796 ;
797 [label="X[13371] <= 0.5\ngini = 1.0\nsamples = 3268\nvalue = [1, 1, 0 ... 1, 0, 0]"] ;
796 -> 797 ;
798 [label="X[501] <= 0.5\ngini = 1.0\nsamples = 3267\nvalue = [1, 1, 0 ... 1, 0, 0]"] ;
797 -> 798 ;
799 [label="X[9248] <= 0.5\ngini = 1.0\nsamples = 3263\nvalue = [1, 1, 0 ... 1, 0, 0]"] ;
798 -> 799 ;
800 [label="X[7402] <= 0.5\ngini = 1.0\nsamples = 3254\nvalue = [1, 1, 0 ... 1, 0, 0]"] ;
799 -> 800 ;
801 [label="X[14302] <= 0.5\ngini = 1.0\nsamples = 3250\nvalue = [1, 1, 0 ... 1, 0, 0]"] ;
800 -> 801 ;
802 [label="X[15566] <= 0.5\ngini = 1.0\nsamples = 3248\nvalue = [1, 1, 0 ... 1, 0, 0]"] ;
801 -> 802 ;
803 [label="X[14694] <= 0.5\ngini = 1.0\nsamples = 3246\nvalue = [1, 1, 0 ... 1, 0, 0]"] ;
802 -> 803 ;
804 [label="X[12286] <= 0.5\ngini = 1.0\nsamples = 3245\nvalue = [1, 1, 0 ... 1, 0, 0]"] ;
803 -> 804 ;
805 [label="X[10922] <= 0.5\ngini = 1.0\nsamples = 3244\nvalue = [1, 1, 0 ... 1, 0, 0]"] ;
804 -> 805 ;
806 [label="X[11202] <= 0.5\ngini = 1.0\nsamples = 3240\nvalue = [1, 1, 0 ... 1, 0, 0]"] ;
805 -> 806 ;
807 [label="X[6808] <= 0.5\ngini = 1.0\nsamples = 3238\nvalue = [1, 1, 0 ... 1, 0, 0]"] ;
806 -> 807 ;
808 [label="X[6481] <= 0.5\ngini = 1.0\nsamples = 3234\nvalue = [1, 1, 0 ... 1, 0, 0]"] ;
807 -> 808 ;
809 [label="X[16249] <= 0.5\ngini = 1.0\nsamples = 3233\nvalue = [1, 1, 0 ... 1, 0, 0]"] ;
808 -> 809 ;
810 [label="X[2159] <= 0.5\ngini = 1.0\nsamples = 3232\nvalue = [1, 1, 0 ... 1, 0, 0]"] ;
809 -> 810 ;
811 [label="X[3069] <= 0.5\ngini = 1.0\nsamples = 3231\nvalue = [1, 1, 0 ... 1, 0, 0]"] ;
810 -> 811 ;
812 [label="X[1973] <= 0.5\ngini = 1.0\nsamples = 3223\nvalue = [1, 1, 0 ... 1, 0, 0]"] ;
811 -> 812 ;
813 [label="X[2447] <= 0.5\ngini = 1.0\nsamples = 3214\nvalue = [1, 1, 0 ... 1, 0, 0]"] ;
812 -> 813 ;
814 [label="X[14968] <= 0.5\ngini = 1.0\nsamples = 3213\nvalue = [1, 1, 0 ... 1, 0, 0]"] ;
813 -> 814 ;
815 [label="X[3609] <= 0.5\ngini = 1.0\nsamples = 3208\nvalue = [1, 1, 0 ... 1, 0, 0]"] ;
814 -> 815 ;
816 [label="X[5827] <= 0.5\ngini = 1.0\nsamples = 3207\nvalue = [1, 1, 0 ... 1, 0, 0]"] ;
815 -> 816 ;
817 [label="X[7161] <= 0.5\ngini = 1.0\nsamples = 3206\nvalue = [1, 1, 0 ... 1, 0, 0]"] ;
816 -> 817 ;
818 [label="X[16256] <= 0.5\ngini = 1.0\nsamples = 3205\nvalue = [1, 1, 0 ... 1, 0, 0]"] ;
817 -> 818 ;
819 [label="X[12752] <= 0.5\ngini = 1.0\nsamples = 3204\nvalue = [1, 1, 0 ... 1, 0, 0]"] ;
818 -> 819 ;
820 [label="X[996] <= 0.5\ngini = 1.0\nsamples = 3203\nvalue = [1, 1, 0 ... 1, 0, 0]"] ;
819 -> 820 ;
821 [label="X[9627] <= 0.5\ngini = 1.0\nsamples = 3200\nvalue = [1, 1, 0 ... 1, 0, 0]"] ;
820 -> 821 ;
822 [label="X[3878] <= 0.5\ngini = 1.0\nsamples = 3199\nvalue = [1, 1, 0 ... 1, 0, 0]"] ;
821 -> 822 ;
823 [label="X[10318] <= 0.5\ngini = 1.0\nsamples = 3198\nvalue = [1, 1, 0 ... 1, 0, 0]"] ;
822 -> 823 ;
824 [label="X[148] <= 0.5\ngini = 1.0\nsamples = 3197\nvalue = [1, 1, 0 ... 1, 0, 0]"] ;
823 -> 824 ;
825 [label="X[4345] <= 0.5\ngini = 1.0\nsamples = 3196\nvalue = [1, 1, 0 ... 1, 0, 0]"] ;
824 -> 825 ;
826 [label="X[5451] <= 0.5\ngini = 1.0\nsamples = 3195\nvalue = [1, 1, 0 ... 1, 0, 0]"] ;
825 -> 826 ;
827 [label="X[1743] <= 0.5\ngini = 1.0\nsamples = 3193\nvalue = [1, 1, 0 ... 1, 0, 0]"] ;
826 -> 827 ;
828 [label="X[15313] <= 0.5\ngini = 1.0\nsamples = 3191\nvalue = [1, 1, 0 ... 1, 0, 0]"] ;
827 -> 828 ;
829 [label="X[17814] <= 0.5\ngini = 1.0\nsamples = 3190\nvalue = [1, 1, 0 ... 1, 0, 0]"] ;
828 -> 829 ;
830 [label="X[9781] <= 0.5\ngini = 1.0\nsamples = 3189\nvalue = [1, 1, 0 ... 1, 0, 0]"] ;
829 -> 830 ;
831 [label="X[12593] <= 0.5\ngini = 1.0\nsamples = 3188\nvalue = [1, 1, 0 ... 1, 0, 0]"] ;
830 -> 831 ;
832 [label="X[99] <= 0.5\ngini = 1.0\nsamples = 3187\nvalue = [1, 1, 0 ... 1, 0, 0]"] ;
831 -> 832 ;
833 [label="X[6944] <= 0.5\ngini = 1.0\nsamples = 3182\nvalue = [1, 1, 0 ... 1, 0, 0]"] ;
832 -> 833 ;
834 [label="X[8369] <= 0.5\ngini = 1.0\nsamples = 3180\nvalue = [1, 1, 0 ... 1, 0, 0]"] ;
833 -> 834 ;
835 [label="X[4561] <= 0.5\ngini = 1.0\nsamples = 3179\nvalue = [1, 1, 0 ... 1, 0, 0]"] ;
834 -> 835 ;
836 [label="X[3671] <= 0.5\ngini = 1.0\nsamples = 3178\nvalue = [1, 1, 0 ... 1, 0, 0]"] ;
835 -> 836 ;
837 [label="X[5225] <= 0.5\ngini = 1.0\nsamples = 3177\nvalue = [1, 1, 0 ... 1, 0, 0]"] ;
836 -> 837 ;
838 [label="X[17944] <= 0.5\ngini = 1.0\nsamples = 3176\nvalue = [1, 1, 0 ... 1, 0, 0]"] ;
837 -> 838 ;
839 [label="X[17139] <= 0.5\ngini = 1.0\nsamples = 3175\nvalue = [1, 1, 0 ... 1, 0, 0]"] ;
838 -> 839 ;
840 [label="X[11874] <= 0.5\ngini = 1.0\nsamples = 3174\nvalue = [1, 1, 0 ... 1, 0, 0]"] ;
839 -> 840 ;
841 [label="X[6939] <= 0.5\ngini = 1.0\nsamples = 3173\nvalue = [1, 1, 0 ... 1, 0, 0]"] ;
840 -> 841 ;
842 [label="X[4744] <= 0.5\ngini = 1.0\nsamples = 3172\nvalue = [1, 1, 0 ... 1, 0, 0]"] ;
841 -> 842 ;
843 [label="X[6597] <= 0.5\ngini = 1.0\nsamples = 3170\nvalue = [1, 1, 0 ... 1, 0, 0]"] ;
842 -> 843 ;
844 [label="X[9298] <= 0.5\ngini = 1.0\nsamples = 3169\nvalue = [1, 1, 0 ... 1, 0, 0]"] ;
843 -> 844 ;
845 [label="X[9707] <= 0.5\ngini = 1.0\nsamples = 3167\nvalue = [1, 1, 0 ... 1, 0, 0]"] ;
844 -> 845 ;
846 [label="X[2138] <= 0.5\ngini = 1.0\nsamples = 3166\nvalue = [1, 1, 0 ... 1, 0, 0]"] ;
845 -> 846 ;
847 [label="X[15114] <= 0.5\ngini = 1.0\nsamples = 3163\nvalue = [1, 1, 0 ... 1, 0, 0]"] ;
846 -> 847 ;
848 [label="X[14091] <= 0.5\ngini = 1.0\nsamples = 3162\nvalue = [1, 1, 0 ... 1, 0, 0]"] ;
847 -> 848 ;
849 [label="X[16976] <= 0.5\ngini = 1.0\nsamples = 3161\nvalue = [1, 1, 0 ... 1, 0, 0]"] ;
848 -> 849 ;
850 [label="X[16632] <= 0.5\ngini = 1.0\nsamples = 3160\nvalue = [1, 1, 0 ... 1, 0, 0]"] ;
849 -> 850 ;
851 [label="X[9776] <= 0.5\ngini = 1.0\nsamples = 3159\nvalue = [1, 1, 0 ... 1, 0, 0]"] ;
850 -> 851 ;
852 [label="X[15557] <= 0.5\ngini = 1.0\nsamples = 3158\nvalue = [1, 1, 0 ... 1, 0, 0]"] ;
851 -> 852 ;
853 [label="X[1452] <= 0.5\ngini = 1.0\nsamples = 3157\nvalue = [1, 1, 0 ... 1, 0, 0]"] ;
852 -> 853 ;
854 [label="X[12055] <= 0.5\ngini = 1.0\nsamples = 3155\nvalue = [1, 1, 0 ... 1, 0, 0]"] ;
853 -> 854 ;
855 [label="X[17191] <= 0.5\ngini = 1.0\nsamples = 3154\nvalue = [1, 1, 0 ... 1, 0, 0]"] ;
854 -> 855 ;
856 [label="X[7300] <= 0.5\ngini = 1.0\nsamples = 3153\nvalue = [1, 1, 0 ... 1, 0, 0]"] ;
855 -> 856 ;
857 [label="X[15655] <= 0.5\ngini = 1.0\nsamples = 3152\nvalue = [1, 1, 0 ... 1, 0, 0]"] ;
856 -> 857 ;
858 [label="X[5427] <= 0.5\ngini = 1.0\nsamples = 3151\nvalue = [1, 1, 0 ... 1, 0, 0]"] ;
857 -> 858 ;
859 [label="X[9227] <= 0.5\ngini = 1.0\nsamples = 3150\nvalue = [1, 1, 0 ... 1, 0, 0]"] ;
858 -> 859 ;
860 [label="X[10840] <= 0.5\ngini = 1.0\nsamples = 3140\nvalue = [1, 1, 0 ... 1, 0, 0]"] ;
859 -> 860 ;
861 [label="X[15417] <= 0.5\ngini = 1.0\nsamples = 3139\nvalue = [1, 1, 0 ... 1, 0, 0]"] ;
860 -> 861 ;
862 [label="X[14571] <= 0.5\ngini = 1.0\nsamples = 3138\nvalue = [1, 1, 0 ... 1, 0, 0]"] ;
861 -> 862 ;
863 [label="X[812] <= 0.5\ngini = 1.0\nsamples = 3137\nvalue = [1, 1, 0 ... 1, 0, 0]"] ;
862 -> 863 ;
864 [label="X[2967] <= 0.5\ngini = 1.0\nsamples = 3136\nvalue = [1, 1, 0 ... 1, 0, 0]"] ;
863 -> 864 ;
865 [label="X[1338] <= 0.5\ngini = 1.0\nsamples = 3134\nvalue = [1, 1, 0 ... 1, 0, 0]"] ;
864 -> 865 ;
866 [label="X[10691] <= 0.5\ngini = 1.0\nsamples = 3132\nvalue = [1, 1, 0 ... 1, 0, 0]"] ;
865 -> 866 ;
867 [label="X[1457] <= 0.5\ngini = 1.0\nsamples = 3131\nvalue = [1, 1, 0 ... 1, 0, 0]"] ;
866 -> 867 ;
868 [label="X[1128] <= 0.5\ngini = 1.0\nsamples = 3130\nvalue = [1, 1, 0 ... 1, 0, 0]"] ;
867 -> 868 ;
869 [label="X[289] <= 0.5\ngini = 1.0\nsamples = 3128\nvalue = [1, 1, 0 ... 1, 0, 0]"] ;
868 -> 869 ;
870 [label="X[6164] <= 0.5\ngini = 1.0\nsamples = 3119\nvalue = [1, 1, 0 ... 1, 0, 0]"] ;
869 -> 870 ;
871 [label="X[8059] <= 0.5\ngini = 1.0\nsamples = 3118\nvalue = [1, 1, 0 ... 1, 0, 0]"] ;
870 -> 871 ;
872 [label="X[10606] <= 0.5\ngini = 1.0\nsamples = 3115\nvalue = [1, 1, 0 ... 1, 0, 0]"] ;
871 -> 872 ;
873 [label="X[3660] <= 0.5\ngini = 1.0\nsamples = 3114\nvalue = [1, 1, 0 ... 1, 0, 0]"] ;
872 -> 873 ;
874 [label="X[5687] <= 0.5\ngini = 1.0\nsamples = 3113\nvalue = [1, 1, 0 ... 1, 0, 0]"] ;
873 -> 874 ;
875 [label="X[975] <= 0.5\ngini = 1.0\nsamples = 3112\nvalue = [1, 1, 0 ... 1, 0, 0]"] ;
874 -> 875 ;
876 [label="X[7691] <= 0.5\ngini = 1.0\nsamples = 3111\nvalue = [1, 1, 0 ... 1, 0, 0]"] ;
875 -> 876 ;
877 [label="X[11389] <= 0.5\ngini = 1.0\nsamples = 3110\nvalue = [1, 1, 0 ... 1, 0, 0]"] ;
876 -> 877 ;
878 [label="X[11528] <= 0.5\ngini = 1.0\nsamples = 3109\nvalue = [1, 1, 0 ... 1, 0, 0]"] ;
877 -> 878 ;
879 [label="X[11016] <= 0.5\ngini = 1.0\nsamples = 3108\nvalue = [1, 1, 0 ... 1, 0, 0]"] ;
878 -> 879 ;
880 [label="X[1571] <= 0.5\ngini = 1.0\nsamples = 3107\nvalue = [1, 1, 0 ... 1, 0, 0]"] ;
879 -> 880 ;
881 [label="X[12426] <= 0.5\ngini = 1.0\nsamples = 3106\nvalue = [1, 1, 0 ... 1, 0, 0]"] ;
880 -> 881 ;
882 [label="X[10532] <= 0.5\ngini = 1.0\nsamples = 3104\nvalue = [1, 1, 0 ... 1, 0, 0]"] ;
881 -> 882 ;
883 [label="X[4263] <= 0.5\ngini = 1.0\nsamples = 3103\nvalue = [1, 1, 0 ... 1, 0, 0]"] ;
882 -> 883 ;
884 [label="X[11357] <= 0.5\ngini = 1.0\nsamples = 3102\nvalue = [1, 1, 0 ... 1, 0, 0]"] ;
883 -> 884 ;
885 [label="X[10363] <= 0.5\ngini = 1.0\nsamples = 3101\nvalue = [1, 1, 0 ... 1, 0, 0]"] ;
884 -> 885 ;
886 [label="X[6259] <= 0.5\ngini = 1.0\nsamples = 3100\nvalue = [1, 1, 0 ... 1, 0, 0]"] ;
885 -> 886 ;
887 [label="X[3048] <= 0.5\ngini = 1.0\nsamples = 3095\nvalue = [1, 1, 0 ... 1, 0, 0]"] ;
886 -> 887 ;
888 [label="X[14566] <= 0.5\ngini = 1.0\nsamples = 3094\nvalue = [1, 1, 0 ... 1, 0, 0]"] ;
887 -> 888 ;
889 [label="X[3752] <= 0.5\ngini = 1.0\nsamples = 3093\nvalue = [1, 1, 0 ... 1, 0, 0]"] ;
888 -> 889 ;
890 [label="X[6240] <= 0.5\ngini = 1.0\nsamples = 3091\nvalue = [1, 1, 0 ... 1, 0, 0]"] ;
889 -> 890 ;
891 [label="X[17798] <= 0.5\ngini = 1.0\nsamples = 3088\nvalue = [1, 1, 0 ... 1, 0, 0]"] ;
890 -> 891 ;
892 [label="X[6660] <= 0.5\ngini = 1.0\nsamples = 3087\nvalue = [1, 1, 0 ... 1, 0, 0]"] ;
891 -> 892 ;
893 [label="X[7858] <= 0.5\ngini = 1.0\nsamples = 3086\nvalue = [1, 1, 0 ... 1, 0, 0]"] ;
892 -> 893 ;
894 [label="X[9917] <= 0.5\ngini = 1.0\nsamples = 3085\nvalue = [1, 1, 0 ... 1, 0, 0]"] ;
893 -> 894 ;
895 [label="X[2255] <= 0.5\ngini = 1.0\nsamples = 3084\nvalue = [1, 1, 0 ... 1, 0, 0]"] ;
894 -> 895 ;
896 [label="X[8902] <= 0.5\ngini = 1.0\nsamples = 3083\nvalue = [1, 1, 0 ... 1, 0, 0]"] ;
895 -> 896 ;
897 [label="X[14069] <= 0.5\ngini = 1.0\nsamples = 3081\nvalue = [1, 1, 0 ... 1, 0, 0]"] ;
896 -> 897 ;
898 [label="X[16100] <= 0.5\ngini = 1.0\nsamples = 3080\nvalue = [1, 1, 0 ... 1, 0, 0]"] ;
897 -> 898 ;
899 [label="X[15485] <= 0.5\ngini = 1.0\nsamples = 3079\nvalue = [1, 1, 0 ... 1, 0, 0]"] ;
898 -> 899 ;
900 [label="X[12074] <= 0.5\ngini = 1.0\nsamples = 3078\nvalue = [1, 1, 0 ... 1, 0, 0]"] ;
899 -> 900 ;
901 [label="X[2795] <= 0.5\ngini = 1.0\nsamples = 3077\nvalue = [1, 1, 0 ... 1, 0, 0]"] ;
900 -> 901 ;
902 [label="X[9320] <= 0.5\ngini = 1.0\nsamples = 3076\nvalue = [1, 1, 0 ... 1, 0, 0]"] ;
901 -> 902 ;
903 [label="X[9197] <= 0.5\ngini = 1.0\nsamples = 3075\nvalue = [1, 1, 0 ... 1, 0, 0]"] ;
902 -> 903 ;
904 [label="X[4492] <= 0.5\ngini = 1.0\nsamples = 3074\nvalue = [1, 1, 0 ... 1, 0, 0]"] ;
903 -> 904 ;
905 [label="X[6790] <= 0.5\ngini = 1.0\nsamples = 3073\nvalue = [1, 1, 0 ... 1, 0, 0]"] ;
904 -> 905 ;
906 [label="X[16743] <= 0.5\ngini = 1.0\nsamples = 3072\nvalue = [1, 1, 0 ... 1, 0, 0]"] ;
905 -> 906 ;
907 [label="X[13101] <= 0.5\ngini = 1.0\nsamples = 3071\nvalue = [1, 1, 0 ... 1, 0, 0]"] ;
906 -> 907 ;
908 [label="X[8331] <= 0.5\ngini = 1.0\nsamples = 3070\nvalue = [1, 1, 0 ... 1, 0, 0]"] ;
907 -> 908 ;
909 [label="X[1774] <= 0.5\ngini = 1.0\nsamples = 3069\nvalue = [1, 1, 0 ... 1, 0, 0]"] ;
908 -> 909 ;
910 [label="X[17413] <= 0.5\ngini = 1.0\nsamples = 3068\nvalue = [1, 1, 0 ... 1, 0, 0]"] ;
909 -> 910 ;
911 [label="X[16599] <= 0.5\ngini = 1.0\nsamples = 3067\nvalue = [1, 1, 0 ... 1, 0, 0]"] ;
910 -> 911 ;
912 [label="X[4149] <= 0.5\ngini = 1.0\nsamples = 3066\nvalue = [1, 1, 0 ... 1, 0, 0]"] ;
911 -> 912 ;
913 [label="X[8825] <= 0.5\ngini = 1.0\nsamples = 3065\nvalue = [1, 1, 0 ... 1, 0, 0]"] ;
912 -> 913 ;
914 [label="X[10126] <= 0.5\ngini = 1.0\nsamples = 3064\nvalue = [1, 1, 0 ... 1, 0, 0]"] ;
913 -> 914 ;
915 [label="X[2739] <= 0.5\ngini = 1.0\nsamples = 3063\nvalue = [1, 1, 0 ... 1, 0, 0]"] ;
914 -> 915 ;
916 [label="X[1520] <= 0.5\ngini = 1.0\nsamples = 3061\nvalue = [1, 1, 0 ... 1, 0, 0]"] ;
915 -> 916 ;
917 [label="X[6311] <= 0.5\ngini = 1.0\nsamples = 3060\nvalue = [1, 1, 0 ... 1, 0, 0]"] ;
916 -> 917 ;
918 [label="X[801] <= 0.5\ngini = 1.0\nsamples = 3059\nvalue = [1, 1, 0 ... 1, 0, 0]"] ;
917 -> 918 ;
919 [label="X[3525] <= 0.5\ngini = 1.0\nsamples = 3058\nvalue = [1, 1, 0 ... 1, 0, 0]"] ;
918 -> 919 ;
920 [label="X[17032] <= 0.5\ngini = 1.0\nsamples = 3057\nvalue = [1, 1, 0 ... 1, 0, 0]"] ;
919 -> 920 ;
921 [label="X[5006] <= 0.5\ngini = 1.0\nsamples = 3056\nvalue = [1, 1, 0 ... 1, 0, 0]"] ;
920 -> 921 ;
922 [label="X[707] <= 0.5\ngini = 1.0\nsamples = 3055\nvalue = [1, 1, 0 ... 1, 0, 0]"] ;
921 -> 922 ;
923 [label="X[396] <= 0.5\ngini = 1.0\nsamples = 3052\nvalue = [1, 1, 0 ... 1, 0, 0]"] ;
922 -> 923 ;
924 [label="X[239] <= 0.5\ngini = 1.0\nsamples = 3051\nvalue = [1, 1, 0 ... 1, 0, 0]"] ;
923 -> 924 ;
925 [label="X[17867] <= 0.5\ngini = 1.0\nsamples = 3048\nvalue = [1, 1, 0 ... 1, 0, 0]"] ;
924 -> 925 ;
926 [label="X[14239] <= 0.5\ngini = 1.0\nsamples = 3047\nvalue = [1, 1, 0 ... 1, 0, 0]"] ;
925 -> 926 ;
927 [label="X[6017] <= 0.5\ngini = 1.0\nsamples = 3046\nvalue = [1, 1, 0 ... 1, 0, 0]"] ;
926 -> 927 ;
928 [label="X[4444] <= 0.5\ngini = 1.0\nsamples = 3045\nvalue = [1, 1, 0 ... 1, 0, 0]"] ;
927 -> 928 ;
929 [label="X[6064] <= 0.5\ngini = 1.0\nsamples = 3043\nvalue = [1, 1, 0 ... 1, 0, 0]"] ;
928 -> 929 ;
930 [label="X[473] <= 0.5\ngini = 1.0\nsamples = 3041\nvalue = [1, 1, 0 ... 1, 0, 0]"] ;
929 -> 930 ;
931 [label="X[10455] <= 0.5\ngini = 1.0\nsamples = 3031\nvalue = [1, 1, 0 ... 1, 0, 0]"] ;
930 -> 931 ;
932 [label="X[15552] <= 0.5\ngini = 1.0\nsamples = 3029\nvalue = [1, 1, 0 ... 1, 0, 0]"] ;
931 -> 932 ;
933 [label="X[170] <= 0.5\ngini = 1.0\nsamples = 3028\nvalue = [1, 1, 0 ... 1, 0, 0]"] ;
932 -> 933 ;
934 [label="X[5657] <= 0.5\ngini = 1.0\nsamples = 2965\nvalue = [1, 1, 0 ... 1, 0, 0]"] ;
933 -> 934 ;
935 [label="X[369] <= 0.5\ngini = 1.0\nsamples = 2964\nvalue = [1, 1, 0 ... 1, 0, 0]"] ;
934 -> 935 ;
936 [label="X[16385] <= 0.5\ngini = 1.0\nsamples = 2940\nvalue = [1, 1, 0 ... 1, 0, 0]"] ;
935 -> 936 ;
937 [label="X[449] <= 0.5\ngini = 1.0\nsamples = 2939\nvalue = [1, 1, 0 ... 1, 0, 0]"] ;
936 -> 937 ;
938 [label="X[11935] <= 0.5\ngini = 1.0\nsamples = 2935\nvalue = [1, 1, 0 ... 1, 0, 0]"] ;
937 -> 938 ;
939 [label="X[1259] <= 0.5\ngini = 1.0\nsamples = 2934\nvalue = [1, 1, 0 ... 1, 0, 0]"] ;
938 -> 939 ;
940 [label="X[2904] <= 0.5\ngini = 1.0\nsamples = 2932\nvalue = [1, 1, 0 ... 1, 0, 0]"] ;
939 -> 940 ;
941 [label="X[7481] <= 0.5\ngini = 1.0\nsamples = 2930\nvalue = [1, 1, 0 ... 1, 0, 0]"] ;
940 -> 941 ;
942 [label="X[327] <= 0.5\ngini = 1.0\nsamples = 2927\nvalue = [1, 1, 0 ... 1, 0, 0]"] ;
941 -> 942 ;
943 [label="X[3093] <= 0.5\ngini = 1.0\nsamples = 2926\nvalue = [1, 1, 0 ... 1, 0, 0]"] ;
942 -> 943 ;
944 [label="X[4788] <= 0.5\ngini = 1.0\nsamples = 2925\nvalue = [1, 1, 0 ... 1, 0, 0]"] ;
943 -> 944 ;
945 [label="X[4404] <= 0.5\ngini = 1.0\nsamples = 2924\nvalue = [1, 1, 0 ... 1, 0, 0]"] ;
944 -> 945 ;
946 [label="X[2495] <= 0.5\ngini = 1.0\nsamples = 2923\nvalue = [1, 1, 0 ... 1, 0, 0]"] ;
945 -> 946 ;
947 [label="X[3423] <= 0.5\ngini = 1.0\nsamples = 2915\nvalue = [1, 1, 0 ... 1, 0, 0]"] ;
946 -> 947 ;
948 [label="X[14347] <= 0.5\ngini = 1.0\nsamples = 2914\nvalue = [1, 1, 0 ... 1, 0, 0]"] ;
947 -> 948 ;
949 [label="X[1935] <= 0.5\ngini = 1.0\nsamples = 2912\nvalue = [1, 1, 0 ... 1, 0, 0]"] ;
948 -> 949 ;
950 [label="X[7302] <= 0.5\ngini = 1.0\nsamples = 2911\nvalue = [1, 1, 0 ... 1, 0, 0]"] ;
949 -> 950 ;
951 [label="X[17107] <= 0.5\ngini = 1.0\nsamples = 2906\nvalue = [1, 1, 0 ... 1, 0, 0]"] ;
950 -> 951 ;
952 [label="X[8098] <= 0.5\ngini = 1.0\nsamples = 2905\nvalue = [1, 1, 0 ... 1, 0, 0]"] ;
951 -> 952 ;
953 [label="X[928] <= 0.5\ngini = 1.0\nsamples = 2904\nvalue = [1, 1, 0 ... 1, 0, 0]"] ;
952 -> 953 ;
954 [label="X[15390] <= 0.5\ngini = 1.0\nsamples = 2893\nvalue = [1, 1, 0 ... 1, 0, 0]"] ;
953 -> 954 ;
955 [label="X[7844] <= 0.5\ngini = 1.0\nsamples = 2892\nvalue = [1, 1, 0 ... 1, 0, 0]"] ;
954 -> 955 ;
956 [label="X[11929] <= 0.5\ngini = 1.0\nsamples = 2891\nvalue = [1, 1, 0 ... 1, 0, 0]"] ;
955 -> 956 ;
957 [label="X[6175] <= 0.5\ngini = 1.0\nsamples = 2890\nvalue = [1, 1, 0 ... 1, 0, 0]"] ;
956 -> 957 ;
958 [label="X[9832] <= 0.5\ngini = 1.0\nsamples = 2888\nvalue = [1, 1, 0 ... 1, 0, 0]"] ;
957 -> 958 ;
959 [label="X[735] <= 0.5\ngini = 1.0\nsamples = 2887\nvalue = [1, 1, 0 ... 1, 0, 0]"] ;
958 -> 959 ;
960 [label="X[316] <= 0.5\ngini = 1.0\nsamples = 2883\nvalue = [1, 1, 0 ... 1, 0, 0]"] ;
959 -> 960 ;
961 [label="X[13103] <= 0.5\ngini = 1.0\nsamples = 2882\nvalue = [1, 1, 0 ... 1, 0, 0]"] ;
960 -> 961 ;
962 [label="X[10813] <= 0.5\ngini = 1.0\nsamples = 2881\nvalue = [1, 1, 0 ... 1, 0, 0]"] ;
961 -> 962 ;
963 [label="X[8947] <= 0.5\ngini = 1.0\nsamples = 2879\nvalue = [1, 1, 0 ... 1, 0, 0]"] ;
962 -> 963 ;
964 [label="X[4701] <= 0.5\ngini = 1.0\nsamples = 2878\nvalue = [1, 1, 0 ... 1, 0, 0]"] ;
963 -> 964 ;
965 [label="X[16573] <= 0.5\ngini = 1.0\nsamples = 2877\nvalue = [1, 1, 0 ... 1, 0, 0]"] ;
964 -> 965 ;
966 [label="X[2075] <= 0.5\ngini = 1.0\nsamples = 2876\nvalue = [1, 1, 0 ... 1, 0, 0]"] ;
965 -> 966 ;
967 [label="X[2047] <= 0.5\ngini = 1.0\nsamples = 2867\nvalue = [1, 1, 0 ... 1, 0, 0]"] ;
966 -> 967 ;
968 [label="X[17242] <= 0.5\ngini = 1.0\nsamples = 2866\nvalue = [1, 1, 0 ... 1, 0, 0]"] ;
967 -> 968 ;
969 [label="X[9524] <= 0.5\ngini = 1.0\nsamples = 2865\nvalue = [1, 1, 0 ... 1, 0, 0]"] ;
968 -> 969 ;
